DATE: Sun May  3 18:56:25 2020 CONTRIBUTOR: Jonathan Vandermause, jonathan_vandermause@g.harvard.edu
chebyshev
2 3 3 3570
cosine
5.00
  3.4621161486013858e-05  2.0772696891608317e-04  3.4621161486013885e-04  4.8469626080419428e-04  1.6986406280343610e-05
  5.0959218841030825e-05  8.4932031401718065e-05  1.1890484396240526e-04 -6.0908171662937195e-05 -1.8272451498881163e-04
 -3.0454085831468615e-04 -4.2635720164056073e-04  1.5544591853012746e-04  1.6630070820676678e-04 -2.3664349157078910e-04
 -4.7715868415968885e-04  1.9968905796445332e-05  1.9848006016977095e-05 -3.6911744599784695e-05 -7.4748450433459991e-05
 -1.5070940902575457e-04 -1.6284482923460225e-04  2.2336315349203342e-04  4.5197573654984826e-04  4.1670756545452591e-06
  1.2501226963635780e-05  2.0835378272726307e-05  2.9169529581816830e-05 -1.4941886771729504e-05 -4.4825660315188506e-05
 -7.4709433858647555e-05 -1.0459320740210654e-04  3.8133722461053556e-05  4.0796600591378016e-05 -5.8052969901722744e-05
 -1.1705573876550828e-04  4.8987372501837888e-06  4.8690783264922600e-06 -9.0551250070208401e-06 -1.8337159895715941e-05
 -3.6971770184777536e-05 -3.9948810370639751e-05  5.4795060454675553e-05  1.1087790184328128e-04  5.3577136295968874e-05
  1.6073140888790669e-04  2.6788568147984449e-04  3.7503995407178238e-04 -1.3673612154752201e-04 -1.4628440595815506e-04
  2.0816058429081271e-04  4.1972686353980768e-04 -1.7565406386817181e-05 -1.7459058358533433e-05  3.2468969554508051e-05
  6.5751570067615347e-05  1.3256970826742417e-04  1.4324448383179928e-04 -1.9647869557414647e-04 -3.9757498835476260e-04
  3.4837414169209023e-04  8.1852832097435366e-04  8.3102631123912400e-04  6.2619233079049582e-04  4.5356680555656403e-05
  1.0350396949422980e-04  9.6988684004725568e-05  6.3391178656256784e-05 -3.3731728690506314e-04 -7.9476872890944057e-04
 -8.1275458689430763e-04 -6.1938328126525429e-04  5.2914153388212715e-06  1.1499001744831431e-05  9.2700907125305702e-06
  4.3399246047430737e-06 -4.4366176407695853e-05 -1.0168924532607526e-04 -9.6467074029032439e-05 -6.4453935063527504e-05
  3.2628285045542468e-04  7.7081107692229312e-04  7.9363426657730871e-04  6.1121585088937049e-04  3.1159045337412485e-04
  1.0386348445804165e-03  1.4540887824125832e-03  5.0959218841030832e-05  1.5287765652309250e-04  2.5479609420515426e-04
  3.5671453188721597e-04 -1.8272451498881163e-04 -5.4817354496643504e-04 -9.1362257494405873e-04 -1.2790716049216823e-03
  4.6633775559038252e-04  4.9890212462030069e-04 -7.0993047471236740e-04 -1.4314760524790668e-03  5.9906717389335997e-05
  5.9544018050931312e-05 -1.1073523379935409e-04 -2.2424535130037999e-04 -4.5212822707726389e-04 -4.8853448770380702e-04
  6.7008946047610041e-04  1.3559272096495449e-03  1.2501226963635780e-05  3.7503680890907346e-05  6.2506134818178920e-05
  8.7508588745450507e-05 -4.4825660315188519e-05 -1.3447698094556554e-04 -2.2412830157594269e-04 -3.1377962220631970e-04
  1.1440116738316069e-04  1.2238980177413405e-04 -1.7415890970516826e-04 -3.5116721629652485e-04  1.4696211750551366e-05
  1.4607234979476778e-05 -2.7165375021062525e-05 -5.5011479687147831e-05 -1.1091531055433263e-04 -1.1984643111191928e-04
  1.6438518136402671e-04  3.3263370552984384e-04  1.6073140888790664e-04  4.8219422666372005e-04  8.0365704443953381e-04
  1.1251198622153472e-03 -4.1020836464256605e-04 -4.3885321787446522e-04  6.2448175287243830e-04  1.2591805906194231e-03
 -5.2696219160451544e-05 -5.2377175075600275e-05  9.7406908663524167e-05  1.9725471020284608e-04  3.9770912480227257e-04
  4.2973345149539789e-04 -5.8943608672243949e-04 -1.1927249650642881e-03  1.0451224250762705e-03  2.4555849629230610e-03
  2.4930789337173727e-03  1.8785769923714882e-03  1.3607004166696926e-04  3.1051190848268949e-04  2.9096605201417674e-04
  1.9017353596877042e-04 -1.0119518607151893e-03 -2.3843061867283221e-03 -2.4382637606829233e-03 -1.8581498437957636e-03
  1.5874246016463817e-05  3.4497005234494308e-05  2.7810272137591724e-05  1.3019773814229224e-05 -1.3309852922308761e-04
 -3.0506773597822580e-04 -2.8940122208709752e-04 -1.9336180519058258e-04  9.7884855136627430e-04  2.3124332307668805e-03
  2.3809027997319259e-03  1.8336475526681123e-03  8.6552903715034755e-04  2.4234813040209724e-03  8.4932031401718078e-05
  2.5479609420515426e-04  4.2466015700859058e-04  5.9452421981202679e-04 -3.0454085831468615e-04 -9.1362257494405829e-04
 -1.5227042915734316e-03 -2.1317860082028044e-03  7.7722959265063771e-04  8.3150354103383453e-04 -1.1832174578539460e-03
 -2.3857934207984458e-03  9.9844528982226716e-05  9.9240030084885570e-05 -1.8455872299892359e-04 -3.7374225216730005e-04
 -7.5354704512877325e-04 -8.1422414617301196e-04  1.1168157674601676e-03  2.2598786827492424e-03  2.0835378272726313e-05
  6.2506134818178933e-05  1.0417689136363157e-04  1.4584764790908424e-04 -7.4709433858647582e-05 -2.2412830157594269e-04
 -3.7354716929323786e-04 -5.2296603701053302e-04  1.9066861230526792e-04  2.0398300295689024e-04 -2.9026484950861388e-04
 -5.8527869382754159e-04  2.4493686250918959e-05  2.4345391632461315e-05 -4.5275625035104229e-05 -9.1685799478579761e-05
 -1.8485885092388776e-04 -1.9974405185319889e-04  2.7397530227337791e-04  5.5438950921640664e-04  2.6788568147984449e-04
  8.0365704443953381e-04  1.3394284073992234e-03  1.8751997703589126e-03 -6.8368060773761033e-04 -7.3142202979077555e-04
  1.0408029214540643e-03  2.0986343176990392e-03 -8.7827031934085948e-05 -8.7295291792667160e-05  1.6234484777254035e-04
  3.2875785033807697e-04  6.6284854133712124e-04  7.1622241915899687e-04 -9.8239347787073281e-04 -1.9878749417738140e-03
  1.7418707084604522e-03  4.0926416048717700e-03  4.1551315561956228e-03  3.1309616539524810e-03  2.2678340277828212e-04
  5.1751984747114938e-04  4.8494342002362802e-04  3.1695589328128407e-04 -1.6865864345253165e-03 -3.9738436445472050e-03
 -4.0637729344715403e-03 -3.0969164063262746e-03  2.6457076694106375e-05  5.7495008724157211e-05  4.6350453562652878e-05
  2.1699623023715379e-05 -2.2183088203847937e-04 -5.0844622663037643e-04 -4.8233537014516264e-04 -3.2226967531763767e-04
  1.6314142522771246e-03  3.8540553846114680e-03  3.9681713328865451e-03  3.0560792544468553e-03  1.6964369128146810e-03
  1.1890484396240528e-04  3.5671453188721586e-04  5.9452421981202679e-04  8.3233390773683729e-04 -4.2635720164056052e-04
 -1.2790716049216819e-03 -2.1317860082028040e-03 -2.9845004114839261e-03  1.0881214297108928e-03  1.1641049574473681e-03
 -1.6565044409955244e-03 -3.3401107891178239e-03  1.3978234057511739e-04  1.3893604211883976e-04 -2.5838221219849302e-04
 -5.2323915303422006e-04 -1.0549658631802824e-03 -1.1399138046422168e-03  1.5635420744442349e-03  3.1638301558489395e-03
  2.9169529581816833e-05  8.7508588745450507e-05  1.4584764790908424e-04  2.0418670707271795e-04 -1.0459320740210656e-04
 -3.1377962220631970e-04 -5.2296603701053302e-04 -7.3215245181474612e-04  2.6693605722737503e-04  2.8557620413964633e-04
 -4.0637078931205937e-04 -8.1939017135855834e-04  3.4291160751286523e-05  3.4083548285445812e-05 -6.3385875049145913e-05
 -1.2836011927001167e-04 -2.5880239129344278e-04 -2.7964167259447839e-04  3.8356542318272908e-04  7.7614531290296927e-04
  3.7503995407178227e-04  1.1251198622153472e-03  1.8751997703589129e-03  2.6252796785024776e-03 -9.5715285083265429e-04
 -1.0239908417070853e-03  1.4571240900356898e-03  2.9380880447786549e-03 -1.2295784470772031e-04 -1.2221340850973405e-04
  2.2728278688155648e-04  4.6026099047330769e-04  9.2798795787196959e-04  1.0027113868225955e-03 -1.3753508690190260e-03
 -2.7830249184833400e-03  2.4386189918446325e-03  5.7296982468204756e-03  5.8171841786738704e-03  4.3833463155334724e-03
  3.1749676388959498e-04  7.2452778645960901e-04  6.7892078803307907e-04  4.4373825059379761e-04 -2.3612210083354427e-03
 -5.5633811023660861e-03 -5.6892821082601564e-03 -4.3356829688567834e-03  3.7039907371748927e-05  8.0493012213820047e-05
  6.4890634987714005e-05  3.0379472233201519e-05 -3.1056323485387119e-04 -7.1182471728252700e-04 -6.7526951820322733e-04
 -4.5117754544469265e-04  2.2839799531879736e-03  5.3956775384560538e-03  5.5554398660411630e-03  4.2785109562255962e-03
  2.0835378272726304e-06  1.2501226963635783e-05  2.0835378272726313e-05  2.9169529581816833e-05 -1.4941886771729501e-05
 -4.4825660315188519e-05 -7.4709433858647555e-05 -1.0459320740210662e-04  3.8133722461053556e-05  4.0796600591378016e-05
 -5.8052969901722751e-05 -1.1705573876550829e-04  4.8987372501837888e-06  4.8690783264922617e-06 -9.0551250070208418e-06
 -1.8337159895715941e-05 -3.6971770184777542e-05 -3.9948810370639798e-05  5.4795060454675560e-05  1.1087790184328128e-04
  1.0222597543070512e-06  3.0667792629211538e-06  5.1112987715352583e-06  7.1558182801493637e-06 -3.6655176834841613e-06
 -1.0996553050452481e-05 -1.8327588417420805e-05 -2.5658623784389123e-05  9.3548984913027572e-06  1.0008151124305925e-05
 -1.4241453639988182e-05 -2.8715910309940643e-05  1.2017497048140738e-06  1.1944738292218362e-06 -2.2213875226383222e-06
 -4.4984401829223124e-06 -9.0698503791652111e-06 -9.8001727014014832e-06  1.3442228958943480e-05  2.7200374097542793e-05
  1.3143449921925982e-05  3.9430349765777952e-05  6.5717249609629916e-05  9.2004149453481893e-05 -3.3543867595877059e-05
 -3.5886236125956646e-05  5.1065592610835383e-05  1.0296666438735344e-04 -4.3091149539618257e-06 -4.2830258405698440e-06
  7.9652311575362149e-06  1.6130060847181406e-05  3.2521770334117786e-05  3.5140487715410896e-05 -4.8199811982082975e-05
 -9.7532404882272363e-05  8.5462538724161759e-05  2.0079994453182484e-04  2.0386592977340799e-04  1.5361641383319392e-04
  1.1126822012562796e-05  2.5391413834679322e-05  2.3793095326476541e-05  1.5551013730143359e-05 -8.2750090332286199e-05
 -1.9497128271710087e-04 -1.9938354212606000e-04 -1.5194602964250961e-04  1.2980808107719100e-06  2.8209151148062186e-06
  2.2741225357545650e-06  1.0646627582382898e-06 -1.0883833257167916e-05 -2.4946228856996164e-05 -2.3665134874159209e-05
 -1.5811727284167706e-05  8.0043141567960228e-05  1.8909403318661990e-04  1.9469297839026420e-04  1.4994240982335328e-04
  1.8751840445453666e-05  6.2506134818178920e-05  8.7508588745450480e-05 -4.4825660315188506e-05 -1.3447698094556552e-04
 -2.2412830157594269e-04 -3.1377962220631981e-04  1.1440116738316067e-04  1.2238980177413405e-04 -1.7415890970516826e-04
 -3.5116721629652485e-04  1.4696211750551363e-05  1.4607234979476778e-05 -2.7165375021062525e-05 -5.5011479687147831e-05
 -1.1091531055433261e-04 -1.1984643111191935e-04  1.6438518136402668e-04  3.3263370552984379e-04  3.0667792629211534e-06
  9.2003377887634605e-06  1.5333896314605772e-05  2.1467454840448088e-05 -1.0996553050452481e-05 -3.2989659151357444e-05
 -5.4982765252262406e-05 -7.6975871353167369e-05  2.8064695473908262e-05  3.0024453372917776e-05 -4.2724360919964548e-05
 -8.6147730929821918e-05  3.6052491144422210e-06  3.5834214876655078e-06 -6.6641625679149666e-06 -1.3495320548766935e-05
 -2.7209551137495633e-05 -2.9400518104204446e-05  4.0326686876830445e-05  8.1601122292628369e-05  3.9430349765777939e-05
  1.1829104929733384e-04  1.9715174882888978e-04  2.7601244836044573e-04 -1.0063160278763119e-04 -1.0765870837786992e-04
  1.5319677783250614e-04  3.0889999316206036e-04 -1.2927344861885473e-05 -1.2849077521709533e-05  2.3895693472608646e-05
  4.8390182541544220e-05  9.7565311002353379e-05  1.0542146314623268e-04 -1.4459943594624891e-04 -2.9259721464681710e-04
  2.5638761617248528e-04  6.0239983359547443e-04  6.1159778932022384e-04  4.6084924149958166e-04  3.3380466037688389e-05
  7.6174241504037965e-05  7.1379285979429613e-05  4.6653041190430070e-05 -2.4825027099685857e-04 -5.8491384815130272e-04
 -5.9815062637817999e-04 -4.5583808892752888e-04  3.8942424323157278e-06  8.4627453444186558e-06  6.8223676072636975e-06
  3.1939882747148660e-06 -3.2651499771503746e-05 -7.4838686570988488e-05 -7.0995404622477634e-05 -4.7435181852503077e-05
  2.4012942470388068e-04  5.6728209955985960e-04  5.8407893517079261e-04  4.4982722947005979e-04  5.2088445681815814e-05
  1.4584764790908424e-04 -7.4709433858647555e-05 -2.2412830157594269e-04 -3.7354716929323796e-04 -5.2296603701053324e-04
  1.9066861230526786e-04  2.0398300295689013e-04 -2.9026484950861394e-04 -5.8527869382754170e-04  2.4493686250918956e-05
  2.4345391632461322e-05 -4.5275625035104243e-05 -9.1685799478579761e-05 -1.8485885092388776e-04 -1.9974405185319903e-04
  2.7397530227337796e-04  5.5438950921640664e-04  5.1112987715352583e-06  1.5333896314605772e-05  2.5556493857676302e-05
  3.5779091400746832e-05 -1.8327588417420809e-05 -5.4982765252262433e-05 -9.1637942087104078e-05 -1.2829311892194570e-04
  4.6774492456513796e-05  5.0040755621529650e-05 -7.1207268199940959e-05 -1.4357955154970328e-04  6.0087485240703698e-06
  5.9723691461091845e-06 -1.1106937613191618e-05 -2.2492200914611571e-05 -4.5349251895826066e-05 -4.9000863507007440e-05
  6.7211144794717439e-05  1.3600187048771404e-04  6.5717249609629916e-05  1.9715174882888980e-04  3.2858624804814980e-04
  4.6002074726740974e-04 -1.6771933797938540e-04 -1.7943118062978329e-04  2.5532796305417706e-04  5.1483332193676752e-04
 -2.1545574769809138e-05 -2.1415129202849243e-05  3.9826155787681103e-05  8.0650304235907092e-05  1.6260885167058905e-04
  1.7570243857705452e-04 -2.4099905991041500e-04 -4.8766202441136207e-04  4.2731269362080891e-04  1.0039997226591246e-03
  1.0193296488670402e-03  7.6808206916597005e-04  5.5634110062814016e-05  1.2695706917339666e-04  1.1896547663238272e-04
  7.7755068650716829e-05 -4.1375045166143118e-04 -9.7485641358550511e-04 -9.9691771063030064e-04 -7.5973014821254859e-04
  6.4904040538595495e-06  1.4104575574031096e-05  1.1370612678772836e-05  5.3233137911914490e-06 -5.4419166285839619e-05
 -1.2473114428498088e-04 -1.1832567437079613e-04 -7.9058636420838542e-05  4.0021570783980136e-04  9.4547016593309963e-04
  9.7346489195132145e-04  7.4971204911676657e-04  1.0209335353635895e-04 -1.0459320740210655e-04 -3.1377962220631970e-04
 -5.2296603701053302e-04 -7.3215245181474644e-04  2.6693605722737497e-04  2.8557620413964616e-04 -4.0637078931205937e-04
 -8.1939017135855834e-04  3.4291160751286523e-05  3.4083548285445839e-05 -6.3385875049145913e-05 -1.2836011927001164e-04
 -2.5880239129344283e-04 -2.7964167259447861e-04  3.8356542318272908e-04  7.7614531290296916e-04  7.1558182801493603e-06
  2.1467454840448077e-05  3.5779091400746818e-05  5.0090727961045552e-05 -2.5658623784389133e-05 -7.6975871353167396e-05
 -1.2829311892194567e-04 -1.7961036649072389e-04  6.5484289439119318e-05  7.0057057870141510e-05 -9.9690175479917316e-05
 -2.0101137216958453e-04  8.4122479336985182e-06  8.3613168045528536e-06 -1.5549712658468262e-05 -3.1489081280456191e-05
 -6.3488952654156488e-05 -6.8601208909810406e-05  9.4095602712604393e-05  1.9040261868279957e-04  9.2004149453481880e-05
  2.7601244836044573e-04  4.6002074726740974e-04  6.4402904617437342e-04 -2.3480707317113947e-04 -2.5120365288169649e-04
  3.5745914827584784e-04  7.2076665071147436e-04 -3.0163804677732791e-05 -2.9981180883988936e-05  5.5756618102753523e-05
  1.1291042593026988e-04  2.2765239233882458e-04  2.4598341400787629e-04 -3.3739868387458092e-04 -6.8272683417590677e-04
  5.9823777106913253e-04  1.4055996117227742e-03  1.4270615084138565e-03  1.0753148968323575e-03  7.7887754087939615e-05
  1.7773989684275531e-04  1.6655166728533584e-04  1.0885709611100356e-04 -5.7925063232600353e-04 -1.3647989790197068e-03
 -1.3956847948824206e-03 -1.0636222074975675e-03  9.0865656754033703e-06  1.9746405803643523e-05  1.5918857750281961e-05
  7.4526393076680320e-06 -7.6186832800175452e-05 -1.7462360199897318e-04 -1.6565594411911450e-04 -1.1068209098917390e-04
  5.6030199097572187e-04  1.3236582323063392e-03  1.3628508487318496e-03  1.0495968687634729e-03  2.6788568147984437e-05
  1.6073140888790661e-04  2.6788568147984449e-04  3.7503995407178249e-04 -1.3673612154752195e-04 -1.4628440595815495e-04
  2.0816058429081271e-04  4.1972686353980752e-04 -1.7565406386817181e-05 -1.7459058358533416e-05  3.2468969554508051e-05
  6.5751570067615347e-05  1.3256970826742417e-04  1.4324448383179930e-04 -1.9647869557414644e-04 -3.9757498835476260e-04
 -3.6655176834841604e-06 -1.0996553050452481e-05 -1.8327588417420805e-05 -2.5658623784389130e-05  1.3143449921925978e-05
  3.9430349765777939e-05  6.5717249609629916e-05  9.2004149453481866e-05 -3.3543867595877045e-05 -3.5886236125956626e-05
  5.1065592610835363e-05  1.0296666438735342e-04 -4.3091149539618249e-06 -4.2830258405698423e-06  7.9652311575362149e-06
  1.6130060847181406e-05  3.2521770334117779e-05  3.5140487715410862e-05 -4.8199811982082961e-05 -9.7532404882272363e-05
 -4.7128479731128398e-05 -1.4138543919338525e-04 -2.3564239865564223e-04 -3.2989935811789898e-04  1.2027827499526801e-04
  1.2867730785562316e-04 -1.8310593950702692e-04 -3.6920765737966929e-04  1.5451197210262855e-05  1.5357649453851811e-05
 -2.8560936237560546e-05 -5.7837573104007612e-05 -1.1661333996145272e-04 -1.2600327713616226e-04  1.7283010743262531e-04
  3.4972202838117752e-04 -3.0644309887873267e-04 -7.2000853444824419e-04 -7.3100224037569972e-04 -5.5082250769099739e-04
 -3.9897455295671527e-05 -9.1046014506138527e-05 -8.5314922451527927e-05 -5.5761283356582064e-05  2.9671707033846438e-04
  6.9910869674759846e-04  7.1492973911918469e-04  5.4483300965650215e-04 -4.6545294837526290e-06 -1.0114957762314617e-05
 -8.1543231395906100e-06 -3.8175621712847816e-06  3.9026170305692145e-05  8.9449714347354236e-05  8.4856094547191882e-05
  5.6696124172308016e-05 -2.8701076181744819e-04 -6.7803463803261903e-04 -6.9811078068261377e-04 -5.3764862834132922e-04
  2.4109711333185991e-04  8.0365704443953370e-04  1.1251198622153475e-03 -4.1020836464256588e-04 -4.3885321787446495e-04
  6.2448175287243808e-04  1.2591805906194229e-03 -5.2696219160451544e-05 -5.2377175075600261e-05  9.7406908663524153e-05
  1.9725471020284608e-04  3.9770912480227257e-04  4.2973345149539799e-04 -5.8943608672243927e-04 -1.1927249650642879e-03
 -1.0996553050452481e-05 -3.2989659151357437e-05 -5.4982765252262413e-05 -7.6975871353167396e-05  3.9430349765777946e-05
  1.1829104929733382e-04  1.9715174882888975e-04  2.7601244836044563e-04 -1.0063160278763118e-04 -1.0765870837786986e-04
  1.5319677783250612e-04  3.0889999316206025e-04 -1.2927344861885480e-05 -1.2849077521709526e-05  2.3895693472608643e-05
  4.8390182541544227e-05  9.7565311002353352e-05  1.0542146314623263e-04 -1.4459943594624891e-04 -2.9259721464681710e-04
 -1.4138543919338522e-04 -4.2415631758015583e-04 -7.0692719596692649e-04 -9.8969807435369725e-04  3.6083482498580415e-04
  3.8603192356686958e-04 -5.4931781852108079e-04 -1.1076229721390079e-03  4.6353591630788571e-05  4.6072948361555440e-05
 -8.5682808712681644e-05 -1.7351271931202283e-04 -3.4984001988435818e-04 -3.7800983140848671e-04  5.1849032229787603e-04
  1.0491660851435324e-03 -9.1932929663619822e-04 -2.1600256033447330e-03 -2.1930067211270994e-03 -1.6524675230729926e-03
 -1.1969236588701457e-04 -2.7313804351841557e-04 -2.5594476735458377e-04 -1.6728385006974626e-04  8.9015121101539325e-04
  2.0973260902427951e-03  2.1447892173575536e-03  1.6344990289695069e-03 -1.3963588451257890e-05 -3.0344873286943843e-05
 -2.4462969418771823e-05 -1.1452686513854335e-05  1.1707851091707645e-04  2.6834914304206276e-04  2.5456828364157555e-04
  1.7008837251692409e-04 -8.6103228545234478e-04 -2.0341039140978575e-03 -2.0943323420478423e-03 -1.6129458850239876e-03
  6.6971420369961172e-04  1.8751997703589126e-03 -6.8368060773761033e-04 -7.3142202979077544e-04  1.0408029214540641e-03
  2.0986343176990388e-03 -8.7827031934085975e-05 -8.7295291792667160e-05  1.6234484777254032e-04  3.2875785033807697e-04
  6.6284854133712124e-04  7.1622241915899687e-04 -9.8239347787073281e-04 -1.9878749417738145e-03 -1.8327588417420812e-05
 -5.4982765252262420e-05 -9.1637942087104092e-05 -1.2829311892194570e-04  6.5717249609629930e-05  1.9715174882888978e-04
  3.2858624804814980e-04  4.6002074726740952e-04 -1.6771933797938535e-04 -1.7943118062978321e-04  2.5532796305417695e-04
  5.1483332193676741e-04 -2.1545574769809138e-05 -2.1415129202849223e-05  3.9826155787681096e-05  8.0650304235907079e-05
  1.6260885167058899e-04  1.7570243857705447e-04 -2.4099905991041494e-04 -4.8766202441136207e-04 -2.3564239865564223e-04
 -7.0692719596692692e-04 -1.1782119932782118e-03 -1.6494967905894961e-03  6.0139137497634051e-04  6.4338653927811622e-04
 -9.1552969753513512e-04 -1.8460382868983475e-03  7.7255986051314335e-05  7.6788247269259129e-05 -1.4280468118780282e-04
 -2.8918786552003818e-04 -5.8306669980726393e-04 -6.3001638568081157e-04  8.6415053716312707e-04  1.7486101419058886e-03
 -1.5322154943936644e-03 -3.6000426722412235e-03 -3.6550112018785010e-03 -2.7541125384549898e-03 -1.9948727647835780e-04
 -4.5523007253069292e-04 -4.2657461225763997e-04 -2.7880641678291042e-04  1.4835853516923230e-03  3.4955434837379948e-03
  3.5746486955959252e-03  2.7241650482825127e-03 -2.3272647418763169e-05 -5.0574788811573129e-05 -4.0771615697953064e-05
 -1.9087810856423918e-05  1.9513085152846090e-04  4.4724857173677161e-04  4.2428047273595961e-04  2.8348062086154036e-04
 -1.4350538090872420e-03 -3.3901731901630982e-03 -3.4905539034130722e-03 -2.6882431417066480e-03  1.3126398392512395e-03
 -9.5715285083265451e-04 -1.0239908417070853e-03  1.4571240900356900e-03  2.9380880447786549e-03 -1.2295784470772037e-04
 -1.2221340850973405e-04  2.2728278688155648e-04  4.6026099047330785e-04  9.2798795787196980e-04  1.0027113868225960e-03
 -1.3753508690190260e-03 -2.7830249184833404e-03 -2.5658623784389136e-05 -7.6975871353167396e-05 -1.2829311892194572e-04
 -1.7961036649072402e-04  9.2004149453481921e-05  2.7601244836044573e-04  4.6002074726740974e-04  6.4402904617437353e-04
 -2.3480707317113957e-04 -2.5120365288169654e-04  3.5745914827584784e-04  7.2076665071147447e-04 -3.0163804677732801e-05
 -2.9981180883988922e-05  5.5756618102753543e-05  1.1291042593026994e-04  2.2765239233882469e-04  2.4598341400787623e-04
 -3.3739868387458097e-04 -6.8272683417590710e-04 -3.2989935811789914e-04 -9.8969807435369769e-04 -1.6494967905894965e-03
 -2.3092955068252951e-03  8.4194792496687675e-04  9.0074115498936297e-04 -1.2817415765491893e-03 -2.5844536016576872e-03
  1.0815838047184005e-04  1.0750354617696279e-04 -1.9992655366292400e-04 -4.0486301172805363e-04 -8.1629337973016956e-04
 -8.8202293995313615e-04  1.2098107520283781e-03  2.4480541986682440e-03 -2.1451016921511311e-03 -5.0400597411377141e-03
 -5.1170156826299022e-03 -3.8557575538369858e-03 -2.7928218706970093e-04 -6.3732210154297027e-04 -5.9720445716069585e-04
 -3.9032898349607463e-04  2.0770194923692520e-03  4.8937608772331937e-03  5.0045081738342954e-03  3.8138310675955192e-03
 -3.2581706386268433e-05 -7.0804704336202380e-05 -5.7080261977134311e-05 -2.6722935198993461e-05  2.7318319213984524e-04
  6.2614800043148035e-04  5.9399266183034357e-04  3.9687286920615631e-04 -2.0090753327221397e-03 -4.7462424662283367e-03
 -4.8867754647783021e-03 -3.7635403983893078e-03  1.7418707084604514e-04  3.8192043491744798e-04 -5.0405709629722944e-04
 -1.0445577967624262e-03  4.5356680555656403e-05  4.7199604350224941e-05 -7.7563798460617559e-05 -1.6306573547788709e-04
 -3.3731728690506303e-04 -3.7274133818966979e-04  4.7649017990399094e-04  9.8989259548781859e-04  9.3548984913027539e-06
  2.8064695473908255e-05  4.6774492456513783e-05  6.5484289439119291e-05 -3.3543867595877059e-05 -1.0063160278763116e-04
 -1.6771933797938535e-04 -2.3480707317113941e-04  8.5462538724161773e-05  9.3692057051495537e-05 -1.2365441046300417e-04
 -2.5624910253624832e-04  1.1126822012562796e-05  1.1578924873567333e-05 -1.9027816178711841e-05 -4.0003002706154240e-05
 -8.2750090332286172e-05 -9.1440257001869742e-05  1.1689174246382424e-04  2.4283873040557391e-04  1.2027827499526801e-04
  3.6083482498580404e-04  6.0139137497634051e-04  8.4194792496687665e-04 -3.0644309887873278e-04 -3.3595168984918230e-04
  4.4338772634181965e-04  9.1883262817117172e-04 -3.9897455295671533e-05 -4.1518560914653129e-05  6.8228056897762555e-05
  1.4343880133603498e-04  2.9671707033846438e-04  3.2787740846737360e-04 -4.1913882185928939e-04 -8.7074704524571327e-04
  7.7954265909437666e-04  1.8374873704581534e-03  1.8810627791641707e-03  1.4357393257243187e-03  1.0272105906102756e-04
  2.3586138659184531e-04  2.2494569708926708e-04  1.5205436334988153e-04 -7.5390262728179083e-04 -1.7815850243841399e-03
 -1.8357567004967522e-03 -1.4152438047696050e-03  1.2285118708543155e-05  2.7078899445554563e-05  2.2909009219215730e-05
  1.2283435704509680e-05 -1.0025729920290899e-04 -2.3108325038514969e-04 -2.2269097086050253e-04 -1.5318569169033084e-04
  7.2843664714452477e-04  1.7255916052673318e-03  1.7890712694181956e-03  1.3922970747386001e-03  1.3780062323925723e-04
 -9.6066750302182570e-04 -1.5303140835449412e-03  4.0352276797371613e-05  9.5625910805736340e-06 -1.6512460862903478e-04
 -2.4791656675628610e-04 -3.7665513013884961e-04 -2.8779626526883543e-04  8.9636106401222925e-04  1.4428657434035535e-03
  1.0008151124305925e-05  3.0024453372917773e-05  5.0040755621529650e-05  7.0057057870141496e-05 -3.5886236125956632e-05
 -1.0765870837786986e-04 -1.7943118062978318e-04 -2.5120365288169638e-04  9.3692057051495537e-05  6.7610018600103484e-05
 -2.3566928153528519e-04 -3.7541399022859531e-04  9.8991503837030231e-06  2.3458782174744900e-06 -4.0508081887845096e-05
 -6.0818461105810008e-05 -9.2400381637959214e-05 -7.0601679406348940e-05  2.1989373772661751e-04  3.5396131547094214e-04
  1.2867730785562310e-04  3.8603192356686958e-04  6.4338653927811600e-04  9.0074115498936242e-04 -3.3595168984918220e-04
 -2.4242930205871545e-04  8.4503954624249515e-04  1.3461222688386670e-03 -3.5495392076281948e-05 -8.4116175494768585e-06
  1.4524986419383335e-04  2.1807680848861768e-04  3.3132012820382675e-04  2.5315650279422014e-04 -7.8847316518952269e-04
 -1.2691993944411357e-03  8.7336147114833878e-04  1.9669163855835043e-03  1.7730863073705983e-03  1.0716861477484763e-03
  9.5989952684223873e-05  1.9810584449492003e-04  1.2892917689937933e-04  1.1690724181265158e-05 -8.5860401506343304e-04
 -1.9468255396678407e-03 -1.7910408720417568e-03 -1.1304798527988812e-03  6.8501082751485521e-06  9.3819637881909082e-06
 -8.0004815427488365e-06 -2.6223397081525900e-05 -9.7074801835830588e-05 -2.0390491100080206e-04 -1.4330928849234096e-04
 -3.2339499746897554e-05  8.4211569068692134e-04  1.9211588704893007e-03  1.7993740175173017e-03  1.1773807023228301e-03
 -2.1720378081999900e-04  4.1294234166419506e-04 -9.2352358806003761e-05 -1.8858484053041084e-04 -1.1617586951670384e-04
  3.8743029872340494e-05  4.6850680312029102e-04  8.8391223591826576e-04  3.7709195316838398e-04 -4.1232592332205283e-04
 -1.4241453639988185e-05 -4.2724360919964548e-05 -7.1207268199940946e-05 -9.9690175479917316e-05  5.1065592610835383e-05
  1.5319677783250614e-04  2.5532796305417700e-04  3.5745914827584773e-04 -1.2365441046300419e-04 -2.3566928153528530e-04
 -1.0656810772006255e-04  1.0130229727703005e-04 -2.2655720089873078e-05 -4.6263305187745627e-05 -2.8500062315646595e-05
  9.5043727260410230e-06  1.1493327435188970e-04  2.1683981286329878e-04  9.2507542304063405e-05 -1.0115107860109806e-04
 -1.8310593950702695e-04 -5.4931781852108090e-04 -9.1552969753513512e-04 -1.2817415765491893e-03  4.4338772634181965e-04
  8.4503954624249537e-04  3.8212135584670911e-04 -3.6323973479541853e-04  8.1236635083800130e-05  1.6588637334848111e-04
  1.0219269804788259e-04 -3.4079837488411665e-05 -4.1211634105967873e-04 -7.7752270417082115e-04 -3.3170437429678291e-04
  3.6269750985858969e-04 -1.0744274799991509e-03 -2.7941174612355060e-03 -3.5461521894052201e-03 -3.5097979924310517e-03
 -1.9602867897251992e-04 -5.1370222377931083e-04 -6.6105647272234145e-04 -6.6204148145604001e-04  9.9925408241275781e-04
  2.5957568372971130e-03  3.2877549551476879e-03  3.2484024416866981e-03 -3.6647976987036570e-05 -9.7083216066335659e-05
 -1.2758364021689649e-04 -1.3095750994866943e-04  1.8166761023318375e-04  4.7531321681089660e-04  6.0973665533194056e-04
  6.0833025386686549e-04 -9.2981266054300280e-04 -2.4128805453890812e-03 -3.0504874587971493e-03 -3.0097123345962729e-03
  1.0476056220829913e-03 -1.6122312794314268e-04 -2.5506397878048129e-04  1.6981858800850389e-05  3.0280521426813070e-04
  9.9295012402456691e-04  1.4428796619241091e-03 -4.2203306359960051e-04 -2.0053778753627454e-03 -2.8715910309940636e-05
 -8.6147730929821918e-05 -1.4357955154970325e-04 -2.0101137216958453e-04  1.0296666438735344e-04  3.0889999316206025e-04
  5.1483332193676731e-04  7.2076665071147414e-04 -2.5624910253624838e-04 -3.7541399022859536e-04  1.0130229727703006e-04
  5.1399357948931268e-04 -3.9550977429459879e-05 -6.2571851796429080e-05  4.1659600747826477e-06  7.4283648678899028e-05
  2.4358879799010497e-04  3.5396472993820462e-04 -1.0353241737624751e-04 -4.9195581364716752e-04 -3.6920765737966929e-04
 -1.1076229721390081e-03 -1.8460382868983475e-03 -2.5844536016576864e-03  9.1883262817117162e-04  1.3461222688386672e-03
 -3.6323973479541853e-04 -1.8430272216796019e-03  1.4181797391118136e-04  2.2436394300158442e-04 -1.4937886636411672e-05
 -2.6635894319326135e-04 -8.7343656323106184e-04 -1.2692116376993470e-03  3.7123627836033293e-04  1.7640063856753281e-03
 -2.2868852599540728e-03 -5.6373662746564716e-03 -6.4183421629221814e-03 -5.6569512497229926e-03 -3.5273961306548637e-04
 -8.6996274480690002e-04 -9.9122550133785587e-04 -8.7314599126403318e-04  2.1740682641696904e-03  5.3588662150510936e-03
  6.1004752059430180e-03  5.3767622892761172e-03 -5.4649133677879751e-05 -1.3584646698095603e-04 -1.5782705447610590e-04
 -1.4366327315362798e-04  3.3516192085764713e-04  8.2592689262388089e-04  9.3910447130637410e-04  8.2429614767484238e-04
 -2.0669457390675877e-03 -5.0948328132316848e-03 -5.8003001268273138e-03 -5.1140024700214084e-03  2.6457076694106358e-06
  3.3824790931282803e-06 -1.5344014251897454e-05 -2.5759241350004196e-05 -4.4366176407695867e-05 -4.0614976404438192e-05
  8.6530898682870593e-05  1.5230362016987927e-04  1.2017497048140738e-06  3.6052491144422210e-06  6.0087485240703707e-06
  8.4122479336985182e-06 -4.3091149539618257e-06 -1.2927344861885480e-05 -2.1545574769809138e-05 -3.0163804677732788e-05
  1.1126822012562796e-05  9.8991503837030231e-06 -2.2655720089873071e-05 -3.9550977429459872e-05  1.2980808107719089e-06
  8.2978389003292236e-07 -3.7641668977426569e-06 -6.3192123005659533e-06 -1.0883833257167916e-05 -9.9635953945545726e-06
  2.1227609614199017e-05  3.7362859290810171e-05  1.5451197210262858e-05  4.6353591630788592e-05  7.7255986051314349e-05
  1.0815838047184005e-04 -3.9897455295671540e-05 -3.5495392076281982e-05  8.1236635083800130e-05  1.4181797391118141e-04
 -4.6545294837526290e-06 -2.9753568108016974e-06  1.3497176494651571e-05  2.2658805001197089e-05  3.9026170305692158e-05
  3.5726472607324515e-05 -7.6115858118359816e-05 -1.3397203681253292e-04  1.0272105906102753e-04  2.3612062107318250e-04
  2.2597038534737408e-04  1.5402829189411777e-04  1.2285118708543153e-05  2.6747760836760632e-05  2.1579662933331431e-05
  9.6447690108064546e-06 -1.0025729920290902e-04 -2.3154041055819331e-04 -2.2450069703539661e-04 -1.5668213148903028e-04
  1.1660233988630100e-06  2.1957166777742180e-06  8.1376630247422971e-07 -1.0002045927780784e-06 -1.2212300993347150e-05
 -2.6848551864393740e-05 -2.2389816935339484e-05 -1.1063211386090631e-05  9.7690340754781388e-05  2.2658969665245542e-04
  2.2232031337985226e-04  1.5841391915283679e-04 -3.0198233229204427e-06 -3.4118400361734841e-05 -4.2476779111956155e-05
 -4.7722662624550995e-05 -1.4880214788456870e-05  1.7480228624366288e-04  2.3954547670500069e-04  1.1944738292218362e-06
  3.5834214876655078e-06  5.9723691461091862e-06  8.3613168045528604e-06 -4.2830258405698432e-06 -1.2849077521709529e-05
 -2.1415129202849229e-05 -2.9981180883988916e-05  1.1578924873567336e-05  2.3458782174745035e-06 -4.6263305187745607e-05
 -6.2571851796429080e-05  8.2978389003292278e-07 -1.4816356140652954e-06 -8.3698666553110084e-06 -1.0420329597659231e-05
 -1.1707240619987144e-05 -3.6503884197763576e-06  4.2882192933753663e-05  5.8764879849185793e-05  1.5357649453851811e-05
  4.6072948361555440e-05  7.6788247269259129e-05  1.0750354617696271e-04 -4.1518560914653136e-05 -8.4116175494768585e-06
  1.6588637334848105e-04  2.2436394300158442e-04 -2.9753568108016974e-06  5.3127021003753385e-06  3.0011838091233075e-05
  3.7364184833672487e-05  4.1978662797359176e-05  1.3089200907988660e-05 -1.5376271622059818e-04 -2.1071328040398694e-04
  1.1114486846165215e-04  2.3494766826136194e-04  1.6963174308156758e-04  4.6450961150738498e-05  9.0171859224470600e-06
  1.4131032701054325e-05 -4.2123155771826783e-06 -2.5091682813039828e-05 -1.1160681509689210e-04 -2.3951712570973013e-04
 -1.8342756785995660e-04 -6.7628925011412760e-05 -2.8641017200294214e-07 -2.3165942505547389e-06 -6.6580101948665265e-06
 -1.0035564729675935e-05 -9.7993836627558913e-06 -1.6737263576131433e-05 -4.4985286722625938e-07  1.9217127905180346e-05
  1.1152586670492093e-04  2.4246002422526844e-04  1.9464605238800131e-04  8.5761138737493615e-05 -1.3779446583140603e-05
 -2.3972547813751307e-06  7.1264539988708940e-05  1.5062293772963794e-04  1.0323585391851825e-04 -2.0213651202933738e-05
 -2.2213875226383226e-06 -6.6641625679149675e-06 -1.1106937613191616e-05 -1.5549712658468262e-05  7.9652311575362166e-06
  2.3895693472608646e-05  3.9826155787681090e-05  5.5756618102753509e-05 -1.9027816178711844e-05 -4.0508081887845103e-05
 -2.8500062315646578e-05  4.1659600747826561e-06 -3.7641668977426569e-06 -8.3698666553110101e-06 -6.7606997550927022e-06
 -5.8809037487642600e-07  1.7482493042860919e-05  3.6950557196761255e-05  2.5325640187816484e-05 -4.9587777677663600e-06
 -2.8560936237560552e-05 -8.5682808712681657e-05 -1.4280468118780282e-04 -1.9992655366292395e-04  6.8228056897762555e-05
  1.4524986419383335e-04  1.0219269804788253e-04 -1.4937886636411711e-05  1.3497176494651569e-05  3.0011838091233075e-05
  2.4241846948007546e-05  2.1087161648632007e-06 -6.2686990395542246e-05 -1.3249364483798208e-04 -9.0810169883803361e-05
  1.7780693722542972e-05 -1.6306479525900989e-04 -4.3569917331555668e-04 -5.8062739743920525e-04 -6.0080519302800953e-04
 -3.2174099877948808e-05 -8.6357569411228414e-05 -1.1594807798716529e-04 -1.2061204208023750e-04  1.4988319281931706e-04
  4.0019585776575805e-04  5.3269087829231946e-04  5.5075849463427369e-04 -6.4393663735838001e-06 -1.7393562700633607e-05
 -2.3635590878156902e-05 -2.4949473058138680e-05  2.9506582062143328e-05  7.9116068358156029e-05  1.0601389631870436e-04
  1.1000082500473226e-04 -1.3781592234293549e-04 -3.6773721672851212e-04 -4.8898606369831784e-04 -5.0531850250291953e-04
  2.1456174196920759e-05  1.5457711241351177e-04  2.3286424512282546e-04 -4.2310599927090691e-05 -2.9051591248590550e-04
 -4.4984401829223116e-06 -1.3495320548766935e-05 -2.2492200914611565e-05 -3.1489081280456198e-05  1.6130060847181409e-05
  4.8390182541544227e-05  8.0650304235907065e-05  1.1291042593026987e-04 -4.0003002706154240e-05 -6.0818461105810015e-05
  9.5043727260410298e-06  7.4283648678899028e-05 -6.3192123005659533e-06 -1.0420329597659229e-05 -5.8809037487642579e-07
  1.0527182696570011e-05  3.7920588455112644e-05  5.7125851734058302e-05 -1.0379562808962646e-05 -7.1268858533008665e-05
 -5.7837573104007612e-05 -1.7351271931202288e-04 -2.8918786552003823e-04 -4.0486301172805358e-04  1.4343880133603501e-04
  2.1807680848861773e-04 -3.4079837488411679e-05 -2.6635894319326141e-04  2.2658805001197089e-05  3.7364184833672500e-05
  2.1087161648632066e-06 -3.7747328082677782e-05 -1.3597188675843180e-04 -2.0483621587668389e-04  3.7218007324251247e-05
  2.5554880756462566e-04 -3.5582319456646348e-04 -8.8304286348376865e-04 -1.0201893128644591e-03 -9.1476663817007507e-04
 -5.6113856862742167e-05 -1.3962107572452085e-04 -1.6215739112137713e-04 -1.4607685706783909e-04  3.3736978830071926e-04
  8.3696972473752392e-04  9.6630477586642739e-04  8.6590429367153676e-04 -8.9484068488339599e-06 -2.2486783664462541e-05
 -2.6725663600947344e-05 -2.4928935785876972e-05  5.3131179397099013e-05  1.3205095151876689e-04  1.5295858695842571e-04
  1.3722757458397127e-04 -3.1992647070271975e-04 -7.9350013115200456e-04 -9.1569325036680593e-04 -8.2034305021166020e-04
  1.6314142522771236e-04  3.6670089889107027e-04 -4.4344795834468521e-04 -9.4133846055574112e-04 -9.0698503791652111e-06
 -2.7209551137495633e-05 -4.5349251895826072e-05 -6.3488952654156501e-05  3.2521770334117779e-05  9.7565311002353379e-05
  1.6260885167058899e-04  2.2765239233882450e-04 -8.2750090332286185e-05 -9.2400381637959241e-05  1.1493327435188968e-04
  2.4358879799010494e-04 -1.0883833257167916e-05 -1.1707240619987141e-05  1.7482493042860919e-05  3.7920588455112644e-05
  8.0043141567960228e-05  8.9958426935607860e-05 -1.0878588212118040e-04 -2.3092751444477952e-04 -1.1661333996145271e-04
 -3.4984001988435829e-04 -5.8306669980726393e-04 -8.1629337973016945e-04  2.9671707033846438e-04  3.3132012820382681e-04
 -4.1211634105967879e-04 -8.7343656323106195e-04  3.9026170305692145e-05  4.1978662797359182e-05 -6.2686990395542246e-05
 -1.3597188675843180e-04 -2.8701076181744824e-04 -3.2256400911958905e-04  3.9007363143129040e-04  8.2803698789274004e-04
 -7.5390262728179062e-04 -1.7814447428157209e-03 -1.8352131738917782e-03 -1.4142385603216148e-03 -1.0025729920290900e-04
 -2.3127273974682581e-04 -2.2344463709914302e-04 -1.5465529236715318e-04  7.2843664714452498e-04  1.7253428644666479e-03
  1.7881049512256087e-03  1.3904999280512783e-03 -1.2212300993347150e-05 -2.7192320612031478e-05 -2.3768600405342936e-05
 -1.3795259059684084e-05  9.7690340754781401e-05  2.2611741522736222e-04  2.2045403186637483e-04  1.5482077950764101e-04
 -7.0323126947389341e-04 -1.6694151784146750e-03 -1.7400496990206986e-03 -1.3648289596853262e-03  1.4838549501881404e-04
 -8.2563393274356282e-04 -1.3611521711791464e-03 -9.8001727014014917e-06 -2.9400518104204473e-05 -4.9000863507007460e-05
 -6.8601208909810487e-05  3.5140487715410896e-05  1.0542146314623268e-04  1.7570243857705455e-04  2.4598341400787634e-04
 -9.1440257001869810e-05 -7.0601679406349075e-05  2.1683981286329878e-04  3.5396472993820473e-04 -9.9635953945545845e-06
 -3.6503884197763712e-06  3.6950557196761255e-05  5.7125851734058309e-05  8.9958426935607901e-05  7.2803343282336477e-05
 -2.0254308085656858e-04 -3.3391548400768073e-04 -1.2600327713616224e-04 -3.7800983140848704e-04 -6.3001638568081178e-04
 -8.8202293995313626e-04  3.2787740846737360e-04  2.5315650279422036e-04 -7.7752270417082115e-04 -1.2692116376993472e-03
  3.5726472607324522e-05  1.3089200907988660e-05 -1.3249364483798208e-04 -2.0483621587668389e-04 -3.2256400911958921e-04
 -2.6105101085493413e-04  7.2625889987263997e-04  1.1973210392587626e-03 -8.4990472266740472e-04 -1.9258915183313402e-03
 -1.7684934998866155e-03 -1.1119885354474797e-03 -9.5868987498009970e-05 -2.0129677489695661e-04 -1.4130649540527426e-04
 -3.1794860838687796e-05  8.3374605657288918e-04  1.9008659526202024e-03  1.7771232525739919e-03  1.1586821412671497e-03
 -7.5558187597523030e-06 -1.1826761356273564e-05  3.4531085027935781e-06  2.0373470980513111e-05  9.6429877527331691e-05
  2.0550492621702876e-04  1.5312475787539328e-04  4.9394908068462568e-05 -8.1615084625008094e-04 -1.8711187312542392e-03
 -1.7774292918505841e-03 -1.1949793746796195e-03 -1.6285695793320226e-04  4.1918731703956096e-04  1.3442228958943482e-05
  4.0326686876830445e-05  6.7211144794717439e-05  9.4095602712604393e-05 -4.8199811982082975e-05 -1.4459943594624891e-04
 -2.4099905991041494e-04 -3.3739868387458081e-04  1.1689174246382427e-04  2.1989373772661754e-04  9.2507542304063337e-05
 -1.0353241737624753e-04  2.1227609614199017e-05  4.2882192933753663e-05  2.5325640187816484e-05 -1.0379562808962646e-05
 -1.0878588212118040e-04 -2.0254308085656858e-04 -7.9903571523784486e-05  1.0283430377801874e-04  1.7283010743262531e-04
  5.1849032229787603e-04  8.6415053716312707e-04  1.2098107520283779e-03 -4.1913882185928939e-04 -7.8847316518952269e-04
 -3.3170437429678274e-04  3.7123627836033299e-04 -7.6115858118359816e-05 -1.5376271622059821e-04 -9.0810169883803402e-05
  3.7218007324251247e-05  3.9007363143129034e-04  7.2625889987263997e-04  2.8651030538956348e-04 -3.6873305182851771e-04
  1.0172091725578502e-03  2.6374000300125279e-03  3.3284378483724587e-03  3.2765398106823895e-03  1.8394090640994786e-04
  4.8063527145151598e-04  6.1522605863430387e-04  6.1308752172986667e-04 -9.4724497692392031e-04 -2.4532753922578976e-03
 -3.0897333755028388e-03 -3.0361226407061579e-03  3.4099466693016941e-05  9.0103992413189172e-05  1.1788283322983422e-04
  1.2053155997953053e-04 -1.7067657484211735e-04 -4.4525341386749122e-04 -5.6809874442223475e-04 -5.6390982161746419e-04
  8.8254124568305932e-04  2.2833379306198710e-03  2.8703361908424432e-03  2.8164121296378403e-03  9.5941499916374329e-04
  2.7200374097542790e-05  8.1601122292628369e-05  1.3600187048771399e-04  1.9040261868279957e-04 -9.7532404882272363e-05
 -2.9259721464681710e-04 -4.8766202441136202e-04 -6.8272683417590666e-04  2.4283873040557391e-04  3.5396131547094220e-04
 -1.0115107860109805e-04 -4.9195581364716752e-04  3.7362859290810171e-05  5.8764879849185793e-05 -4.9587777677663507e-06
 -7.1268858533008665e-05 -2.3092751444477955e-04 -3.3391548400768062e-04  1.0283430377801870e-04  4.7072403893308072e-04
  3.4972202838117757e-04  1.0491660851435327e-03  1.7486101419058888e-03  2.4480541986682445e-03 -8.7074704524571337e-04
 -1.2691993944411364e-03  3.6269750985858969e-04  1.7640063856753283e-03 -1.3397203681253292e-04 -2.1071328040398702e-04
  1.7780693722542928e-05  2.5554880756462571e-04  8.2803698789274004e-04  1.1973210392587626e-03 -3.6873305182851766e-04
 -1.6878755927547053e-03  2.1681697331265002e-03  5.3398998055232101e-03  6.0675748737270682e-03  5.3350618006323498e-03
  3.3342438685015182e-04  8.2132379553546454e-04  9.3329717487060273e-04  8.1947672956460033e-04 -2.0619437289456366e-03
 -5.0780939326464528e-03 -5.7698219939972730e-03 -5.0737168159488456e-03  5.1448684154794862e-05  1.2769255766361662e-04
  1.4786373541723964e-04  1.3410296925140444e-04 -3.1696136591660988e-04 -7.8016032615071517e-04 -8.8477079974147313e-04
 -7.7418187645519074e-04  1.9610153195514981e-03  4.8297159047058216e-03  5.4884179185110508e-03  4.8284152436567094e-03
  1.2538949276527499e-07  7.5233695659164976e-07  1.2538949276527502e-06  1.7554528987138506e-06 -8.9921842490176242e-07
 -2.6976552747052868e-06 -4.4960921245088125e-06 -6.2945289743123374e-06  2.2949274325882511e-06  2.4551822327106951e-06
 -3.4936886454436830e-06 -7.0445371890774249e-06  2.9481114811098113e-07  2.9302624296120849e-07 -5.4494692474231302e-07
 -1.1035495242672664e-06 -2.2249999253298752e-06 -2.4041613276144413e-06  3.2976242362962936e-06  6.6727484805044507e-06
  3.2243282824202313e-06  9.6729848472606991e-06  1.6121641412101167e-05  2.2570297976941633e-05 -8.2289232761269739e-06
 -8.8035490512659258e-06  1.2527322391892888e-05  2.5259603080069126e-05 -1.0571045882771629e-06 -1.0507044523408052e-06
  1.9540166584737493e-06  3.9569984818038676e-06  7.9781841529857196e-06  8.6206033478185130e-06 -1.1824294070760561e-05
 -2.3926479986792541e-05  2.0965521406678734e-05  4.9259893263054566e-05  5.0012035431712145e-05  3.7684911549749142e-05
  2.7296126299924351e-06  6.2289774940456422e-06  5.8368807765988130e-06  3.8149476498373616e-06 -2.0300108283299321e-05
 -4.7830016080920999e-05 -4.8912423887561535e-05 -3.7275135804376057e-05  3.1844292753432116e-07  6.9202199125840958e-07
  5.5788378646998262e-07  2.6118121672914775e-07 -2.6700030510018525e-06 -6.1197654893604929e-06 -5.8054897409202930e-06
 -3.8789054456097371e-06  1.9636044318988214e-05  4.6388219444837028e-05  4.7761742947347244e-05  3.6783611274020716e-05
  1.1285054348874744e-06  3.7616847829582500e-06  5.2663586961415513e-06 -2.6976552747052868e-06 -8.0929658241158622e-06
 -1.3488276373526438e-05 -1.8883586922937008e-05  6.8847822977647524e-06  7.3655466981320853e-06 -1.0481065936331050e-05
 -2.1133611567232270e-05  8.8443344433294317e-07  8.7907872888362551e-07 -1.6348407742269391e-06 -3.3106485728017986e-06
 -6.6749997759896243e-06 -7.2124839828433235e-06  9.8928727088888800e-06  2.0018245441513349e-05  9.6729848472606940e-06
  2.9018954541782089e-05  4.8364924236303497e-05  6.7710893930824885e-05 -2.4686769828380923e-05 -2.6410647153797767e-05
  3.7581967175678662e-05  7.5778809240207388e-05 -3.1713137648314882e-06 -3.1521133570224166e-06  5.8620499754212478e-06
  1.1870995445411603e-05  2.3934552458957160e-05  2.5861810043455536e-05 -3.5472882212281684e-05 -7.1779439960377624e-05
  6.2896564220036200e-05  1.4777967978916366e-04  1.5003610629513641e-04  1.1305473464924742e-04  8.1888378899773040e-06
  1.8686932482136927e-05  1.7510642329796438e-05  1.1444842949512083e-05 -6.0900324849897968e-05 -1.4349004824276294e-04
 -1.4673727166268459e-04 -1.1182540741312817e-04  9.5532878260296336e-07  2.0760659737752283e-06  1.6736513594099470e-06
  7.8354365018744240e-07 -8.0100091530055574e-06 -1.8359296468081480e-05 -1.7416469222760877e-05 -1.1636716336829208e-05
  5.8908132956964631e-05  1.3916465833451106e-04  1.4328522884204172e-04  1.1035083382206212e-04  3.1347373191318765e-06
  8.7772644935692558e-06 -4.4960921245088142e-06 -1.3488276373526441e-05 -2.2480460622544076e-05 -3.1472644871561694e-05
  1.1474637162941256e-05  1.2275911163553482e-05 -1.7468443227218426e-05 -3.5222685945387130e-05  1.4740557405549061e-06
  1.4651312148060430e-06 -2.7247346237115664e-06 -5.5177476213363326e-06 -1.1124999626649381e-05 -1.2020806638072211e-05
  1.6488121181481474e-05  3.3363742402522263e-05  1.6121641412101164e-05  4.8364924236303511e-05  8.0608207060505865e-05
  1.1285148988470823e-04 -4.1144616380634885e-05 -4.4017745256329632e-05  6.2636611959464468e-05  1.2629801540034569e-04
 -5.2855229413858148e-06 -5.2535222617040292e-06  9.7700832923687497e-06  1.9784992409019348e-05  3.9890920764928623e-05
  4.3103016739092572e-05 -5.9121470353802827e-05 -1.1963239993396273e-04  1.0482760703339370e-04  2.4629946631527297e-04
  2.5006017715856074e-04  1.8842455774874570e-04  1.3648063149962178e-05  3.1144887470228232e-05  2.9184403882994083e-05
  1.9074738249186813e-05 -1.0150054141649664e-04 -2.3915008040460502e-04 -2.4456211943780777e-04 -1.8637567902188027e-04
  1.5922146376716059e-06  3.4601099562920487e-06  2.7894189323499131e-06  1.3059060836457387e-06 -1.3350015255009269e-05
 -3.0598827446802470e-05 -2.9027448704601478e-05 -1.9394527228048692e-05  9.8180221594941098e-05  2.3194109722418521e-04
  2.3880871473673634e-04  1.8391805637010364e-04  6.1440851454984789e-06 -6.2945289743123399e-06 -1.8883586922937018e-05
 -3.1472644871561701e-05 -4.4061702820186371e-05  1.6064492028117760e-05  1.7186275628974876e-05 -2.4455820518105793e-05
 -4.9311760323541990e-05  2.0636780367768687e-06  2.0511837007284616e-06 -3.8146284731961924e-06 -7.7248466698708667e-06
 -1.5574999477309127e-05 -1.6829129293301096e-05  2.3083369654074063e-05  4.6709239363531176e-05  2.2570297976941633e-05
  6.7710893930824912e-05  1.1285148988470823e-04  1.5799208583859153e-04 -5.7602462932888836e-05 -6.1624843358861498e-05
  8.7691256743250233e-05  1.7681722156048397e-04 -7.3997321179401439e-06 -7.3549311663856425e-06  1.3678116609316252e-05
  2.7698989372627083e-05  5.5847289070900073e-05  6.0344223434729611e-05 -8.2770058495323963e-05 -1.6748535990754784e-04
  1.4675864984675121e-04  3.4481925284138212e-04  3.5008424802198513e-04  2.6379438084824403e-04  1.9107288409947053e-05
  4.3602842458319516e-05  4.0858165436191731e-05  2.6704633548861553e-05 -1.4210075798309533e-04 -3.3481011256644710e-04
 -3.4238696721293092e-04 -2.6092595063063249e-04  2.2291004927402484e-06  4.8441539388088679e-06  3.9051865052898792e-06
  1.8282685171040342e-06 -1.8690021357012976e-05 -4.2838358425523465e-05 -4.0638428186442072e-05 -2.7152338119268173e-05
  1.3745231023291755e-04  3.2471753611385934e-04  3.3433220063143086e-04  2.5748527891814515e-04  1.6121641412101165e-06
  9.6729848472606974e-06  1.6121641412101170e-05  2.2570297976941633e-05 -8.2289232761269739e-06 -8.8035490512659241e-06
  1.2527322391892886e-05  2.5259603080069123e-05 -1.0571045882771631e-06 -1.0507044523408050e-06  1.9540166584737493e-06
  3.9569984818038676e-06  7.9781841529857230e-06  8.6206033478185096e-06 -1.1824294070760558e-05 -2.3926479986792545e-05
 -1.1561476705674460e-05 -3.4684430117023394e-05 -5.7807383528372347e-05 -8.0930336939721267e-05  2.9506457294823561e-05
  3.1566893432784801e-05 -4.4919230714816888e-05 -9.0573380569547178e-05  3.7904608347305790e-06  3.7675118617786694e-06
 -7.0065192190935024e-06 -1.4188612872081649e-05 -2.8607381804525511e-05 -3.0910904866005598e-05  4.2398381456843763e-05
  8.5793199943167271e-05 -7.5176088206406792e-05 -1.7663124179691995e-04 -1.7932819862036189e-04 -1.3512681987542190e-04
 -9.7875743637009989e-06 -2.2335249977562056e-05 -2.0929308439335612e-05 -1.3679261081274024e-05  7.2790115795487578e-05
  1.7150412995060269e-04  1.7538532055726179e-04  1.3365748663149885e-04 -1.1418410801555588e-06 -2.4813838514430148e-06
 -2.0004043747383954e-06 -9.3651771429029676e-07  9.5738322448565208e-06  2.1943648398085281e-05  2.0816749575604832e-05
  1.3908594604786574e-05 -7.0408981065404243e-05 -1.6633427850796593e-04 -1.7125932291661052e-04 -1.3189502669869535e-04
  1.4509477270891044e-05  4.8364924236303497e-05  6.7710893930824872e-05 -2.4686769828380923e-05 -2.6410647153797767e-05
  3.7581967175678662e-05  7.5778809240207375e-05 -3.1713137648314886e-06 -3.1521133570224150e-06  5.8620499754212469e-06
  1.1870995445411604e-05  2.3934552458957160e-05  2.5861810043455525e-05 -3.5472882212281677e-05 -7.1779439960377624e-05
 -3.4684430117023373e-05 -1.0405329035107017e-04 -1.7342215058511697e-04 -2.4279101081916378e-04  8.8519371884470684e-05
  9.4700680298354377e-05 -1.3475769214445066e-04 -2.7172014170864155e-04  1.1371382504191737e-05  1.1302535585336004e-05
 -2.1019557657280511e-05 -4.2565838616244945e-05 -8.5822145413576518e-05 -9.2732714598016752e-05  1.2719514437053129e-04
  2.5737959982950184e-04 -2.2552826461922032e-04 -5.2989372539075986e-04 -5.3798459586108555e-04 -4.0538045962626559e-04
 -2.9362723091102987e-05 -6.7005749932686154e-05 -6.2787925318006808e-05 -4.1037783243822075e-05  2.1837034738646271e-04
  5.1451238985180791e-04  5.2615596167178533e-04  4.0097245989449654e-04 -3.4255232404666754e-06 -7.4441515543290452e-06
 -6.0012131242151828e-06 -2.8095531428708894e-06  2.8721496734569556e-05  6.5830945194255856e-05  6.2450248726814495e-05
  4.1725783814359701e-05 -2.1122694319621277e-04 -4.9900283552389781e-04 -5.1377796874983142e-04 -3.9568508009608596e-04
  4.0304103530252932e-05  1.1285148988470816e-04 -4.1144616380634885e-05 -4.4017745256329632e-05  6.2636611959464454e-05
  1.2629801540034566e-04 -5.2855229413858165e-06 -5.2535222617040258e-06  9.7700832923687497e-06  1.9784992409019348e-05
  3.9890920764928617e-05  4.3103016739092551e-05 -5.9121470353802820e-05 -1.1963239993396275e-04 -5.7807383528372307e-05
 -1.7342215058511697e-04 -2.8903691764186170e-04 -4.0465168469860642e-04  1.4753228647411783e-04  1.5783446716392398e-04
 -2.2459615357408452e-04 -4.5286690284773604e-04  1.8952304173652904e-05  1.8837559308893345e-05 -3.5032596095467528e-05
 -7.0943064360408267e-05 -1.4303690902262760e-04 -1.5455452433002802e-04  2.1199190728421892e-04  4.2896599971583649e-04
 -3.7588044103203401e-04 -8.8315620898460020e-04 -8.9664099310180954e-04 -6.7563409937710945e-04 -4.8937871818504998e-05
 -1.1167624988781031e-04 -1.0464654219667809e-04 -6.8396305406370170e-05  3.6395057897743797e-04  8.5752064975301362e-04
  8.7692660278630892e-04  6.6828743315749440e-04 -5.7092054007777935e-06 -1.2406919257215080e-05 -1.0002021873691982e-05
 -4.6825885714514847e-06  4.7869161224282614e-05  1.0971824199042646e-04  1.0408374787802420e-04  6.9542973023932890e-05
 -3.5204490532702139e-04 -8.3167139253983004e-04 -8.5629661458305262e-04 -6.5947513349347677e-04  7.8996042919295709e-05
 -5.7602462932888822e-05 -6.1624843358861457e-05  8.7691256743250206e-05  1.7681722156048389e-04 -7.3997321179401405e-06
 -7.3549311663856340e-06  1.3678116609316245e-05  2.7698989372627080e-05  5.5847289070900052e-05  6.0344223434729557e-05
 -8.2770058495323923e-05 -1.6748535990754779e-04 -8.0930336939721213e-05 -2.4279101081916378e-04 -4.0465168469860642e-04
 -5.6651235857804890e-04  2.0654520106376490e-04  2.2096825402949350e-04 -3.1443461500371825e-04 -6.3401366398683036e-04
  2.6533225843114058e-05  2.6372583032450671e-05 -4.9045634533654531e-05 -9.9320290104571555e-05 -2.0025167263167858e-04
 -2.1637633406203916e-04  2.9678867019790637e-04  6.0055239960217098e-04 -5.2623261744484749e-04 -1.2364186925784399e-03
 -1.2552973903425333e-03 -9.4588773912795325e-04 -6.8513020545906989e-05 -1.5634674984293440e-04 -1.4650515907534931e-04
 -9.5754827568918184e-05  5.0953081056841318e-04  1.2005289096542189e-03  1.2276972439008325e-03  9.3560240642049188e-04
 -7.9928875610889108e-06 -1.7369686960101104e-05 -1.4002830623168756e-05 -6.5556240000320799e-06  6.7016825713995642e-05
  1.5360553878659701e-04  1.4571724702923389e-04  9.7360162233506010e-05 -4.9286286745782990e-04 -1.1643399495557616e-03
 -1.1988152604162734e-03 -9.2326518689086730e-04  1.0482760703339372e-05  2.2984372534132928e-05 -3.0334684977704899e-05
 -6.2862584295627272e-05  2.7296126299924355e-06  2.8405217177859094e-06 -4.6678707814275022e-06 -9.8134670709260530e-06
 -2.0300108283299321e-05 -2.2431964861148097e-05  2.8675679022350763e-05  5.9572775121052695e-05  2.9506457294823561e-05
  8.8519371884470684e-05  1.4753228647411786e-04  2.0654520106376501e-04 -7.5176088206406805e-05 -8.2415084436891821e-05
  1.0877110611096242e-04  2.2540642277493411e-04 -9.7875743637009972e-06 -1.0185261175544296e-05  1.6737588290502375e-05
  3.5188157347691472e-05  7.2790115795487578e-05  8.0434315767004391e-05 -1.0282240702471279e-04 -2.1361015117773541e-04
  1.9123604974353309e-04  4.5076920689404769e-04  4.6145905039354231e-04  3.5221307507652598e-04  2.5199351608447172e-05
  5.7861105268128856e-05  5.5183287298391196e-05  3.7301712041109458e-05 -1.8494608171941776e-04 -4.3705534055219825e-04
 -4.5034464194822096e-04 -3.4718514951133801e-04  3.0137639615277789e-06  6.6429485300858477e-06  5.6199983099200752e-06
  3.0133510899045157e-06 -2.4594946323775965e-05 -5.6688941201615076e-05 -5.4630161780227761e-05 -3.7579247542555614e-05
  1.7869881174966947e-04  4.2331913232983840e-04  4.3889185316766971e-04  3.4155589759745492e-04  8.2929861049498098e-06
 -5.7813978389665289e-05 -9.2095907353137142e-05  2.4284423605448360e-06  5.7548676554839792e-07 -9.9373722176007287e-06
 -1.4919879133834198e-05 -2.2667500967511420e-05 -1.7319881237307534e-05  5.3943949411353241e-05  8.6833174481208832e-05
  3.1566893432784774e-05  9.4700680298354364e-05  1.5783446716392395e-04  2.2096825402949358e-04 -8.2415084436891780e-05
 -5.9472334870871676e-05  2.0730363221971895e-04  3.3022837449790297e-04 -8.7076678685576107e-06 -2.0635233920156514e-06
  3.5632444139083950e-05  5.3498223489769587e-05  8.1278877786917781e-05  6.2103913103994987e-05 -1.9342686597138432e-04
 -3.1135778869597713e-04  2.1425151759448303e-04  4.8252050784725379e-04  4.3497045007109760e-04  2.6290418243226743e-04
  2.3548088295418393e-05  4.8598981326214419e-05  3.1628681508676033e-05  2.8679481295656474e-06 -2.1063124412642214e-04
 -4.7759185645903989e-04 -4.3937503265874722e-04 -2.7732735193101922e-04  1.6804566518229499e-06  2.3015670441626053e-06
 -1.9626642216844996e-06 -6.4330781775984527e-06 -2.3814221603070742e-05 -5.0021598238640064e-05 -3.5156385482059576e-05
 -7.9334698494414919e-06  2.0658635705851332e-04  4.7129535380262283e-04  4.4141930541802461e-04  2.8883298679004740e-04
 -1.3071551448322189e-05  2.4851303434388330e-05 -5.5578618611018119e-06 -1.1349233590964863e-05 -6.9915857344106410e-06
  2.3315961919644119e-06  2.8195231030306109e-05  5.3194765873722195e-05  2.2693789435800568e-05 -2.4814206731731573e-05
 -4.4919230714816875e-05 -1.3475769214445066e-04 -2.2459615357408452e-04 -3.1443461500371835e-04  1.0877110611096240e-04
  2.0730363221971895e-04  9.3741346624521968e-05 -8.9109340177565021e-05  1.9928830073175024e-05  4.0694956684344537e-05
  2.5069735003360119e-05 -8.3604064782763763e-06 -1.0109966424489168e-04 -1.9074051791376822e-04 -8.1373140370355688e-05
  8.8976322498824964e-05 -2.6357668129366727e-04 -6.8544803747733977e-04 -8.6993588943428627e-04 -8.6101754104137723e-04
 -4.8089414691812729e-05 -1.2602053636699107e-04 -1.6216922451386869e-04 -1.6241086514379163e-04  2.4513527410124659e-04
  6.3678655410103575e-04  8.0654632919973561e-04  7.9689243901943214e-04 -8.9904179948724170e-06 -2.3816285767468469e-05
 -3.1298596789204810e-05 -3.2126268645679077e-05  4.4566382278170958e-05  1.1660301192420402e-04  1.4957953614107167e-04
  1.4923452017896006e-04 -2.2810002522548437e-04 -5.9192366013591778e-04 -7.4834027953039764e-04 -7.3833739695686868e-04
  6.3046005621595263e-05 -9.7025770159806552e-06 -1.5350017889448441e-05  1.0219860822193384e-06  1.8223135537434684e-05
  5.9756780396752457e-05  8.6834012112380925e-05 -2.5398392619633761e-05 -1.2068574484370852e-04 -9.0573380569547164e-05
 -2.7172014170864149e-04 -4.5286690284773604e-04 -6.3401366398683047e-04  2.2540642277493408e-04  3.3022837449790297e-04
 -8.9109340177565021e-05 -4.5212823356359191e-04  3.4790538781947954e-05  5.5040572397092732e-05 -3.6645363772429989e-06
 -6.5342712827694765e-05 -2.1426993905365456e-04 -3.1136079219079419e-04  9.1071038341374125e-05  4.3274297946801154e-04
 -5.6101471578014412e-04 -1.3829488928484698e-03 -1.5745365398803690e-03 -1.3877534448795263e-03 -8.6533468571268015e-05
 -2.1341774795774352e-04 -2.4316571655119066e-04 -2.1419865644391856e-04  5.3333864652845974e-04  1.3146277424522308e-03
  1.4965579706673485e-03  1.3190179762653316e-03 -1.3406430455781825e-05 -3.3325619084443415e-05 -3.8717858591256159e-05
 -3.5243224383695761e-05  8.2221339681054332e-05  2.0261494926504084e-04  2.3037947608634668e-04  2.0221489774950783e-04
 -5.0705953492361509e-04 -1.2498555273909669e-03 -1.4229195421710450e-03 -1.2545581942644704e-03  1.5922146376716058e-07
  2.0356114116329166e-07 -9.2341887862294138e-07 -1.5502181744035537e-06 -2.6700030510018525e-06 -2.4442518985568363e-06
  5.2075202822553874e-06  9.1657916786731770e-06  3.7904608347305790e-06  1.1371382504191742e-05  1.8952304173652907e-05
  2.6533225843114068e-05 -9.7875743637009989e-06 -8.7076678685576141e-06  1.9928830073175027e-05  3.4790538781947968e-05
 -1.1418410801555584e-06 -7.2990935959329889e-07  3.3111038702192975e-06  5.5586186461841057e-06  9.5738322448565208e-06
  8.7643561426548325e-06 -1.8672609971473162e-05 -3.2865787134584791e-05  2.5199351608447165e-05  5.7924700220361277e-05
  5.5434662040251523e-05  3.7785952759525414e-05  3.0137639615277785e-06  6.5617141823249568e-06  5.2938853903922499e-06
  2.3660379644370029e-06 -2.4594946323775972e-05 -5.6801090940404879e-05 -5.5074120658894234e-05 -3.8436988074736568e-05
  2.8604683285215034e-07  5.3864939771397376e-07  1.9963173443306368e-07 -2.4536845165142194e-07 -2.9959004462435594e-06
 -6.5864400619792418e-06 -5.4926309615556296e-06 -2.7140077817056453e-06  2.3965224540434432e-05  5.5586590412821714e-05
  5.4539232731534268e-05  3.8861827213374181e-05 -1.8173613636638600e-07 -2.0532811352508841e-06 -2.5562971391418305e-06
 -2.8719999135959040e-06 -8.9550694023411008e-07  1.0519785011532351e-05  1.4416098150506854e-05  3.7675118617786652e-06
  1.1302535585336001e-05  1.8837559308893338e-05  2.6372583032450665e-05 -1.0185261175544287e-05 -2.0635233920156447e-06
  4.0694956684344551e-05  5.5040572397092718e-05 -7.2990935959329762e-07  1.3033028421052072e-06  7.3624519391633017e-06
  9.1661168585434497e-06  1.0298132569433733e-05  3.2110200086435087e-06 -3.7720802197052198e-05 -5.1691815582963975e-05
  2.7265865884188492e-05  5.7636953475970448e-05  4.1613764275216542e-05  1.1395269025530079e-05  2.2120803723751093e-06
  3.4666003726925537e-06 -1.0333579334701269e-06 -6.1554480009573268e-06 -2.7379189829562087e-05 -5.8757924832319661e-05
 -4.4998132023144524e-05 -1.6590610297849531e-05 -7.0261645416351508e-08 -5.6830287369948179e-07 -1.6333314847677866e-06
 -2.4619072907162194e-06 -2.4039677620257980e-06 -4.1059563995306493e-06 -1.1035712323183232e-07  4.7143124050097586e-06
  2.7359331710788144e-05  5.9479871579353995e-05  4.7750231142062029e-05  2.1038773442775481e-05 -8.2926155456841631e-07
 -1.4426930825596514e-07  4.2887747965833397e-06  9.0646464458279334e-06  6.2128420173574423e-06 -1.2164787401953903e-06
 -7.0065192190935015e-06 -2.1019557657280508e-05 -3.5032596095467528e-05 -4.9045634533654545e-05  1.6737588290502371e-05
  3.5632444139083936e-05  2.5069735003360119e-05 -3.6645363772430018e-06  3.3111038702192966e-06  7.3624519391632991e-06
  5.9469677441514222e-06  5.1730658315384147e-07 -1.5378263490392185e-05 -3.2503110585858013e-05 -2.2277392984872231e-05
  4.3619288688434490e-06 -4.0002772053294018e-05 -1.0688496365059423e-04 -1.4243850360689384e-04 -1.4738848533774385e-04
 -7.8928942411705959e-06 -2.1185088778646182e-05 -2.8444180893679766e-05 -2.9588336455789714e-05  3.6769084261550753e-05
  9.8175352009289977e-05  1.3067880007667840e-04  1.3511111630364541e-04 -1.5796941626852258e-06 -4.2669585596507145e-06
 -5.7982420591889511e-06 -6.1205613511441044e-06  7.2385034085922098e-06  1.9408616331054906e-05  2.6007144719266776e-05
  2.6985211132477454e-05 -3.3808762449565620e-05 -9.0212654625650395e-05 -1.1995721094974066e-04 -1.2396385644018572e-04
  1.2912550777909346e-06  9.3026128275399705e-06  1.4014014623070770e-05 -2.5462963014197206e-06 -1.7483552460639907e-05
 -1.4188612872081649e-05 -4.2565838616244959e-05 -7.0943064360408294e-05 -9.9320290104571609e-05  3.5188157347691479e-05
  5.3498223489769593e-05 -8.3604064782763695e-06 -6.5342712827694778e-05  5.5586186461841065e-06  9.1661168585434531e-06
  5.1730658315384316e-07 -9.2601088942208765e-06 -3.3356386846187262e-05 -5.0250064331537969e-05  9.1302568460900633e-06
  6.2690789150786884e-05 -8.7289927423685629e-05 -2.1662653992923989e-04 -2.5027106843571569e-04 -2.2440896117737415e-04
 -1.3765753800788070e-05 -3.4251599538528287e-05 -3.9780169247947344e-05 -3.5835320593048174e-05  8.2762969883384764e-05
  2.0532395763906295e-04  2.3705220750803511e-04  2.1242213578161754e-04 -2.1952076096220501e-06 -5.5164186709487112e-06
 -6.5562933268555549e-06 -6.1155231832208792e-06  1.3034048550877439e-05  3.2394509830495999e-05  3.7523534604590095e-05
  3.3664430000292753e-05 -7.8483805538820734e-05 -1.9466007252094895e-04 -2.2463627607038184e-04 -2.0124513075306358e-04
  9.8180221594941068e-06  2.2068444885740551e-05 -2.6687163456697414e-05 -5.6650736331500487e-05 -2.8607381804525508e-05
 -8.5822145413576518e-05 -1.4303690902262760e-04 -2.0025167263167860e-04  7.2790115795487578e-05  8.1278877786917809e-05
 -1.0109966424489170e-04 -2.1426993905365456e-04  9.5738322448565208e-06  1.0298132569433736e-05 -1.5378263490392188e-05
 -3.3356386846187256e-05 -7.0408981065404256e-05 -7.9130841877377093e-05  9.5692185044364222e-05  2.0313259416758912e-04
 -1.8494608171941771e-04 -4.3702092692174020e-04 -4.5021130494651466e-04 -3.4693854469116877e-04 -2.4594946323775962e-05
 -5.6735426402357594e-05 -5.4815049871496665e-05 -3.7939767425409005e-05  1.7869881174966952e-04  4.2325811166909859e-04
  4.3865479766879502e-04  3.4111502469680766e-04 -2.9959004462435589e-06 -6.6707728134413568e-06 -5.8308717251354712e-06
 -3.3842289667989511e-06  2.3965224540434435e-05  5.5470731154770343e-05  5.4081399795538891e-05  3.7980364442982132e-05
 -1.7251547232392822e-04 -4.0953802896791442e-04 -4.2686596675122542e-04 -3.3481746737120966e-04  8.9299947956734106e-06
 -4.9687516435461473e-05 -8.1915565960191802e-05 -3.0910904866005571e-05 -9.2732714598016725e-05 -1.5455452433002793e-04
 -2.1637633406203910e-04  8.0434315767004378e-05  6.2103913103994987e-05 -1.9074051791376825e-04 -3.1136079219079419e-04
  8.7643561426548224e-06  3.2110200086435053e-06 -3.2503110585858020e-05 -5.0250064331537949e-05 -7.9130841877377039e-05
 -6.4040580095322001e-05  1.7816457057536497e-04  2.9372471557704270e-04 -2.0849714884122863e-04 -4.7245635874260897e-04
 -4.3384375052460953e-04 -2.7279109410910038e-04 -2.3518413326257715e-05 -4.9381774824393103e-05 -3.4665063764182961e-05
 -7.7998599794393562e-06  2.0453313296988441e-04  4.6631713047413302e-04  4.3596078644938456e-04  2.8424588830292820e-04
 -1.8535803208919360e-06 -2.9013205328117879e-06  8.4711057400915424e-07  4.9979844777245882e-06  2.3656009893035252e-05
  5.0414111189549168e-05  3.7564299365020262e-05  1.2117472964765760e-05 -2.0021670656616524e-04 -4.5901959384992574e-04
 -4.3603586347260953e-04 -2.9315026249392330e-04 -9.8009026192102547e-06  2.5227132605521623e-05  4.2398381456843756e-05
  1.2719514437053129e-04  2.1199190728421889e-04  2.9678867019790643e-04 -1.0282240702471276e-04 -1.9342686597138430e-04
 -8.1373140370355701e-05  9.1071038341374125e-05 -1.8672609971473159e-05 -3.7720802197052192e-05 -2.2277392984872234e-05
  9.1302568460900650e-06  9.5692185044364195e-05  1.7816457057536497e-04  7.0286209964655753e-05 -9.0456951160932070e-05
  2.4953998559724792e-04  6.4700238973324658e-04  8.1652658583056769e-04  8.0379504945920382e-04  4.5124063343690194e-05
  1.1790860911522070e-04  1.5092618701481941e-04  1.5040156485968240e-04 -2.3237649077060158e-04 -6.0183325373553136e-04
 -7.5796801958003001e-04 -7.4481632733232675e-04  8.3652218806209748e-06  2.2104154755607096e-05  2.8918811685865578e-05
  2.9568592726777960e-05 -4.1870080586072758e-05 -1.0922879333090198e-04 -1.3936499623225411e-04 -1.3833737697303925e-04
  2.1650348392252930e-04  5.6014449111559507e-04  7.0414588370352885e-04  6.9091732676621281e-04  5.7738601393195261e-05
  8.5793199943167285e-05  2.5737959982950189e-04  4.2896599971583665e-04  6.0055239960217130e-04 -2.1361015117773541e-04
 -3.1135778869597724e-04  8.8976322498824991e-05  4.3274297946801170e-04 -3.2865787134584791e-05 -5.1691815582963995e-05
  4.3619288688434473e-06  6.2690789150786897e-05  2.0313259416758915e-04  2.9372471557704281e-04 -9.0456951160932097e-05
 -4.1406670571681435e-04  5.3189162914868014e-04  1.3099749358436177e-03  1.4884869183717148e-03  1.3087880848955977e-03
  8.1795090859374100e-05  2.0148572549068402e-04  2.2895484022182993e-04  2.0103260647819261e-04 -5.0583245049745889e-04
 -1.2457491743095752e-03 -1.4154426996173006e-03 -1.2446753876517811e-03  1.2621301743378375e-05  3.1325316227860171e-05
  3.6273674482889926e-05  3.2897907252837412e-05 -7.7756411188099715e-05 -1.9138757475186055e-04 -2.1705043424762900e-04
 -1.8992095186724412e-04  4.8107286858842528e-04  1.1848175083483611e-03  1.3464091410943654e-03  1.1844984324412434e-03
  2.0727998501988767e-05  1.2436799101193263e-04  2.0727998501988780e-04  2.9019197902784282e-04 -1.0580132939348751e-04
 -1.1318943703204586e-04  1.6106692435062872e-04  3.2476904889566354e-04 -1.3591458687207395e-05 -1.3509170535083036e-05
  2.5123282012278777e-05  5.0876121423738135e-05  1.0257751363179922e-04  1.1083725826186378e-04 -1.5202791299019229e-04
 -3.0762875109716396e-04  2.6955896437744393e-04  6.3334679618807198e-04  6.4301727659803469e-04  4.8452435467547889e-04
  3.5095313845042730e-05  8.0087525125440779e-05  7.5046239338143691e-05  4.9049738267741480e-05 -2.6100358104392120e-04
 -6.1496250681475459e-04 -6.2887929532348848e-04 -4.7925576519434272e-04  4.0943005468076883e-06  8.8975002181729367e-06
  7.1728516933478209e-06  3.3580723765792958e-06 -3.4328898544989269e-05 -7.8683359003861001e-05 -7.4642636923297870e-05
 -4.9872059680972485e-05  2.5246554418674764e-04  5.9642496603401962e-04  6.1408470202163937e-04  4.7293611109184625e-04
  1.8655198651789900e-04  6.2183995505966352e-04  8.7057593708352878e-04 -3.1740398818046265e-04 -3.3956831109613773e-04
  4.8320077305188627e-04  9.7430714668699111e-04 -4.0774376061622197e-05 -4.0527511605249132e-05  7.5369846036836335e-05
  1.5262836427121446e-04  3.0773254089539771e-04  3.3251177478559149e-04 -4.5608373897057687e-04 -9.2288625329149210e-04
  8.0867689313233212e-04  1.9000403885642168e-03  1.9290518297941047e-03  1.4535730640264375e-03  1.0528594153512822e-04
  2.4026257537632247e-04  2.2513871801443122e-04  1.4714921480322448e-04 -7.8301074313176381e-04 -1.8448875204442640e-03
 -1.8866378859704665e-03 -1.4377672955830285e-03  1.2282901640423068e-05  2.6692500654518813e-05  2.1518555080043459e-05
  1.0074217129737915e-05 -1.0298669563496786e-04 -2.3605007701158314e-04 -2.2392791076989365e-04 -1.4961617904291760e-04
  7.5739663256024336e-04  1.7892748981020597e-03  1.8422541060649190e-03  1.4188083332755392e-03  5.1819996254971984e-04
  1.4509598951392149e-03 -5.2900664696743779e-04 -5.6594718516022973e-04  8.0533462175314398e-04  1.6238452444783187e-03
 -6.7957293436036998e-05 -6.7545852675415197e-05  1.2561641006139396e-04  2.5438060711869084e-04  5.1288756815899626e-04
  5.5418629130931935e-04 -7.6013956495096173e-04 -1.5381437554858207e-03  1.3477948218872204e-03  3.1667339809403616e-03
  3.2150863829901758e-03  2.4226217733773962e-03  1.7547656922521372e-04  4.0043762562720414e-04  3.7523119669071879e-04
  2.4524869133870758e-04 -1.3050179052196066e-03 -3.0748125340737745e-03 -3.1443964766174450e-03 -2.3962788259717155e-03
  2.0471502734038455e-05  4.4487501090864734e-05  3.5864258466739122e-05  1.6790361882896499e-05 -1.7164449272494644e-04
 -3.9341679501930538e-04 -3.7321318461648947e-04 -2.4936029840486268e-04  1.2623277209337391e-03  2.9821248301700994e-03
  3.0704235101081988e-03  2.3646805554592329e-03  1.0156719265974504e-03 -7.4060930575441282e-04 -7.9232605922432151e-04
  1.1274684704544017e-03  2.2733833422696461e-03 -9.5140210810451819e-05 -9.4564193745581262e-05  1.7586297408595154e-04
  3.5613284996616716e-04  7.1804259542259481e-04  7.7586080783304695e-04 -1.0641953909313463e-03 -2.1534012576801490e-03
  1.8869127506421085e-03  4.4334275733165056e-03  4.5011209361862439e-03  3.3916704827283537e-03  2.4566719691529920e-04
  5.6061267587808575e-04  5.2532367536700631e-04  3.4334816787419062e-04 -1.8270250673074490e-03 -4.3047375477032850e-03
 -4.4021550672644228e-03 -3.3547903563604011e-03  2.8660103827653825e-05  6.2282501527210601e-05  5.0209961853434770e-05
  2.3506506636055091e-05 -2.4030228981492509e-04 -5.5078351302702733e-04 -5.2249845846308513e-04 -3.4910441776680773e-04
  1.7672588093072344e-03  4.1749747622381395e-03  4.2985929141514780e-03  3.3105527776429258e-03  1.3477948218872205e-04
  2.9551583941015509e-04 -3.9002064907869632e-04 -8.0824000472609484e-04  3.5095313845042730e-05  3.6521299789572227e-05
 -6.0015984781971451e-05 -1.2617420617778153e-04 -2.6100358104392120e-04 -2.8841339548064200e-04  3.6869039362991861e-04
  7.6594210347689234e-04 -6.8571526864983777e-04 -1.6163235342863433e-03 -1.6546541153504846e-03 -1.2629307273497100e-03
 -9.0357336815740272e-05 -2.0747261510850799e-04 -1.9787076090279420e-04 -1.3375278106649574e-04  6.6316132487595492e-04
  1.5671497119058831e-03  1.6148011713935863e-03  1.2449020903102606e-03 -1.0806456038480815e-05 -2.3819626278851760e-05
 -2.0151632791341940e-05 -1.0804975604344863e-05  8.8190120264742075e-05  2.0326958540333931e-04  1.9588741825483027e-04
  1.3474794035361366e-04 -6.4076048355247496e-04 -1.5178957782251907e-03 -1.5737348967765482e-03 -1.2247172768632001e-03
  1.0662500124297822e-04 -7.4332881300503235e-04 -1.1841001675066565e-03  3.1223092193178211e-05  7.3991776080863884e-06
 -1.2776728570920793e-04 -1.9182862614958905e-04 -2.9144174224451328e-04 -2.2268605482817568e-04  6.9357088028926543e-04
  1.1164358917066647e-03 -7.6824185159108413e-04 -1.7301742015235540e-03 -1.5596739183080200e-03 -9.4269575389932352e-04
 -8.4436400528760551e-05 -1.7426140929446035e-04 -1.1341099058910774e-04 -1.0283604083938832e-05  7.5526063389145799e-04
  1.7125015319861788e-03  1.5754674338948104e-03  9.9441292522179335e-04 -6.0256148670951601e-06 -8.2527309370807880e-06
  7.0375267939633035e-06  2.3067093974767205e-05  8.5390674959749056e-05  1.7936248798541843e-04  1.2606028177175821e-04
  2.8447049687707528e-05 -7.4075687884030995e-04 -1.6899241569756104e-03 -1.5827975844924680e-03 -1.0356686900680461e-03
 -1.6806421375686615e-04  3.1951943799830097e-04 -7.1458823196939115e-05 -1.4591994131296101e-04 -8.9892570442988147e-05
  2.9977916726273493e-05  3.6251315335715712e-04  6.8393843974008249e-04  2.9177973967131876e-04 -3.1904247639281524e-04
  9.4510713364717855e-04  2.4578116196952706e-03  3.1193298697163654e-03  3.0873513401851503e-03  1.7243425577360294e-04
  4.5187194603830283e-04  5.8149032833190403e-04  5.8235677934721482e-04 -8.7898176395777750e-04 -2.2833260967458488e-03
 -2.8920338688623220e-03 -2.8574179065090906e-03  3.2236949565189141e-05  8.5398076435811847e-05  1.1222740552555414e-04
  1.1519518921580138e-04 -1.5980171540675117e-04 -4.1810352051412667e-04 -5.3634747186552165e-04 -5.3511034783234321e-04
  8.1789845735828445e-04  2.1224611791272486e-03  2.6833243863166253e-03  2.6474570416377373e-03  8.1059829869425362e-04
 -1.2474846494335096e-04 -1.9735902795800980e-04  1.3139931251289943e-05  2.3429942179333858e-04  7.6830790543313729e-04
  1.1164466613406232e-03 -3.2655350079770652e-04 -1.5516868750436712e-03  2.0116309506686154e-03  4.9588410389168960e-03
  5.6458170302671430e-03  4.9760687252821834e-03  3.1028313295598152e-04  7.6525220308487553e-04  8.7191951975032207e-04
  7.6805230731787229e-04 -1.9123928452614940e-03 -4.7138618309628929e-03 -5.3662092073250437e-03 -4.7296038961363958e-03
  4.8071449258393190e-05  1.1949570111941749e-04  1.3883065897384478e-04  1.2637166009631874e-04 -2.9482112867189856e-04
 -7.2651659848693944e-04 -8.2607188627781356e-04 -7.2508213342234830e-04  1.8181638120945687e-03  4.4816080435031262e-03
  5.1021638306975011e-03  4.4984704001710240e-03  2.0471502734038437e-06  2.6172366207876851e-06 -1.1872628005754563e-05
 -1.9931543678097899e-05 -3.4328898544989276e-05 -3.1426359386544721e-05  6.6954393693835165e-05  1.1784688129985964e-04
 -9.0357336815740218e-05 -2.0770064758362605e-04 -1.9877211553168201e-04 -1.3548912342854042e-04 -1.0806456038480815e-05
 -2.3528344207960016e-05 -1.8982289414274158e-05 -8.4839043715631923e-06  8.8190120264742075e-05  2.0367172081853113e-04
  1.9747932198931195e-04  1.3782354132029900e-04 -1.0256783754877819e-06 -1.9314356103718949e-06 -7.1581968248866011e-07
  8.7981786890073023e-07  1.0742402816305517e-05  2.3617003815980980e-05  1.9694931580361732e-05  9.7316200457281797e-06
 -8.5932126322607231e-05 -1.9931688522835907e-04 -1.9556137388643550e-04 -1.3934688738645429e-04 -2.3366270630061726e-06
 -2.6399550273891844e-05 -3.2866953132326340e-05 -3.6926022844077797e-05 -1.1513757216904938e-05  1.3525551300043904e-04
  1.8535138775877520e-04 -9.7767238838183661e-05 -2.0666887383386678e-04 -1.4921451048471103e-04 -4.0860025981805234e-05
 -7.9318585008030220e-06 -1.2430191948905244e-05  3.7053124340896736e-06  2.2071595210720960e-05  9.8173584606936628e-05
  2.1068834179400635e-04  1.6134984084001077e-04  5.9488965666837682e-05  2.5193724262275076e-07  2.0377641048114800e-06
  5.8566381149046642e-06  8.8276630975617282e-06  8.6199092795202253e-06  1.4722731406262459e-05  3.9570763203815632e-07
 -1.6904114060271955e-05 -9.8102379333306374e-05 -2.1327702686806756e-04 -1.7121804502646183e-04 -7.5438748095473852e-05
 -1.0662023686960766e-05 -1.8549066617794534e-06  5.5141852672779713e-05  1.1654643168600966e-04  7.9880067256807871e-05
 -1.5640572110445484e-05  1.4343797428387502e-04  3.8325750643034229e-04  5.1074186534322654e-04  5.2849101910860529e-04
  2.8301557694103530e-05  7.5963391121611922e-05  1.0199232398489651e-04  1.0609492357164602e-04 -1.3184293717754137e-04
 -3.5202744444954854e-04 -4.6857508624337306e-04 -4.8446804636460416e-04  5.6643107228108340e-06  1.5300036990790015e-05
  2.0790761556964205e-05  2.1946502120369809e-05 -2.5955107920824564e-05 -6.9593492332744678e-05 -9.3253841270533254e-05
 -9.6760894852698277e-05  1.2122810870080953e-04  3.2347559356723642e-04  4.3013067485550452e-04  4.4449730704932859e-04
  1.6601990227896739e-05  1.1960602510926266e-04  1.8018169905194569e-04 -3.2738369854716099e-05 -2.2479041677577784e-04
  3.1299556811610808e-04  7.7675797122705840e-04  8.9739718613635576e-04  8.0466340581466568e-04  4.9359875286767815e-05
  1.2281599003298189e-04  1.4263978721258159e-04  1.2849473998532046e-04 -2.9676325255595680e-04 -7.3623029215222086e-04
 -8.4999830509679454e-04 -7.6168223564547846e-04  7.8713578208339654e-06  1.9780227190467228e-05  2.3508906641823824e-05
  2.1928436757298297e-05 -4.6736199140518970e-05 -1.1615702186375848e-04 -1.3454817042385652e-04 -1.2071057571285685e-04
  2.8141944927166646e-04  6.9799279007860435e-04  8.0547848902275284e-04  7.2160483906604704e-04  1.2623277209337385e-04
  2.8373952802938191e-04 -3.4312355051982122e-04 -7.2837271826086346e-04  6.6316132487595481e-04  1.5670263149214431e-03
  1.6143230647914654e-03  1.2440178391936981e-03  8.8190120264742102e-05  2.0343626742777018e-04  1.9655037164329782e-04
  1.3604065680877976e-04 -6.4076048355247506e-04 -1.5176769763892996e-03 -1.5728848866695953e-03 -1.2231364385227662e-03
  1.0742402816305517e-05  2.3919395835698914e-05  2.0907761778316190e-05  1.2134832727685448e-05 -8.5932126322607258e-05
 -1.9890144858674883e-04 -1.9391972193261284e-04 -1.3618622556973704e-04  6.1858887803582915e-04  1.4684808640038080e-03
  1.5306136654717620e-03  1.2005552817840053e-03  1.1481518166540211e-04 -6.3884485451258792e-04 -1.0532089662023576e-03
  7.4760840658508274e-04  1.6940871733911566e-03  1.5556339107715555e-03  9.7814726163381657e-04  8.4329994966224196e-05
  1.7706827261662589e-04  1.2429854906383483e-04  2.7967964661502207e-05 -7.3339463145326864e-04 -1.6720737372891955e-03
 -1.5632249683145520e-03 -1.0192207270629716e-03  6.6463845567247755e-06  1.0403267539067155e-05 -3.0374851164924734e-06
 -1.7921277256285306e-05 -8.4823375094498645e-05 -1.8076992201233009e-04 -1.3469434066052131e-04 -4.3449633270164860e-05
  7.1791721757129908e-04  1.6459069539161795e-03  1.5634941720615398e-03  1.0511491492863206e-03 -1.2601266187240584e-04
  3.2435156786468481e-04 -8.9477574177135517e-04 -2.3199570273910839e-03 -2.9278200836789494e-03 -2.8821686027216556e-03
 -1.6180139288480145e-04 -4.2278500148901156e-04 -5.4117615906601490e-04 -5.3929502095146015e-04  8.3323258355506857e-04
  2.1579940174518359e-03  2.7178465821237350e-03  2.6706885478779523e-03 -2.9995183318617420e-05 -7.9258886788584045e-05
 -1.0369420802616202e-04 -1.0602412846548483e-04  1.5013358410181313e-04  3.9166177853833196e-04  4.9972118729677668e-04
  4.9603645203191802e-04 -7.7631672919756842e-04 -2.0085105853377204e-03 -2.5248565030494257e-03 -2.4774228550197442e-03
  7.4235967206585820e-04 -1.9072042737936802e-03 -4.6971782582898528e-03 -5.3372688281412553e-03 -4.6929225658209886e-03
 -2.9329272790404055e-04 -7.2246753982442590e-04 -8.2096356822859923e-04 -7.2084279059018053e-04  1.8137638544084200e-03
  4.4668838897143712e-03  5.0753541098981572e-03  4.4630336119685730e-03 -4.5256212556566039e-05 -1.1232321343980621e-04
 -1.3006654590653487e-04 -1.1796205443560574e-04  2.7881123072036318e-04  6.8625859200300166e-04  7.7827792945043270e-04
  6.8099972105957072e-04 -1.7249834001834975e-03 -4.2484011624780082e-03 -4.8278204195092737e-03 -4.2472570517224128e-03
  8.7094657095385802e-04  4.1178972764382964e-03  4.2470676527822711e-03  3.2785260251851889e-03  2.3203322815525671e-04
  5.3570210557012132e-04  5.1877423629814647e-04  3.6056035583361290e-04 -1.6827696766200315e-03 -3.9874080538187841e-03
 -4.1368256022633661e-03 -3.2220140088763853e-03  2.8357241854363905e-05  6.3254385612876511e-05  5.5602559406138789e-05
  3.2687732465982351e-05 -2.2602401201207947e-04 -5.2356375323064138e-04 -5.1152036863819723e-04 -3.6054827192918829e-04
  1.6242875283899048e-03  3.8574327036755493e-03  4.0245598001310973e-03  3.1612234768214594e-03  4.8379948738542632e-03
  9.8256117360671358e-03  7.4059849979524056e-03  5.3627977479797900e-04  1.2239666830073954e-03  1.1473978019278675e-03
  7.5054153352684919e-04 -3.9870927123806634e-03 -9.3948119080489688e-03 -9.6090982600617256e-03 -7.3248624436397913e-03
  6.2600170569446849e-05  1.3608535949975829e-04  1.0983798441451849e-04  5.1611051997283287e-05 -5.2454171365397999e-04
 -1.2024291052689022e-03 -1.1411004046390375e-03 -7.6295257449299713e-04  3.8565681539123437e-03  9.1113356066866401e-03
  9.3826170581156297e-03  7.2277546838591875e-03  4.7863832771090310e-03  6.7374817625232859e-03  5.2106306044784746e-04
  1.1513759282376832e-03  9.7684910970765866e-04  5.0785097888736094e-04 -4.1355986100849841e-03 -9.6069939907171709e-03
 -9.4647606853713161e-03 -6.7909989372063554e-03  5.2963066974431563e-05  1.0519058233654510e-04  5.6791626015322905e-05
 -1.3864132068337482e-05 -5.1540882583874772e-04 -1.1478759741239942e-03 -9.9872236191402551e-04 -5.5317266399310550e-04
  4.0211867977741015e-03  9.3768207998606613e-03  9.3329229900029377e-03  6.8126816411853749e-03  2.0769081563113594e-03
  3.6499021402581436e-04  7.5978742350845188e-04  5.1397850080046057e-04  8.2542452334582236e-05 -3.2197245406435852e-03
 -7.3202014290082240e-03 -6.7881405412910326e-03 -4.3546041411811291e-03  2.7399134090243303e-05  4.0324762174074019e-05
 -2.1830676925081987e-05 -8.8698543684632698e-05 -3.6812582899837268e-04 -7.7883952273717812e-04 -5.6384124893517416e-04
 -1.5533421484851596e-04  3.1548947353015177e-03  7.2148203076417864e-03  6.8046489500846307e-03  4.5129756514461529e-03
  1.4178620927181956e-05  6.2521597636628858e-05  5.2657313403695934e-05  2.6828519605218357e-05 -2.2602401201207953e-04
 -5.2458180131925540e-04 -5.1555954775291363e-04 -3.6838671410429588e-04  2.8536015952719213e-06  5.6258032364902346e-06
  2.9081022710290037e-06 -9.8861614161040683e-07 -2.8070559684344044e-05 -6.2394856685403361e-05 -5.3950071154107288e-05
 -2.9416662441461634e-05  2.1984288729488217e-04  5.1222086485203187e-04  5.0870732281412109e-04  3.6999109812625600e-04
  6.7067379877925557e-05  1.0256946202988760e-04  3.7445865113877987e-05 -5.2398483909999773e-04 -1.2035263104092451e-03
 -1.1492775283084948e-03 -7.8025022485526583e-04  5.5209071897697637e-06  9.7533582096583394e-06  1.5166842011803621e-06
 -8.4552224374987583e-06 -6.2453323407144401e-05 -1.3556379708392326e-04 -1.0816401273872308e-04 -4.6413207119996370e-05
  5.1157337319305369e-04  1.1807103099187480e-03  1.1428185606885419e-03  7.9516348613401086e-04  2.4236808326558509e-05
 -2.9289889718828990e-05 -5.1319832195793674e-04 -1.1451786620198534e-03 -1.0032061877463670e-03 -5.6757246456438882e-04
  2.4900935969977110e-06  7.8713841268885341e-07 -1.2440740527754700e-05 -2.4708072303766837e-05 -5.4179825654164502e-05
 -1.0856094263018932e-04 -6.0876246480515215e-05  1.2598451676329968e-05  5.0615446460508810e-04  1.1383974443563321e-03
  1.0220038324583324e-03  6.1201327875896948e-04 -5.0769794800824074e-05 -3.6383208143130611e-04 -7.7076506237110120e-04
 -5.6132788176427848e-04 -1.6162306580110833e-04 -1.8067344810532335e-06 -1.0175305128783951e-05 -2.5872603282761927e-05
 -3.7631659537626017e-05 -2.9854113705046222e-05 -4.7316293858562638e-05  1.2019476858807698e-05  8.0021937178319919e-05
  3.6509815500651111e-04  7.8501709838762080e-04  6.0541857062347657e-04  2.2966201728151546e-04  8.1214376419495274e-04
  3.8568741952907590e-03  4.0223814508019533e-03  3.1571387486042917e-03 -2.8070559684344054e-05 -6.3155910872286357e-05
 -5.7006317306483662e-05 -3.5486925754092707e-05  2.1984288729488219e-04  5.1116831727679500e-04  5.0453802842759037e-04
  3.6192582179108595e-04 -1.5666131895449048e-03 -3.7276871899829004e-03 -3.9079986920903149e-03 -3.0913137771975117e-03
  4.5553726944529329e-03  9.3782831452510883e-03  7.2189736980291666e-03 -6.2534015705013971e-05 -1.3758537570415617e-04
 -1.1569517686124814e-04 -6.1065868874681905e-05  5.1214921554429936e-04  1.1795780320875938e-03  1.1343917156253246e-03
  7.7740722323480210e-04 -3.7271456280315767e-03 -8.8259714527912283e-03 -9.1421604104903412e-03 -7.1048042182498211e-03
  4.6653449225455678e-03  6.8059204678279925e-03 -5.4492877202176233e-05 -1.1126433238468789e-04 -6.9461825077322861e-05
 -3.2947023998588566e-06  5.0843662927302878e-04  1.1411830268241181e-03  1.0174088725932540e-03  5.9733048248252927e-04
 -3.9058800302531928e-03 -9.1385122347355935e-03 -9.1767987804948353e-03 -6.7965350351200564e-03  2.2552246654103927e-03
 -3.0434675542707386e-05 -5.0262384411432727e-05  4.3724679269157934e-06  6.6881802413398014e-05  3.6951732411588689e-04
  7.9331544233667418e-04  6.0799778818846424e-04  2.2332635199597993e-04 -3.0873162327061327e-03 -7.0966025184349517e-03
 -6.7913779455230213e-03 -4.6292501953249469e-03  6.3575428831378855e-08  1.5859476097034496e-08 -7.2368102330348157e-07
 -1.4024293332337048e-06 -2.9418099656691433e-06 -5.8628712594526123e-06 -3.1899633279608915e-06  8.6922118388345574e-07
  2.7701140120132773e-05  6.2211392325343346e-05  5.5599003873268738e-05  3.2958029814442112e-05 -3.8813072888088400e-07
 -2.9181943503115568e-06 -4.6769494644621665e-06 -5.9714876314442900e-06 -1.0948087161278084e-05 -3.0030752170859962e-06
  7.3334123033438837e-06  6.2798289722208685e-05  1.3830130277247220e-04  1.1608021128788190e-04  5.8703252686321286e-05
 -3.0785775807889325e-06 -8.3772957634285066e-06 -3.6222151940903713e-06 -3.7567489555160300e-06  8.6891008201826918e-06
  2.1306655154898983e-05  5.7976802092649855e-05  1.2027911896169850e-04  8.0164662243079467e-05  1.0794170983543356e-05
 -5.2876921762419624e-06  2.5426159241874837e-08  5.5623418333609120e-06  2.0113443094597474e-05  3.2208543950303380e-05
  3.7759250666543758e-05  6.8998633464568661e-05  1.8155687708383680e-05 -4.7704796077138051e-05  1.3850570060066392e-05
  6.2068362579121067e-05  5.5042680725278384e-05  3.1920768952374369e-05 -2.1353946455227816e-04 -4.9923927535114841e-04
 -5.0034001996405184e-04 -3.6937758935410485e-04  6.8103518031627545e-05  1.1288658800789937e-04  5.4771096158926885e-05
 -4.9822451829241595e-04 -1.1547749551332788e-03 -1.1307739150503292e-03 -8.0298549144079169e-04  3.5654432980682566e-05
  2.3789583531996241e-06 -4.9631292912019707e-04 -1.1237664278124265e-03 -1.0294998781994553e-03 -6.4410115906530911e-04
 -3.0566522223303329e-05 -3.6155892804543623e-04 -7.8663280692591237e-04 -6.3319748842895099e-04 -2.8151745127389435e-04
  7.5494371625032695e-04  3.5991986690054384e-03  3.7901562246641521e-03  3.0174130373223874e-03  4.2706406979947480e-03
  8.8950376535330278e-03  6.9681347981928000e-03  4.5022059295674044e-03  6.7550987162144482e-03  2.3566387203829715e-03
 -1.4287210411927124e-03 -8.7677586580770239e-03 -6.9379306223818840e-03  3.4145099951845004e-03 -5.2200027277792427e-04
 -1.5301956485320864e-03 -1.0680020136097862e-03  8.4652168710187825e-04  2.5507897995426000e-03  8.0202831424316667e-03
  6.4516746770754765e-03 -3.3013016397831357e-03 -1.5738231463448497e-03 -3.1812626543988890e-03  4.0560358479999579e-03
  1.2067329130941546e-02 -2.1960543291468142e-04 -4.4390156801105824e-04  5.6596416845576438e-04  1.6838302601401023e-03
  1.5125372944018922e-03  3.0573819042129802e-03 -3.8980907745441735e-03 -1.1597418297450875e-02 -9.5343070594254521e-05
 -3.3329704111708595e-04 -3.6458160075015882e-04 -7.2188646699741657e-05  4.6624643254757070e-04  1.3502192866815524e-03
  8.4288196898975624e-04 -1.0052131312025476e-03 -2.8729370410200206e-04 -1.0429498981445577e-03 -1.4415091875616463e-04
  2.4053983683600642e-03 -4.0087895777559128e-05 -1.4552935278801178e-04 -2.0114283483514228e-05  3.3564034894441341e-04
  2.7610627211218145e-04  1.0023366480534932e-03  1.3853757402626374e-04 -2.3117303545114208e-03 -2.2727531046364442e-03
 -7.3697498110860231e-03 -6.1092569331552861e-03  3.0450807830856713e-03  1.4083803306390403e-03  2.5642450492899971e-03
 -4.3843036569907873e-03 -1.1041907905065302e-02  1.9652015725961283e-04  3.5780522446660513e-04 -6.1176943855412961e-04
 -1.5407467931371880e-03 -1.3535369458385462e-03 -2.4643914267268620e-03  4.2135755892156127e-03  1.0611927742040476e-02
 -8.6405025959473535e-04 -2.5921507787842052e-03 -4.3202512979736776e-03 -6.0483518171631397e-03 -1.2056636208396894e-04
 -3.6169908625190692e-04 -6.0283181041984480e-04 -8.4396453458778203e-04  8.3040349540539028e-04  2.4912104862161721e-03
  4.1520174770269570e-03  5.8128244678377350e-03 -1.6823382094671954e-05 -5.0470146284015848e-05 -8.4116910473359756e-05
 -1.1776367466270375e-04  1.1587141765317965e-04  3.4761425295953873e-04  5.7935708826589889e-04  8.1109992357225819e-04
 -7.9806696141138849e-04 -2.3942008842341624e-03 -3.9903348070569368e-03 -5.5864687298797164e-03 -1.0913308636723417e-02
 -1.7261471608785311e-02 -4.5404044662074733e-03 -1.5925666349476892e-03 -3.8401774366032424e-03 -2.7723786848723592e-03
 -3.8830805942862041e-04  7.9744593748456924e-03  2.0079906487891847e-02  1.6074829599304095e-02  4.0456477981979655e-03
 -4.7102998960347840e-03 -7.4655386764779855e-03  8.3690575989395517e-03  2.1995161802863948e-02 -6.5725774222413270e-04
 -1.0417135221304019e-03  1.1677871947502242e-03  3.0691231355724465e-03  4.5268772905751042e-03  7.1748250095303081e-03
 -8.0431602285127093e-03 -2.1138653730249576e-02 -2.8925620362900493e-04 -7.9845346740349717e-04 -8.1827185189768648e-04
 -4.8592090788179224e-04  1.4487304180870997e-03  3.4416057946498203e-03  2.3039232113100687e-03 -3.2447300550854721e-05
 -8.5536650360304792e-04 -2.2161295708504540e-03 -1.1441097191525976e-04  4.3922426586074162e-03 -1.1935466304503393e-04
 -3.0923048433486612e-04 -1.5964481826304751e-05  6.1287721733535984e-04  8.2205789137522033e-04  2.1298318257188080e-03
  1.0995572298736584e-04 -4.2212054401638312e-03 -7.2487705141954621e-03 -1.8536236250764900e-02 -1.5173142744307134e-02
 -3.8614455834667660e-03  4.2874691988468317e-03  6.2198938307267103e-03 -8.9227152497854574e-03 -2.0118202144843077e-02
  5.9825751813845319e-04  8.6790086964498017e-04 -1.2450425257465440e-03 -2.8072191603892341e-03 -4.1205119373903809e-03
 -5.9776865069266199e-03  8.5752580358046358e-03  1.9334784286952972e-02 -2.5278141777436243e-03 -7.5834425332308719e-03
 -1.2639070888718122e-02 -1.7694699244205365e-02 -3.5272179604201959e-04 -1.0581653881260589e-03 -1.7636089802100987e-03
 -2.4690525722941351e-03  2.4293792006013070e-03  7.2881376018039228e-03  1.2146896003006547e-02  1.7005654404209154e-02
 -4.9217488571158045e-05 -1.4765246571347409e-04 -2.4608744285579043e-04 -3.4452241999810638e-04  3.3898654515344972e-04
  1.0169596354603488e-03  1.6949327257672489e-03  2.3729058160741464e-03 -2.3347773551861267e-03 -7.0043320655583732e-03
 -1.1673886775930630e-02 -1.6343441486302880e-02 -6.8255624517386763e-03 -3.6222254167541656e-03 -1.2601806720949952e-03
 -3.0370597282499620e-03 -2.1927961990642680e-03 -3.1311395151771906e-04  6.3104816469597216e-03  1.5880369346886674e-02
  1.2712732537818516e-02  3.2290755449745981e-03 -3.7270294148129563e-03 -5.9029886238987465e-03  6.6144572985725779e-03
  1.7375349077717869e-02 -5.2005583348207411e-04 -8.2368109482466412e-04  9.2295678960005792e-04  2.4244916368893303e-03
  3.5818960982559097e-03  5.6731218261804588e-03 -6.3568853778489601e-03 -1.6698739972363607e-02 -2.2888209043131253e-04
 -6.3137750838154945e-04 -6.4691066529886081e-04 -3.8502707747707708e-04  1.1464163498018797e-03  2.7219706967186973e-03
  1.8225424416139749e-03 -1.9700363363267526e-05 -6.7680060169254190e-04 -1.7516975271778771e-03 -8.9891468319183167e-05
  3.4697322932918913e-03 -9.4438240711348985e-05 -2.4442536296717058e-04 -1.2543121418323019e-05  4.8415354935913210e-04
  6.5044547941176651e-04  1.6834851136364984e-03  8.6391027223791587e-05 -3.3346183193347515e-03 -5.7364932880897071e-03
 -1.4659748293563181e-02 -1.1999519090134504e-02 -3.0814164051310156e-03  3.3926093799097577e-03  4.9185773130666017e-03
 -7.0516787311441223e-03 -1.5892595562730115e-02  4.7339210464391202e-04  6.8631999895853841e-04 -9.8396504341971081e-04
 -2.2175937218847789e-03 -3.2604986299564868e-03 -4.7270442290103243e-03  6.7770810804043341e-03  1.5273725989672403e-02
 -2.0000186197904083e-03 -6.0000558593712259e-03 -1.0000093098952043e-02 -1.4000130338532854e-02 -2.7907516537455785e-04
 -8.3722549612367343e-04 -1.3953758268727898e-03 -1.9535261576219031e-03  1.9221363969369040e-03  5.7664091908107146e-03
  9.6106819846845208e-03  1.3454954778558327e-02 -3.8941111426751891e-05 -1.1682333428025571e-04 -1.9470555713375963e-04
 -2.7258777998726339e-04  2.6820776943758528e-04  8.0462330831275594e-04  1.3410388471879271e-03  1.8774543860630970e-03
 -1.8472869661667257e-03 -5.5418608985001745e-03 -9.2364348308336293e-03 -1.2931008763167069e-02  2.0173266409353269e-02
  5.9673872339597710e-04 -7.0106004563708774e-04 -2.1677816065075739e-04  7.8213576810641124e-03 -3.4848163187893022e-03
  3.8158701342812518e-03  3.2998533607540223e-03 -3.7990524244113463e-02  1.5291656791357189e-03 -2.9903734513381554e-03
  7.2127622285643751e-03  3.0050286239264628e-02  2.1337409590447675e-04 -4.1726559803295085e-04  1.0064420360021004e-03
  4.1931052635172054e-03 -1.4696188224095248e-03  2.8739260696749210e-03 -6.9318918658008242e-03 -2.8880105588674862e-02
  1.0418600164187179e-04 -2.6508282527351514e-04 -4.5305040800093250e-04  8.6849841198086315e-04 -6.1069624385620951e-04
  4.6152544164932384e-04 -1.7185659231643349e-04 -7.8274894240554799e-03  2.6590118638125789e-04 -1.6648794400231479e-03
 -7.9778730955452383e-04  5.9665526384912555e-03  3.7102863357550719e-05 -2.3231108973468043e-04 -1.1132027629371982e-04
  8.3255058119281300e-04 -2.5554679505217833e-04  1.6000477878129848e-03  7.6672087426357042e-04 -5.7342106104421205e-03
  3.5295778341561043e-03 -3.2548095084893869e-03 -3.2682766652379278e-03  3.5425960123522560e-02 -1.5823748046992006e-03
  1.8118375328149972e-03 -8.1623909664430352e-03 -2.7520196034088017e-02 -2.2079869954022687e-04  2.5281707585060554e-04
 -1.1389497009035867e-03 -3.8400658790657700e-03  1.5207559447756487e-03 -1.7412832224157175e-03  7.8445413494566910e-03
  2.6448538990853299e-02  6.6734462173788367e-04  2.0020338652136510e-03  3.3367231086894045e-03  4.6714123521651718e-03
  9.3118788410499320e-05  2.7935636523149666e-04  4.6559394205249530e-04  6.5183151887349307e-04 -6.4135772239805322e-04
 -1.9240731671941527e-03 -3.2067886119902661e-03 -4.4895040567863725e-03  1.2993449669914493e-05  3.8980349009743397e-05
  6.4967248349572220e-05  9.0954147689401152e-05 -8.9492673053835799e-05 -2.6847801916150653e-04 -4.4746336526917726e-04
 -6.2644871137684799e-04  6.1638277237991042e-04  1.8491483171397295e-03  3.0819138618995504e-03  4.3146794066593885e-03
 -4.7671535297127260e-05 -2.7799873512564016e-04 -1.9419536716272913e-04  1.4926984364397743e-04  4.6624643254757070e-04
  1.4570012447675564e-03  1.1719005715518428e-03 -5.7757330123880436e-04 -2.8729370410200228e-04 -5.7702427471816573e-04
  7.3362404708579804e-04  2.1774176157637599e-03 -4.0087895777559155e-05 -8.0515822852180135e-05  1.0236717310395687e-04
  3.0382876199043930e-04  2.7610627211218123e-04  5.5455451733151190e-04 -7.0505617728675951e-04 -2.0926273431542829e-03
 -1.7411435863724710e-05 -6.0483467321596063e-05 -6.6061467105831204e-05 -1.3663369620760236e-05  8.5206927120760206e-05
  2.4539703728037763e-04  1.5347030131842177e-04 -1.7814065742928140e-04 -5.2436003084694281e-05 -1.8875607344019310e-04
 -2.5743498615557752e-05  4.3404208316308985e-04 -7.3167249982779674e-06 -2.6338320998378690e-05 -3.5921521241684076e-06
  6.0564619218870459e-05  5.0394105855648973e-05  1.8140577058243162e-04  2.4741027500355955e-05 -4.1714015939387552e-04
 -4.1568377285900685e-04 -1.3389754232376386e-03 -1.1096155009832748e-03  5.3251305747132206e-04  2.5722309100598053e-04
  4.6547241859120616e-04 -7.9277597793531087e-04 -1.9923773105365705e-03  3.5891954179992450e-05  6.4950291417411503e-05
 -1.1062101370359194e-04 -2.7800892547929303e-04 -2.4720663120977437e-04 -4.4734657402247966e-04  7.6190468765055725e-04
  1.9147926459879296e-03 -1.5762338966703873e-04 -4.7287016900111629e-04 -7.8811694833519352e-04 -1.1033637276692708e-03
 -2.1994182005584032e-05 -6.5982546016752068e-05 -1.0997091002792008e-04 -1.5395927403908814e-04  1.5148541683043598e-04
  4.5445625049130847e-04  7.5742708415218020e-04  1.0603979178130532e-03 -3.0689864183013077e-06 -9.2069592549039297e-06
 -1.5344932091506552e-05 -2.1482904928109154e-05  2.1137712087009500e-05  6.3413136261028513e-05  1.0568856043504754e-04
  1.4796398460906646e-04 -1.4558646125277237e-04 -4.3675938375831690e-04 -7.2793230626386207e-04 -1.0191052287694064e-03
 -3.3770484664494478e-04 -4.8692026342249167e-04 -4.9606317721044135e-05  1.3908467800505804e-03  3.5320056548822322e-03
  2.8281029558675135e-03  6.1983536783936748e-04 -8.2278922251342694e-04 -1.3168914835301219e-03  1.4854104495367524e-03
  3.9301568170214130e-03 -1.1480895031137342e-04 -1.8375414354143802e-04  2.0726865377733702e-04  5.4839947628744403e-04
  7.9074919400810807e-04  1.2656107429513562e-03 -1.4275674542191048e-03 -3.7771135673017892e-03 -5.0502561498767253e-05
 -1.4071439763418503e-04 -1.4463660028273830e-04 -8.3196963460815368e-05  2.5272997771002886e-04  6.0491406350974522e-04
  4.0381061323988129e-04 -2.4228680495748129e-05 -1.4944225137865602e-04 -3.9275691998571393e-04 -2.1962319375258598e-05
  7.8473710606826244e-04 -2.0852616373049175e-05 -5.4803840980491250e-05 -3.0645404252793731e-06  1.0949929939877386e-04
  1.4362285819379585e-04  3.7746267138877391e-04  2.1107090211370681e-05 -7.5417885547426227e-04 -1.2634204828652347e-03
 -3.2598439445423984e-03 -2.6698294720698401e-03 -5.9359056376543338e-04  7.4847862998898666e-04  1.0955553723363063e-03
 -1.5847970706457265e-03 -3.5948575499309284e-03  1.0443992639697981e-04  1.5286972515474894e-04 -2.2113669352834297e-04
 -5.0161306265742930e-04 -7.1933231160721338e-04 -1.0528936256843729e-03  1.5230838858722043e-03  3.4548711047749010e-03
 -4.4191838440705363e-04 -1.3257551532211611e-03 -2.2095919220352714e-03 -3.0934286908493756e-03 -6.1663649023117661e-05
 -1.8499094706935301e-04 -3.0831824511558855e-04 -4.3164554316182349e-04  4.2470975156889685e-04  1.2741292547066903e-03
  2.1235487578444862e-03  2.9729682609822778e-03 -8.6043164190784669e-06 -2.5812949257235414e-05 -4.3021582095392348e-05
 -6.0230214933549268e-05  5.9262420350715610e-05  1.7778726105214686e-04  2.9631210175357808e-04  4.1483694245500946e-04
 -4.0817123578087305e-04 -1.2245137073426189e-03 -2.0408561789043650e-03 -2.8571986504661098e-03 -1.7450255108324831e-04
  1.9561097918125402e-05  9.6806418096048079e-04  2.5473661076783087e-03  2.0414126541648046e-03  1.7536964173701063e-04
 -5.7642287964931350e-04 -9.6078936916378405e-04  1.1107211575809648e-03  3.0158522334060929e-03 -8.0431906419285661e-05
 -1.3406497791385510e-04  1.5498590246595405e-04  4.2082081259385253e-04  5.5397654103702017e-04  9.2337551160063180e-04
 -1.0674688438940616e-03 -2.8984126888882593e-03 -3.5308103497563880e-05 -1.0228103857208028e-04 -1.0640092074556430e-04
 -5.3268940550488708e-05  1.7606469752693462e-04  4.3492909971716337e-04  2.8696442567817577e-04 -7.2295187453116395e-05
 -1.0477821558759880e-04 -2.9198315245085923e-04 -2.1279168754577814e-05  6.0194111072141212e-04 -1.4620362807334528e-05
 -4.0742243972382387e-05 -2.9692161265174920e-06  8.3992625547619812e-05  1.0069807340500216e-04  2.8061310983044132e-04
  2.0450541987465591e-05 -5.7850107308076099e-04 -8.7681418088198697e-04 -2.3492002136279912e-03 -1.9282417730241324e-03
 -1.7466205592314363e-04  5.2301857174326806e-04  7.9455515498839165e-04 -1.1883197786617436e-03 -2.7587927343219894e-03
  7.2980067764826000e-05  1.1086927345747908e-04 -1.6581372566553277e-04 -3.8495168542266884e-04 -5.0265183687492072e-04
 -7.6361458221677861e-04  1.1420457165569327e-03  2.6513632792084115e-03 -3.1067748044455153e-04 -9.3203244133365426e-04
 -1.5533874022227575e-03 -2.1747423631118595e-03 -4.3350781025378686e-05 -1.3005234307613615e-04 -2.1675390512689355e-04
 -3.0345546717765073e-04  2.9857946669201759e-04  8.9573840007605354e-04  1.4928973334600902e-03  2.0900562668441248e-03
