DATE: Mon Aug 31 11:11:49 2020 CONTRIBUTOR: Anders
chebyshev
1 5 5 4095
quadratic
4.20
 -2.1758879581197448e+00  1.7135292095314778e+00 -1.8795349216301211e+00  4.4266495049305377e-01  2.2755708374043024e+00
 -1.9902792129345244e+00 -4.2116872651753283e+00  1.2979230606081305e+00 -1.6357387980082425e+00 -2.5678835091616747e+00
  6.8478163369093181e-01 -1.2345195296227303e+00 -2.7577119937093073e+00  4.7121504593614194e-01 -5.2511672472633286e-01
 -6.1037323855617842e+00 -1.8272374805811751e+00 -5.6360949030292318e-01  6.8915803751463045e-01  1.9116970577633197e-01
  1.2287913574396754e+00 -3.3331280235092891e+00 -1.6000376379929548e+00 -1.6579764974853788e+00  3.1990154753794968e+00
  1.0928773923349375e+00  1.6765064501427656e+00  5.6767713729004754e-01  2.5445153276109522e-01  2.9286872628858873e-02
 -3.4717680588818780e+00  9.4585248084036588e-01 -1.0118275445880061e+00 -3.0790984629803688e+00  4.8092807140574223e-01
 -6.2709864788226355e-01 -1.2659856050102860e+00  1.8400491796631568e-01  4.2440505680934404e-01 -2.8774356606170954e+00
 -3.6750729970549401e-02 -1.0122096662446012e-01  1.5500471691984217e+00 -2.0193461036597782e-01  1.3799171686074114e+00
 -3.1135687472760765e-01 -4.0373277654884987e-01 -1.1286937036833820e+00  2.6001190123461129e+00  5.3433284467547715e-01
  4.0155570731885959e-01  1.7504671489575685e+00 -2.8307898541004306e-01 -1.0672024392038679e+00  1.4946864913147806e+00
 -3.8277965961356131e-01  1.7774201532625646e+00  2.3058113851389521e+00  2.4784361869228633e+00  9.3518141767358287e-01
  2.4452868615590830e+00 -5.6595558331000628e-01  1.0707724993478980e+00  3.2656861216005382e+00  1.7142474960523941e+00
  1.5073646033826833e+00  8.7017248512546530e-01  6.4122837972318880e-02 -2.0370014662761049e+00  2.8958391153067851e+00
 -6.0972649293660197e-02 -1.0673617645873890e+00  1.0779240944132198e+00  1.3106943523799863e-01 -5.4719154070806653e-01
  1.3643456768822944e+00  2.2601123364222531e+00  5.8051662255106748e+00 -1.1724626255958697e+00  9.9875339581196876e-01
 -2.8413742671527977e+00  1.3771985840214711e+00  1.9193325665569319e+00  3.3618425668527152e+00 -1.5414335350280339e+00
  1.5566037801844761e+00 -7.0997922354867349e-01  4.3880591959214144e-01  9.3920498001455144e-01  5.5998950740980149e+00
 -3.8026784468188379e-01  1.3488492707701778e+00 -2.7308222861251608e-01  1.4889277792954836e+00  2.0045935376585877e-01
  1.2266478217271066e+00 -2.8967089190695222e-01  7.4889420316784228e-01 -1.2694422801373584e-01  1.6376621389502155e+00
 -1.3436669815442226e-02  4.0441115816427065e-02  6.0602487819591200e-01 -5.8389406219680162e-01 -1.8508598598162607e-01
  1.1294545711368853e+00 -6.3156726983744726e-01 -1.1059478748369873e+00  9.2731908119835027e-01 -1.6003736052998658e+00
 -9.8381443784258593e-01 -1.2233737503530833e+00 -1.3474950168219846e+00 -1.3657634471492415e+00  2.6833773859983706e-01
 -1.4693078423116799e+00 -1.6928326846146469e+00 -4.1394432295715475e+00 -1.3381152341952869e+00  8.4940923361067577e-01
 -1.1159229683609570e-01  3.6291107899780317e-01 -9.2547542475870159e-02  1.3811690777195675e+00 -1.8269788788304786e-01
 -3.9831126502247960e-02  2.3529625802125073e-01 -4.4451013306379533e-01 -1.9628461179442347e-01  3.8320328756780730e-01
 -5.3042390887847479e-01 -8.3749875054738698e-01  3.8278372559824869e-01 -9.3446462300069610e-01 -6.1330063235952181e-01
 -1.3872576249540263e+00 -6.6948415273627249e-01 -9.4284409160632965e-01  1.6342519770785674e-01 -6.4143738969019259e-01
 -8.6280261892412646e-01 -2.8349177490175164e+00 -2.4558928128199575e-01 -1.6461897452606788e-01 -4.4684875164856530e-01
 -3.0392480333509442e-02 -2.6040031518252071e-02 -8.8361304885976866e-01 -2.2482053388530765e-02 -1.3887062607092959e-01
 -6.2838751907361823e-01  5.5010891543617624e-01  5.2005164402784310e-01 -9.5073471349019734e-01  1.0107641987999885e+00
  4.5901108474126984e-02 -3.5110803336987351e-02  9.6453922329335662e-01  1.0125671819071718e+00  4.6915686713216687e-01
  1.8515510106922257e+00  6.2848646165138167e-01 -9.2947178910653927e-01  1.7040294584008047e+00  1.9849644398538544e+00
  1.2392034985041143e+00  2.6010506913996920e+00  9.1589883391939075e-01 -1.1565314073932706e-01  1.6207059934228827e+00
  2.4154581455175084e+00  3.9381102349350208e+00  2.5563741588350437e+00  1.0117242585567698e+00 -2.3897089830920128e-02
  5.5035966343945308e-01  1.9067223862646117e+00  5.0504916842596659e+00  6.2334165384442208e-01  8.3733382890611419e-01
  3.5762239598238281e+00  1.2974050570093638e+00  3.4897300026959588e+00 -1.4026330746403328e+00  7.7691308129392533e-01
  7.7195414508039051e-01  1.4943541538511091e+00  6.1849596652067618e-01  1.4600654074901516e+00 -2.2636783603198651e-02
 -3.5786104262202756e-01 -7.8805370918532625e-01 -2.1845242268094438e+00 -2.9571451915390767e-01 -2.3308068903754857e+00
  1.7917842912199653e+00 -9.0481838648562596e-01 -9.9133960913180341e-01 -3.1427456934959750e+00  4.4000048413307269e-01
 -3.6326487306715216e+00  2.8714906635827440e+00 -3.3426158812592577e-01  4.9175705496679251e-01 -9.9256884533418344e-01
  2.7593101168956622e+00 -1.0454327071183025e+00 -9.8114538677469820e-01  4.0034773901712850e-01  2.7620880094509348e-01
  6.0512556146614749e-01  3.8653750924422248e-01  6.0514366552922128e-01  1.1460030953509692e-01 -3.5262590960537799e-01
 -5.7878593831168346e-01 -9.4884019758770322e-01  3.8395085179074862e-02 -1.0141174171044098e+00  1.3291678490691758e+00
 -7.1221638554246824e-01 -6.5618411738653526e-01 -1.3504371297627422e+00  2.0819316435099822e-01 -1.6207422539775482e+00
  1.8318867613151131e+00 -2.6767377050908170e-01  2.9364937779281264e-01 -5.6029490620275268e-01  1.0082072900083805e+00
 -5.5936347915602269e-01  2.6566371880982309e-01 -3.3162380920806611e-01 -2.4128793398720860e-01  1.2358956315501626e+00
  2.5990857624166175e-01  1.4066753110137249e+00  1.4653792293493950e-02 -2.4919614410273577e-01 -1.8540125899957494e-01
  1.7368285662202894e+00 -7.5288772226821621e-01  2.1656322287081293e+00 -5.7296059160479818e-01 -3.7033494724125413e-03
 -2.3865523856634194e-01  1.8243519430170352e-01 -2.3990868675948374e+00  4.9166080680452362e-01 -1.6718159901788923e+00
  2.1151834296731947e-01 -3.5145763220163029e-01  2.3751211682584028e+00 -2.5274454151075894e+00  3.5805621260307827e+00
 -2.6374059528235403e+00  4.2695995944295123e-01 -8.5432331888862922e-01  5.2617477444885452e-01 -3.9255261628502325e+00
  1.2431479356397865e+00 -2.8028445187611606e+00  6.2570549410209209e-01 -1.1063964588250670e+00  8.9423050422539418e-01
 -2.1320665390114364e+00  1.0695267865277818e+00  1.0856375587938146e+01  2.6483101180638187e+00 -3.5056320074737641e+00
 -2.3965682547652705e+00  9.0374161741239867e-01  1.8465806601877439e+00  1.0637400125181557e+01 -1.0280224111666030e+00
 -5.2175958069574335e-01 -5.6209185551482506e+00  3.0421258471265755e+00 -6.3634941423198299e-01 -6.1385538633894612e+00
 -5.8901695985914557e+00  3.1899740255735765e+00 -2.5050342478339189e+00  4.0144512154940877e+00 -8.0574716001599711e-01
 -6.2629417092284712e+00 -2.5192739646026894e+00  9.1748723148793943e-01  1.3164641216624204e+00  4.0560294834995219e+00
 -1.1265394726796600e+00  2.3855572013781057e-01  4.0234345991466398e+00  3.3269338209693160e+00 -2.9545158888598735e+00
  1.4159998044213076e+00  8.0328481580982825e-01  6.0384439798403946e+00 -9.7853312054235175e-01  5.8523702538946054e-01
 -2.6866484615832746e+00  2.0147552857323365e+00 -8.2958445601356345e-01 -1.2484851120241274e+00 -7.1752160660480513e-01
  1.2090788520281421e+00  9.9104869295842946e-02  1.6576568380321230e+00 -1.2063211382198489e+00 -2.3018891760998486e+00
  4.7211342080481700e-01 -1.3812158696066490e+00  1.1862686816450605e+00  1.5578697946988189e+00 -1.6154287919925139e+00
 -3.8191982525177082e-01  2.3130134864666161e+00 -3.3572544329410903e-01  2.3790963916612213e+00 -2.9348934058255338e-01
 -1.5550401121012065e+00  3.8178304222853967e+00  6.7298348461067690e+00 -1.9178515902926847e+00  3.3629956618460710e+00
 -1.9808729670031866e+00 -2.3010767791999811e+00 -1.6476823070966020e+00  5.2678020536700387e+00 -1.8121713055337523e+00
  2.0376213241672758e-01 -1.4206792104927075e+00 -2.3310914839198098e+00 -4.4835792732662867e+00  1.6348078543303473e+00
 -3.3755624220754896e+00  1.4177800968816427e+00 -1.7487827330351422e+00 -2.8616853993322309e+00 -1.2881468852651778e+01
  5.2289637000903895e+00  5.7757943017578555e+00 -1.0928293351548746e+00  9.2392510598750022e-01 -1.8179236398338290e+00
 -1.0862992461926297e+01  3.8278550747677400e+00  2.3574265103445669e+00  1.4051661298428826e+00  4.2453070751700359e+00
  2.1776889937174104e-01 -7.1044943756737666e+00 -3.2767797691576561e+00  1.6651409757023430e+00  1.2862103117640800e+00
  4.9793594510640560e-01  2.3438082860127452e-01  1.5520917291495504e+00 -8.7281443599778186e-03 -1.8700890117702329e+00
  1.7562994077875373e+00  1.2565572545444752e+00 -2.4425045384650161e+00  1.7317455254241043e+00 -1.9765300290792709e+00
 -7.1013379838170749e+00  5.6553809003935385e-01  1.6568303846632659e+00 -1.2880105665317387e+00  2.2559622280874692e+00
 -2.2715360526546746e+00 -3.5049304825943182e+00  4.5262462004529880e-01  1.5481718789317256e-01  3.5928350058702563e-01
  3.5678081338212273e+00 -2.3336107883460144e+00 -5.2494622317590256e-01 -1.9920165081084633e+00  4.4581477271578365e+00
 -5.1476385012017545e-01  1.4576414923365211e+00 -1.7004082311754054e-01 -2.5910885100154246e+00  1.8483891338589729e+00
  1.4634249495695428e+00 -1.2399585376732034e+00  1.1627354791561135e+00 -3.4356043158846816e-01 -2.4891229418965395e+00
  1.3017341237873552e+00  9.8809923744383354e-01 -2.6195654014168213e-01  1.0306010696744021e+00 -5.9098754667972742e-01
  1.2937408710104137e-01 -6.0573439430254439e-01 -7.2908401931510980e-01  1.5968597800565476e-01  1.9303302707061638e+00
 -2.1332957044146106e+00  7.4287236089799080e-01 -3.0272857453799134e+00  1.0918444507000231e+00  6.4144587587904311e-01
 -4.1943214178200794e-02  2.2980645970093736e+00  3.9415904431220952e+00  9.6974749897378842e-01 -4.7766936382444669e-02
  5.8404075933799504e-01 -7.5015812120113523e-01  2.2134659456393422e+00  2.8977346401929935e+00 -2.3283073541456361e+00
 -1.6762948850512771e-01 -7.0926909113131842e-01 -2.2018719385982344e-01 -1.4542381472703809e+00  1.5987630666115820e+00
 -1.5966627163220437e+00 -2.9803646655479668e+00 -1.1110105651093818e+00 -4.4838343828398308e-01  2.6190780163432592e+00
 -2.3663036708167056e+00 -1.5515465622775082e+00  4.0752078538442902e+00 -1.6274361853730852e+00  5.9349022823769459e-01
 -1.1547275083662001e-01 -2.0172977177344364e-01  5.4594565843863165e+00 -7.2833353077442098e-01  2.8528776611028661e-01
  1.5990098218258311e+00  1.7418137830745870e+00  1.5875918989654565e+00  7.6685222351700304e+00 -1.1273948638200295e+00
  1.2864981138622866e+00 -1.9617385250423354e+00 -1.3006247999825415e-01  2.4217739762387605e+00 -2.7934437697073236e+00
 -5.5354630659451232e-02  1.2829172640487769e+00 -1.4477234313887095e+00 -4.2476862436289742e-01  2.7851344620885721e-01
 -1.0975595817232602e+00 -1.3405069534840948e+00 -1.3892312007223779e+00  4.6916695363358940e-01  5.5416055716025436e-01
 -1.1991214447240184e+00  3.7700718039411640e-01 -1.5304831120313338e+00 -2.3472082646694474e+00  4.2779737099012038e+00
  2.8754630905750380e+00 -1.8156336182252177e+00  4.5220986985634681e-01  2.2225560204250883e+00  2.3167092694827147e+00
 -1.5611581906107830e+00 -7.2371729666286777e-01  1.4442446486024092e+00 -2.2555983022473924e+00 -3.4224323764294695e-01
  1.6966178273908383e-01 -4.5901201608187137e-01 -1.4694610680124920e+00 -4.8617902846087024e-01 -8.9229572565656667e-01
 -1.1342704942261577e+00 -2.0130898193276927e+00  1.1466711310509652e+00 -4.8120798320447156e-01 -1.5525066180262206e+00
  5.6259997575716625e-01 -1.4891816953098669e+00 -2.5386343137543150e+00  3.0904406925507715e+00  2.5621811782082036e+00
 -1.2119203862231496e+00  1.2451176412423024e+00  6.2239443966802810e-01  1.1731665912164289e+00  1.4427074153950414e+00
 -2.9987381398102797e+00 -1.9611486403636609e+00 -3.1867166198955488e-01 -7.8785313083102437e-01 -2.8779112917569982e+00
  2.0498740784807410e+00 -2.1030184339929949e+00 -2.3117923865105396e+00  6.0893910251752459e-01 -8.9456998856374526e-01
 -2.3030940401953117e+00  1.0621911152561836e-01  1.7961810507192706e+00 -3.3963954202556756e-01  1.8865614482458568e+00
 -1.6657409458516952e+00 -8.8685817072878237e-01  9.1439617719908028e-01 -1.7861406566120031e+00 -2.4538291626307061e+00
  4.5048829895904419e-02 -7.3622762959075772e-03 -1.0656166132924483e+00 -3.2774217187545389e+00  6.2151224826287499e-01
 -6.9096014915921344e-01 -1.9649759285198343e-01 -1.2804205434268852e+00 -1.9857393187267007e+00 -5.6407025964829813e+00
 -1.5142481078782843e+00 -2.0351585343276044e+00 -3.9756228559773490e+00 -8.9737827635929079e-02 -3.4826409693170461e+00
 -1.7358840294402000e+00  8.8622654252762612e-01 -1.2545130994574762e+00 -3.0673495023320356e+00  2.3847928357440651e-02
 -1.0936240187220818e+00 -1.2659856050106271e+00  1.9313040212931520e-01 -5.7928030548060949e-01 -2.9853202925028199e+00
 -1.4703333474034253e-01 -1.0197034663079307e-02  1.5500471692052997e+00 -9.0707248390512696e-02  5.7239435271507766e-01
 -3.9311900301231617e-01  2.2029558008648564e-01 -6.7004749456464197e-01  2.6001190123556057e+00  5.8480877931502606e-01
  1.2216762686578138e+00  5.8130677417921106e-01 -1.2786454480635712e-01 -4.0272517261692542e-01 -2.6200464984775635e+00
  6.1004398128675152e-01 -8.1301083058773971e-01 -2.7063590085494980e+00  2.2367221922354474e-01 -5.5809274680586896e-01
 -4.7657463015056578e-01  2.5413546396110043e-02  1.9171896122934040e-01 -1.2940535678870333e+00  4.8152707284634744e-01
  3.8123304927964341e-02  1.6464971636305563e+00 -2.5540928733043522e-01  8.9309960962679913e-01  7.6733145105367839e-01
  3.0444356668749606e-01 -5.8480170872645942e-01  1.9458862670198300e+00  2.9616409641862473e-01  4.2145411638949515e-01
  1.1391626253470122e+00 -4.0512055676822456e-01 -8.7085081506404549e-01  9.4231749468183779e-01 -2.7913276358743944e-01
  1.4148562367891020e+00  1.3400099586996532e+00  1.1608393952077165e+00  2.9231566709657741e-01  1.3119371397656607e+00
 -3.1874239542479277e-01  1.1628819043879286e+00  1.6856941928828064e+00  4.1247321829706607e-01  6.4961959371056821e-01
  3.1809518711251883e-01  7.6193922297283612e-02 -1.1247651748724641e+00  1.6500163480242804e+00 -1.5329160358788840e-01
 -5.0203991401460968e-01 -5.1354827394618496e-02  1.8904810666985306e-01  3.1912266257140232e-01  1.2182011399818293e-01
  4.3245928048179394e-01  3.3193065996676125e+00 -1.2123897860571446e+00  5.9200617406269895e-01 -1.6989191618552972e+00
  1.0245741170890597e+00  1.2315949429546436e+00  2.3355416729007743e+00 -1.1916432207830212e+00  7.9593108944404811e-01
 -5.0911670191715608e-01  1.2496135574111804e+00  9.8516126912954860e-01  3.5648049324165783e+00 -6.3718247811360165e-02
  3.9247100933770557e-01  4.2030116359081315e-01  1.2097958631958186e+00 -2.7601002883602654e-01 -4.8848885600308867e-02
  1.9219648889027480e-01 -4.1751132239473326e-01 -6.6348378510405048e-01  1.8475926596429249e-01 -5.7608657884063286e-01
 -8.2079963344737861e-01  3.3984246548899122e-01 -9.2740523795185159e-01 -1.4432582960256308e+00 -1.2272703357283845e+00
 -6.8554576352470131e-01 -8.6613458742904070e-01  1.6251058188480308e-01 -6.7339791195430965e-01 -1.0650711467182497e+00
 -2.1168393154416512e+00 -2.6444035136202571e-01  5.9226522971059725e-01 -5.9492280056581678e-02  1.7344112160108410e-01
  1.5960790699056826e-01  8.8488709508855035e-01 -3.0694551188098795e-01 -6.5628765097752839e-02  7.8982638140858916e-02
 -2.7011862966996503e-01 -4.0541124937745510e-01  2.3454677669949797e-02 -3.2848749169342606e-01 -5.8600736354686078e-01
  1.5571356012968737e-01 -5.0099908896846312e-01 -7.6022083253151074e-01 -9.7055910203093809e-01 -1.9605558460509942e-01
 -5.8150772871421874e-01  9.9425299376572643e-02 -2.7728167157407901e-01 -4.6525560242663566e-01 -1.4305253986426978e+00
  1.5668456409763187e-01 -7.9869001717318144e-02 -1.3102806142796636e-01  7.9685778781284466e-02  2.0759160242197217e-01
 -2.2189728994300362e-01  2.8074943513217998e-01 -3.6073292036741034e-02 -1.9292044009773807e-01  4.0661045755505643e-01
  7.5257106760204273e-01 -1.5150963873536760e-01  8.6541805049976417e-01  5.2379643925850372e-02 -2.3031936942750453e-02
  4.8605153448361710e-01  7.6725782042244361e-01  2.3856364916533757e-01  9.1828171213211274e-01  4.5676241902783676e-01
 -3.1854857180797130e-01  1.0063189004813353e+00  1.8368090640622814e+00  1.0557391099914755e+00  1.5466226865681532e+00
  5.4688066471824293e-01 -8.0015969780472831e-02  7.8186815401830900e-01  1.4200046788550154e+00  1.8598077819777110e+00
  1.0229528889916801e+00  5.3475283007550733e-01 -3.0757058302026585e-02  2.4134215883562515e-01  7.1930272461879330e-01
  2.2610044620217322e+00  1.4258489761111770e-02  1.3870742568758221e-01  6.2199195626143400e-01 -3.8759404155299393e-01
  9.6022995836998948e-01 -1.5695935154362117e-01 -2.9873069929119966e-01 -5.6356375469740405e-01 -1.3557870209819596e+00
 -6.5292749842174391e-01 -1.7067320022306938e+00  1.2905637860488470e+00 -5.8148228142175018e-01 -6.1199556520378884e-01
 -1.3136993360226477e+00  5.3275524305083444e-01 -2.4025657980144599e+00  2.1942446615058442e+00 -1.3061933535273340e-01
  3.3755346341535397e-01  6.8445666553644102e-01  2.7355086806675324e+00 -1.5427433002064461e-01 -9.0139021705623712e-01
  1.8864993377893571e-01  5.3004194933420748e-02  1.5214281091047344e-01 -3.7534927125201722e-01  3.3529952114341022e-01
  1.1371367570282453e-02 -2.1241613176654650e-01 -3.1659175046330279e-01 -5.4435392286099749e-01 -1.2605021194432853e-01
 -7.9307381970736301e-01  1.0217150600292255e+00 -3.8423689639137537e-01 -2.9163141977362794e-01 -3.6899246661313612e-01
  6.1197241439792371e-01 -1.0443908722110065e+00  1.4615418337144774e+00 -1.0888087027070842e-01  2.2446734754240363e-01
  4.6686921362305256e-01  1.4856876606857190e+00 -2.6543977740272062e-03  2.7119815048369317e-01 -4.9508854742428957e-02
  1.1984203721862238e-01  8.4820125507408051e-01  6.3739685253066969e-01  9.0093813946897661e-01  1.9507286325816309e-01
  2.3655115415889313e-02  2.2163134039087612e-01  1.0203880810842394e+00  2.6953133345196978e-01  1.4438399494033667e+00
 -2.6598374590797125e-01 -1.1497769592158466e-02 -7.5657022497015614e-02 -2.4905333345780978e-01 -1.2023296805197803e+00
  2.3498363496177943e-01 -9.9376603553418530e-01  2.6880737168169500e-01  1.8201970064947756e-01  6.1241320827572210e-01
 -1.2259740787373943e+00  2.1454550546351010e+00 -1.8341732997355447e+00  1.5761677316189721e-01 -4.2156038818023317e-01
 -1.1823459509766003e+00 -3.0760192747814923e+00  1.8554488743339892e-01 -2.1140457111899922e+00  2.3395014938131786e-01
 -5.8024303188634319e-01 -1.2549325130789093e+00 -2.6324327262570080e+00 -1.9845374172243702e-01  2.8077969837299861e+00
 -2.5708887692976532e+00 -5.0951288380281312e-01 -2.6026151818061862e+00  1.3532831152456639e+00 -6.8404448770129278e-01
 -1.6016541440048968e+00 -2.5743438977337973e+00  2.3347849658853477e+00  5.9108479650649315e-01  1.7663000829968531e+00
 -8.0695039027497728e-01 -9.6991219280698715e-01  7.5893153549850467e-01  4.1834945042330673e-01  2.3104791761717252e+00
  2.2499127282819451e+00 -5.2575599127063910e-01  1.0763097525937155e+00  3.3647360684271916e+00  2.9327068085649444e-01
 -2.6544358891844695e+00  6.5087627186762509e-01  1.1274877204420974e-01  3.5902180049833987e+00 -1.7728163187572363e+00
  1.1858593651308524e-01 -1.0159868589219059e+00  8.8347095165219081e-01 -6.4965161344752342e-01  4.6976562214899786e-01
  3.6761986288411208e-02  3.8057803404367974e-01  1.4250263743830374e+00  7.0489987525705722e-01 -6.8800242021003477e-01
 -9.6922933676069079e-03  1.8471269327469599e+00 -1.3059094500205788e+00  1.6107619570996121e+00  9.5618575656082161e-01
 -5.8550639944195737e-01 -9.4471971342954930e-02  2.4646153806688744e+00 -7.4337235307464766e-01  1.6396616012594052e+00
 -1.2343619994668087e-01 -5.9194685115020462e-01  1.8963872499398349e+00  3.8689633360741595e+00 -2.5826769880113289e+00
  1.8772428086160744e+00 -7.9703387420152172e-01 -4.5357030117605746e-01 -2.2419442278112456e+00  3.3312272880222054e+00
 -1.9854295515816602e+00 -2.7337530196888338e-01 -6.2440739120339650e-01 -6.2686688983960082e-01 -4.1260476422378360e+00
  1.7004546999111199e+00 -7.4545577784320471e-01 -3.1589697885078749e-01 -4.4970313363377912e-01 -1.5914154848344708e-01
 -1.0227958895547545e+01  2.4697459534040718e+00  3.0231947495218492e+00 -1.9151227031068174e+00  4.1125308388365234e-01
 -4.0642609950428721e-01 -8.7374781350504236e+00  1.4811040755989779e+00  2.4527248236170749e+00 -3.3773408481602019e-01
  1.7456500639214827e+00 -2.4649536880566814e-02 -5.7073628416815154e+00 -4.0217795711118924e+00 -6.3684119327149347e-02
  7.0375368871077626e-01  5.5827151403690323e-01 -6.0585416461910313e-01  4.1151809876825940e-01 -1.9359492429877392e+00
 -3.4938361806900957e+00  9.3427325766310787e-01  1.0659494327919248e+00  1.3944725195301544e-01  3.8875695203850391e-01
 -1.9075825034202651e+00 -5.1198037291169385e-01  7.3936470429748624e-01  1.8129729809004402e-01 -1.4259173152049698e-01
  1.9491013731264619e+00 -6.4327408697410071e-01 -2.4643594713234052e-01 -1.6365303911388764e+00  2.3433993399441988e+00
 -1.6676193464974176e-01  9.5750518680290497e-01 -4.5356740055814004e-01 -2.3107890820554076e+00  1.4558034367186110e+00
  7.9644696837732454e-01 -2.0120767511264148e-01  4.0566057657042398e-01 -4.4414306920391589e-01 -9.3259935930586835e-01
  1.1202609178791363e+00  7.2762659042368227e-01  2.4694037475040886e-01  1.9492169357439249e-01 -3.1697086289310761e-01
  1.0935920762644855e+00 -1.4191890769859583e-01 -2.5394190814412809e-01 -3.1469167013591459e-01  1.0489114692923787e+00
 -7.2864868162075158e-01  3.8239983838843727e-01 -2.1436685029386808e+00  5.0176930135762632e-01  2.6223815180849641e-01
  3.3264382174822504e-01  2.1549414094858781e+00  2.5516016462354969e+00  4.4184017949066856e-01  2.3980051727005502e-01
 -1.9891973413945152e-01  1.3104724572277604e-01  2.4707849832004811e+00  1.7206111524087646e+00 -1.7609866544815986e+00
  1.7581728742803193e-01 -8.2226626096783662e-01 -1.5679751344202231e-01 -7.6063217459232035e-01  7.9014670837148060e-01
 -1.2598692638412103e+00 -1.7830326782035684e+00 -1.5105100739748423e+00  5.6813828597722527e-01  2.9266303932685460e+00
 -1.7537077954284541e+00 -1.7534212830357774e+00  2.4906734030494135e+00 -1.0158059804015238e+00  2.0371265951823680e-01
 -2.9527394866694223e-01  1.3449243237801056e-01  2.7134135757855802e+00 -7.4122586981803806e-01  7.8133408211488131e-01
  6.2497501041882231e-01  7.2193854137169744e-01  2.2112234183298369e+00  4.3510723042844575e+00 -1.2158026984748176e+00
  2.7435368482262845e-01 -6.1712811517060118e-01 -5.2927938575248290e-01 -8.5211158271839782e-02 -6.1566623164492285e-01
 -9.4558083036920948e-01 -9.7697112352261684e-01  3.7804220872465066e-01  1.7086849793205605e-01 -8.6672828648394740e-01
 -1.0346657154509558e+00 -1.6153852156747348e+00 -1.4848207020783946e+00  2.1212228696477098e+00  1.8812597290273785e+00
 -1.1125481523738388e+00 -1.4966216678223532e+00  1.7701186825445347e-01  1.3278457896548801e+00 -8.1529879752675072e-01
 -5.7223560246442284e-01  5.4892347415613985e-01 -4.8505945754516233e-01  2.0565721926037384e-01 -1.1603326648842227e-01
 -1.3421637959243071e-01 -8.8449534095630344e-01 -2.8446930401808612e-01 -4.6543167206468183e-01 -6.2631295037205348e-01
 -1.3897692407616979e+00  6.7239977694688946e-01 -1.8667043884901191e-01 -7.9191579030105030e-01 -5.1976557218739572e-01
 -1.1380720996544085e+00 -1.5962119535247297e+00  1.5147378001604608e+00  1.6241439780504332e+00 -6.8868586484063421e-01
 -5.2464234537882248e-01 -2.5438433025291829e-01  7.5998037036455202e-01  7.8701185529268258e-01 -1.3258655714466134e+00
 -6.3655458960061329e-01 -4.7489318701693151e-02 -4.9505496473464916e-02 -1.9149528998355780e+00  1.0485515970874815e+00
 -7.5374834278645875e-01 -6.1470716467785014e-01  5.5139629504660093e-01  2.0797933793573975e-02 -1.4068041283880497e+00
  1.6989175496881614e-02  9.5417314901616845e-01  5.0312600645819439e-02  1.1573817486733446e+00 -6.9322783811530542e-01
 -2.7821717296607318e-01  4.6055261088986299e-01 -6.9409769028995250e-01 -3.3721820062677210e-01  1.3024830490466002e+00
  8.2928399125592023e-01 -5.4958115903426119e-01 -1.6346648144662481e+00 -8.4695095139524224e-03  1.6195062120313652e-01
  1.3593023749349413e+00 -1.2554956492795100e-01 -9.1999120481884233e-01 -2.7815168984996603e+00 -1.3085179766897557e+00
 -5.1157589849381635e-01 -3.1675347374181229e-01  4.7458807932750346e-01 -1.9474282804495999e+00  7.4734324565747556e-01
 -2.7030277617015042e-01 -5.5915156792405973e-01  2.6518135169502273e+00  2.4708765150119802e+00  9.3170650521307152e-01
  2.4452868615602483e+00 -4.7987973438861786e-01 -8.1213636826704239e-01  3.7155913678598154e+00  2.4097381922433669e+00
  1.3133373482687745e+00  8.7017248512364631e-01 -4.6844392824397785e-01  7.4445629057577900e-02 -1.5800404063679707e-01
 -1.4644337354981189e+00 -8.7337187113820391e-01 -4.7657463015063684e-01 -1.1595725432133108e-01 -1.9245805678738315e-01
 -1.0917340299065472e+00  2.7488899621232576e-02 -3.0421680302332277e-01  9.4231749468180226e-01 -2.3256126527048848e-01
 -2.8721371024541575e-01  1.5143527195244531e+00  1.0934294693479387e+00  3.4858841463321788e-01  1.3119371397669397e+00
 -2.6573038035967955e-01 -2.5347569179251339e-01  1.8818906339619730e+00  9.4651760553560393e-01  6.4121416210100080e-01
  3.1809518711251883e-01 -2.1589812889864368e-01  3.0881573321793954e-01 -5.5465027609852768e-01 -9.5461109553465917e-01
 -2.4449640697500286e-01 -1.7444570802436843e-01 -9.1500267490029097e-02  4.0334835764631549e-01 -4.1848756837241297e-01
 -1.2451025257942874e+00 -6.8182173496076892e-01 -8.3609255553979267e-01  9.5713391307957529e-02  9.9123691126002411e-01
 -9.7136519787079578e-01 -1.6060295507419653e+00 -8.7559801554835914e-01 -6.5806606284537139e-01  5.8836596790437068e-02
  7.1859460343217174e-01 -6.8893364396313928e-01 -1.1208740573603393e-01  4.4952107473342195e-01 -1.7500537992185912e+00
  1.1542532663402971e-01  1.7115631529389947e+00 -9.6799779520767970e-01 -1.9474687405980831e+00 -1.8873918348987218e+00
 -8.9143812932093169e-01 -2.6089791942516127e-01  7.0164369950822536e-01  8.0911879286128396e-01  3.9619887321509850e-01
 -2.7691309252052321e-01 -2.5762060647100782e-01 -6.7976815793752232e-01 -2.8331241493271264e-02  2.9136709465354329e+00
  1.5303254346352730e+00 -8.8874088944815810e-01 -2.8363744233486143e-01 -5.0328048933168439e-02 -1.6660375272752255e+00
 -1.6738368803260140e+00 -4.3745357094621418e-01 -2.9574979464715989e-01 -7.5827999187968498e-01  4.2411188594569715e-01
 -2.3146002851528014e+00 -1.3027877358032542e+00  3.8878457844776482e-01  1.3921879982584873e-01 -6.1306909694214907e-02
  8.5628323929704475e-01  2.7774394213967213e-01  1.7631369082052366e+00  1.4884550953551041e+00  6.1706146901076453e-02
  5.0669458165276855e-02 -1.8722641581864485e-01  5.5372882792016265e-01 -6.3375077133208446e-02 -3.7220782776462136e-01
 -1.3931860961540232e-01 -2.1017986484358717e-01  8.4516556676431168e-02 -8.2624376656699150e-01 -6.9691276447468797e-01
  5.1735293427563112e-02 -9.8867810526454214e-02 -2.7838924753517835e-01  3.4967605834941057e-01 -9.8243114154233702e-01
 -2.0571670804799425e-01  5.4141580036136205e-01  1.5256731604621288e-01 -4.0356422779782110e-02  4.1416114196086007e-01
  4.0202145237695142e-01  1.2764959389628614e+00  7.1522625675428408e-01  1.0999305694544781e-01  4.4086438961578100e-01
  2.5549491753642806e-01  7.5772060653223083e-01  1.0531696278982832e+00  7.8384500478689700e-01  2.1256335232256074e-01
  5.9495580014506821e-01  7.0932028442292627e-02  1.3347239507749693e+00  1.4158261237762573e+00  4.9763669593986359e-01
  8.6860699270546959e-02 -6.6356315323230827e-03 -4.5580524338526773e-01  3.1898255524092400e-01 -1.6929658023660976e-01
 -8.6784103899671772e-01  1.8207671079050103e-01  7.9922792379092178e-01 -4.2071154465482496e-01  1.6591736550570833e+00
  7.7348377890392506e-01 -4.2632978214173378e-01 -1.6930507760193647e-01 -5.5776743843067855e-03 -8.5002791841978409e-01
 -5.5174426424550305e-01 -2.0993535529033416e+00 -1.7188235212306333e+00 -4.2029584922556129e-01 -2.8321207968136981e-02
 -3.4697573600614240e-01 -1.6631124923871914e+00 -3.1181510138274762e+00 -9.0431814296252544e-01 -8.1992661484306284e-02
 -3.3290685356846517e-01 -1.3621411430009722e+00 -5.8585437218340597e-01 -1.7281130400452227e-01  2.4207664174223165e-01
 -1.9117714176702161e-02  1.1899971213824365e+00  2.3681857397073003e-01 -1.2571790445259756e-01  5.0089108470158372e-01
  2.8901770237967628e-01 -9.4146068639464814e-02  3.4855899235084493e+00  2.0350405855983702e+00  1.4607866392149953e+00
 -5.1224709129147739e-01 -2.4222582216154695e-01 -3.1070511617687463e-01 -5.6959980388828590e-01 -1.5886822024544962e+00
 -2.3127116135792303e-01 -2.7939554819187484e-01  1.2114376945980886e-01  1.5936220692136838e-01 -5.2946152012120606e-02
 -5.1092955560984832e-01 -3.4826665599532991e-01  1.2164568208457460e-01  3.3486545897558406e-01  3.1928275703876224e-01
  1.0517040956916297e+00  1.0260113003085181e+00  1.0193814130131473e-01  5.1098589462608235e-01  2.0160020772867626e-01
  1.7553737342522573e-02  2.2950538692950406e+00  2.0003110495322050e+00  1.0480743283164631e+00  3.0108547179262568e-01
  4.2025392810786238e-01  7.9936036171217451e-01  4.0557045842256656e-01  1.2412309981277616e+00  1.3998618364855142e-01
  6.4075714720421795e-01  4.2155542652207467e-01  1.0153744842652670e+00  2.8606713861997513e-01  2.1960075340378342e+00
  3.4131255671088279e-01  4.1149272427210959e-01 -5.9204363944527535e-02  2.8534775970316623e-01 -6.8509079270302209e-01
  1.2703684673150075e+00 -1.2437905639393942e-01  6.8669607277097899e-01  1.7904649376493273e-01  1.2985957988218306e+00
 -1.5626412770057598e+00  1.6636895619481749e+00 -2.2840762791321279e-01  1.7051945685309988e-02 -3.8914863595557170e-01
  5.1825573875063591e-01 -3.8613334107265800e+00 -7.9656416468098179e-01 -1.6504537504064880e+00 -5.4510304383077912e-01
 -4.8922789546797046e-01  4.8549659415615221e-01 -5.2118674101149836e+00 -2.9611100440875617e+00 -2.5481068600812748e+00
  2.5786431468142155e+00  2.8039980720114954e+00  1.1583381924576486e-01  4.7427623385968900e+00 -2.2225899532119779e+00
 -4.8476124101232543e-01  4.7820025540067945e+00  4.0572061367747665e+00 -3.8158782226730636e-01  3.3012115182934849e+00
 -1.5502714741456014e+00  4.5723608682060046e-01  1.0065316005868681e+00  3.5634063597854038e-01 -4.8856250296463486e+00
 -1.2744973019507029e+00 -9.0665945018135341e-01 -8.8409713320914829e-01  6.6914655268192291e-02 -2.1517298611224760e+00
 -8.9058405400700735e-01  1.7888391880207735e+00 -1.2250613715865821e+00 -1.1064889227046049e-01  2.4099691425512901e+00
  7.5453847149174180e-01 -1.0992200700726116e+00  2.8478318605298796e+00 -1.0094706038065029e+00  3.0182178983249841e-01
  1.8273846321267229e+00  2.5713451600736335e+00 -5.9246549803972925e-01  1.9549160993778969e+00 -3.9793585845281543e-01
  1.2046966333508617e+00 -3.2463024433059218e-01  1.5225846872499460e+00 -1.1619335002533262e+00  1.9068643729541179e-01
 -5.1617022435003879e-02  8.9593494956465491e-01 -1.6163372018688165e+00 -1.7265473331291901e+00 -2.7436141825518021e+00
 -5.8902281333371320e-01  1.1068289139265568e+00  2.3830299374228758e+00 -1.7774830758795588e+00 -3.3511631902456429e-03
 -1.5438363788211262e+00 -7.2846593265350634e-01  8.9677839312217689e-01  2.4339670034028833e+00 -2.2853670600088662e+00
  1.7064354873519960e+00  3.9655805904920811e+00 -2.1614589930234160e+00  1.4200989153003096e+00  3.9763048062868549e+00
 -6.7618862905874266e-01 -9.3599779429609953e-01 -2.6090996490628982e+00 -2.5540137939455008e+00 -5.6268934205954846e-01
  2.1419292344750840e+00 -2.4191499248127002e+00 -2.0258418339092259e+00  1.9203706540092469e+00 -3.4540644848769375e+00
 -2.9261238450164191e+00 -4.1497393709080299e-01 -2.3195564573520642e+00 -3.4390903033241784e+00 -2.6788335193673163e+00
  6.6630961715551962e-01  5.9434752932091328e-02  2.0518487296141643e+00 -2.5060782627928466e+00 -1.0069271071607471e+00
  3.2871161666439548e+00  4.4650106103995313e-01  7.9207738432205588e-01 -1.2549968513252452e+00 -1.3503058958132517e+00
  2.1892476571723138e+00 -2.8066710137818518e-01 -1.4810164722580339e+00 -1.6267976577830439e+00  5.6909215251337741e-01
 -1.8942988007418182e-01 -6.3910702787362617e-01 -1.0052400415140710e+00  7.4470621325536968e-01 -5.7846829503645836e-01
  1.5094653831255158e+00 -8.8073517899391973e-01 -5.3613600420040441e-01  1.5832747134135161e+00  4.8369990482893854e-01
  3.5992441622805416e-01  7.9323224737652254e-01 -1.1346993559265095e+00  5.0281998863670907e-02  1.7730369238264529e+00
  2.5386287690264453e-01  1.0435880768328900e+00 -1.1972970812507526e+00 -7.7931812505277875e-01  1.7271297170664917e+00
 -5.9464449222025451e-01 -6.7498336123037461e-01 -5.3469929698994179e-01 -3.5047469321378344e-01  6.7531026745513612e-01
  1.2491577921480888e+00 -3.8362871580517321e-02 -6.5954219879921538e-01  8.2524050197493892e-01 -1.2409538117201322e+00
  1.2573836097861877e+00  2.1687458350449749e+00  2.0417436051877758e-01 -3.5410512899812829e-01  6.1663689387208365e-01
 -6.4705126211211450e-01 -1.1275512263599752e-01  6.7060379879067877e-01 -3.6670138132518559e-01 -3.1471728400612164e-01
  4.8403727066136071e-01 -1.2227066220758047e+00  1.6067005698822241e+00  2.6970496787239782e+00  1.6289679560143213e+00
 -1.1774353564957210e+00 -1.4962535686526337e+00  6.7110991254713781e-01 -6.4065996493126409e-01 -3.7306788640520949e-01
  1.5657183419266403e+00 -2.0110902704550426e+00 -1.0153604234432692e+00  1.7060878076226800e+00 -1.1910330082732721e+00
 -1.1093798816496214e+00  3.2498499842255342e+00 -1.3994571921418810e+00 -1.0864399823576463e+00 -1.1665300169839021e-02
  8.0012970884531853e-01 -3.0961497654151304e-01 -4.5293084305320530e-02 -2.1924404997560600e+00 -7.0412029239869867e-01
  6.8773456116281295e-01 -1.1403275141890958e+00 -3.0483183446607531e-01  2.4828924678047715e-01 -2.6060628139505013e+00
 -2.5890890056468265e+00 -2.2679067366147265e-01  1.9059820938539218e-01 -2.0338309310072911e-01 -1.0505915726518369e+00
  1.8371926514344352e+00  8.3310380624952529e-01 -6.7870424039154287e-01  4.7003353667151693e-01  4.5633637924029391e-01
  1.7471496110722839e-01  4.3518709026785984e-01  5.0650103829401871e-01  4.5316195472959286e-02  1.8874076783782101e-01
  4.9732583092934834e-01  6.8544295824473866e-01 -1.3118241915976512e+00  2.1616619142338322e-01  6.4956357380593133e-01
 -9.2055185143680518e-01 -4.5129519260519008e-01  2.7830626837143690e-01 -2.1999934975029305e+00 -1.1976826914618499e+00
  1.8311679674897618e-01 -4.5838679313309427e-01  1.9200458160012521e+00  1.7200149355049847e+00  9.9265757297823853e-01
  1.3117768936974947e+00  2.2415329266452666e-01 -8.9046240739961746e-01  1.6852305431502002e+00  2.3288503039399830e+00
  8.6828946519155181e-01  1.5339291188558661e+00  4.0192247319807883e-01 -2.3460994139054492e-01 -8.8086035660374784e-01
  6.7785832143145808e-01 -5.7206081787893481e-01  9.3946163202107158e-01  7.4148596759230401e-01 -9.1358457810042637e-01
  1.1445494780636623e+00  3.2818800657271576e+00  2.8122316115917556e+00  1.3912002257469851e+00 -4.1354580185867462e-02
  8.6161732825833326e-01 -1.2437291661063632e+00  1.6868116556300827e+00  2.3397126581452312e+00  1.0283078287427827e+00
  5.7034464370646276e-01  2.0135144322266711e+00 -6.1470367138290194e-01  2.4660054595706269e+00  4.5967669435526943e+00
  4.5725124134119710e-01  5.2079578918614189e-01  5.3896204721053209e-01 -2.5276580654844061e-01 -1.6642714677759578e+00
  3.0039264261095013e+00  6.7581296745333930e-01  1.9775050787865212e+00 -1.1724626255930843e+00 -1.0956151866051664e+00
 -1.1471173098119536e+00 -1.2220349978524609e+00 -2.6819914160846565e+00 -2.0153234092057914e-01  1.6464971636315795e+00
 -6.3147188482156080e-01  7.1768854607655275e-01  1.5477595698398545e+00  2.8450556927452908e-01  2.6015963408210041e-01
  1.3119371397636712e+00 -2.1115167302617288e-01 -5.5846822490701742e-01  2.4257572116259780e+00  4.2013206999922659e-01
  5.0500638759890393e-01 -5.1354827391151048e-02 -1.6212211553018996e-02 -1.2881024350072323e+00  6.9402013333365176e-01
 -1.4815579932997025e-01  1.4480587181281521e+00 -1.2123897860622037e+00 -5.6340358905324139e-01 -1.6013852832342135e-01
 -1.9361542997357901e+00 -1.4314459921313301e+00  6.3454215163891092e-01 -8.3609255553889028e-01  3.9491393065012037e-03
 -9.1386529470808409e-01 -1.2166622706227486e+00 -1.8991422261483990e+00 -2.6063614481856945e-01 -1.7500537992159764e+00
  1.5864489648793967e-01 -9.7554383386730947e-02 -1.8366422541334941e+00 -1.2749077668227642e+00 -9.6716700631030506e-01
 -8.9143812931919797e-01 -5.1180167490987305e-02  1.7033331267116569e+00 -2.0460465563152184e+00  3.1293640346541451e-01
  5.4301248560616955e-01 -1.4719763590802586e+00 -3.4812196093259296e-01  1.4470051874517544e+00  1.7398478044242438e-01
 -6.1861898233723878e-01 -4.8030209616131287e+00  1.1748175838624775e-01 -7.9213594361785677e-01  2.2368953361212967e+00
  5.8367017863952242e-01  5.9550774944489149e-01 -2.9490536395475431e+00  6.8969235457717559e-01 -1.3117230911482514e+00
  4.4298618174031823e-01  2.8048653089595064e+00  2.2442124892413631e+00 -4.1534953814860955e+00 -5.4979203265248233e-01
  1.1220308533915446e+00 -3.0106430856045634e+00 -1.7967637033102584e+00  1.2932288433082739e-01  4.8405422430268086e-01
 -2.1544042031099578e-01  1.4330216986890916e+00  4.6879891607532542e-01  2.8008154343079035e+00  1.1528648533541865e+00
 -1.7599907055481712e-01  1.2305549120314907e-01 -3.1277556742465007e-01  7.3131145110767015e-01 -2.6140223499071968e-01
  1.4713747619885331e-01 -2.3120667840370035e-01 -2.9040293390468608e-01  2.8256406226495345e-01 -1.0430838600005456e+00
 -1.0730621161070846e+00  1.5518788079856238e-01  2.4314418214309796e-02 -4.4244177560738623e-01  7.2895528216698946e-01
 -1.2232390833586280e+00 -2.1531692355263665e-01  2.5824927797604635e-01  4.2992092663739756e-01 -1.4541945700363917e-01
  6.4789899032793830e-01  5.4759932541123213e-01  2.0635207850082828e+00  2.4817502097493360e-01  2.4418250683219189e-01
  5.6138143234413718e-01  2.0981695791505833e-01  1.1483108875748562e+00  1.5126597029086257e+00  7.3239993624784683e-01
  4.3826064015990207e-01  7.6325364061857970e-01 -2.4372530818351751e-01  1.8517864888217410e+00  2.1067870075536312e+00
  1.1286014980536008e-01  1.7378474211682104e-01 -1.1306574624513392e-02 -8.8105606494620836e-01  2.9051568746995837e-01
 -1.3649727026712988e-01 -1.4878068815421432e+00  3.0868285594573663e-01  1.0816776505204322e+00 -1.2280424118232340e+00
  2.1918643916157237e+00  1.1246718275658516e+00 -9.3617104706178056e-01 -3.2550763223450563e-01  5.2143719607296662e-02
 -1.5248012474399633e+00 -8.5710661350179507e-01 -3.1125699897515151e+00 -2.0658833625659723e+00 -7.2041657407747817e-01
  1.9050098235621572e-02 -5.4542582910651727e-01 -2.0998653108614551e+00 -4.7941171859707206e+00 -4.4714817624812864e-01
 -3.2648310195234731e-02  9.1251432365856289e-01 -1.0039718560318533e-01  9.5195774818877510e-01 -1.1654539071746921e+00
  5.2062627098181236e-01 -6.3281669666843154e-01  3.6152143575262912e+00  1.9816726036399501e-01  1.8221348026209068e+00
  2.2483943922850624e-01 -4.7532248127680843e-01 -2.7727871383397501e-01 -6.7751474782437526e-01 -1.5309248367114829e+00
 -6.2660757282818569e-01 -4.8915892303890640e-01  4.2677845571384576e-01  2.9392881701580131e-01 -1.6345692939119516e-01
 -5.1449470765878935e-01  1.1425415312596998e-02 -8.7604588080291101e-01  8.5681207065534126e-01  3.3958719325817410e-01
  9.7032212690836417e-01  6.6258798105852534e-01  8.1166310164501354e-01 -5.2684152748139113e-01  3.3452360499433714e-01
 -2.7147854232635765e-01  2.5711700198603786e+00  1.1311596834736868e+00  1.3724179277186903e+00  2.3747415584758302e-01
  3.9147222271830862e-01  9.5564226733487567e-01  5.0819267036584037e-01  7.7036280697642923e-01  1.9938012686223683e-01
  8.1175332345476114e-01  2.1886571383587167e-01  1.2602490280689067e+00  7.5529623842949434e-01  2.1422405732769487e+00
  3.5044880592460581e-01  7.7610194748868144e-01 -1.5752542863433880e-01  5.4224219907412274e-01 -1.5478053672529768e-01
  2.4109190265443257e+00  3.6030021581793470e-02  1.9284017465949024e+00 -4.1000379911362955e-01  1.8583793080762754e+00
 -6.1671525939718919e-01  2.7226459627136776e+00 -5.6352385554614060e-01  1.4715327699191114e+00 -6.6872632117926201e-01
  1.1709016058809623e+00 -3.4720169759425445e+00  1.5656028779241780e+00 -1.8297522405846207e+00  8.4206720872108853e-01
 -6.8795766996922703e-01  1.0593533525777503e+00 -5.8160605285442379e+00 -1.2227401800927460e+00 -3.0803152229480446e+00
  2.4036915882334142e-01  5.0852298755489755e-01  2.3626760988690876e-02  2.2609118349098480e+00 -3.9757993826431459e+00
  5.6272274719703574e-01 -1.5323064361382421e-01 -2.9203028872884715e+00 -4.8864582251829916e+00  7.4337270944488409e-01
 -1.7170285025230827e+00 -4.7468162900813127e-01  1.5042118888777622e-01 -4.8743687893193055e-01 -1.5788685725760843e+00
  2.0481202808288117e+00 -1.8891788457033893e+00  7.3856246177203566e-01  6.3284305805223084e-01 -3.2794515918067191e-01
 -1.2735661886260345e+00  1.2332650671555712e+00 -1.4007743310328760e+00  8.7987281256975081e-01 -1.5418506167061423e+00
 -4.1883755392973399e-01  1.3965897467826380e+00  1.4640046595714011e+00 -1.4846680224196671e+00  1.4647187486154678e+00
 -6.4288312565531669e-01 -6.5611309555879416e-01 -2.2779161509060941e-01 -6.4429252351297350e-01 -6.1766541856519641e-01
  4.4681248414116581e-01 -3.6448016612022229e+00 -4.5324172252998096e+00  2.4208221267025465e-01 -9.2386749158060866e-01
  9.6708540717738067e-01  1.3825798742631363e+00  4.2089325316783288e-01 -1.2700914052245480e+00  6.1998693718663844e-01
  1.3512983535974854e-01  1.4921996295498978e+00  2.9111992462759986e+00  3.2068491840595925e-01  5.9243726604449876e-01
  4.7103627901904304e+00 -4.5374811916417457e-02  6.0944010654831615e-01  2.3324373905324336e+00  9.9223834402637294e+00
 -1.1735886728183687e-01 -6.0689237391319466e+00 -1.0130405417430666e+00 -8.7377792365076346e-01  2.4951463232573374e+00
  3.0652360404319552e+00 -3.0041682739142743e+00 -4.4982300926119478e-01 -4.6039567034099491e+00 -4.3749756367933657e+00
 -3.7265902469735934e-01 -1.0157648633626195e+00  4.9994047510608652e-01 -1.7018563912429272e+00 -8.5758568987989747e-01
  1.4022994816605205e+00 -1.8640859583501879e+00 -3.1726863592603838e+00  2.1279184103621098e+00 -1.0091179728597126e+00
 -2.2455370998286526e+00 -3.3285235060445189e+00  8.9011270984815383e-01 -1.1573125139775109e+00  2.8663450117583444e-01
  1.4450973476068611e+00  1.7359976854140768e-01 -1.2467120289524019e+00  1.3782821577899824e+00 -9.3871147740134475e-01
 -2.9622426897794263e-01  1.5003502420752284e+00 -6.2378776268565161e-01  2.5117393449143322e-01 -6.2045436530866027e-02
 -9.0730579341518514e-01 -2.5335902158869672e-01 -6.6189380277228338e-01 -6.5636897511490133e-01  2.1141418216325860e+00
 -1.2884765642889988e+00 -1.8564242384774445e+00  2.0093722188313343e+00 -1.3040858087238121e+00 -2.5017929797604666e-01
 -8.0502595497591756e-01 -2.7219677906920481e-01 -1.7306805866552732e-01 -8.6664398692125033e-01 -1.1862257271060344e+00
 -1.1560320451962980e+00  1.6013298716460440e+00 -3.5671959918965968e-01  2.2509804565214786e-01 -1.6569153134280157e-01
  9.8506668827121757e-01  1.3449597991601649e+00  1.0235507177339684e+00  5.3174056168779771e-01 -2.6651931774046655e-01
  1.5255346463446440e+00 -1.2886414318654715e-01  9.8276746566864404e-01  1.6760918464678980e+00  1.7189865834270677e+00
 -3.8329267754980023e-01  3.3187559806855660e-01  7.6112178877892802e+00  1.7648530709429906e+00 -4.2089457480557257e+00
  2.6197972681430883e+00 -1.1869682378926978e+00  3.7032951242960266e-01  3.2752634724379277e+00 -2.6550470870356548e+00
 -1.2006270139701769e+00  1.7940297546273314e+00 -1.7425380038862990e+00 -1.4588867823019989e+00  2.3307064194041232e+00
 -2.4880371863168875e+00 -5.0304861539416379e-03  1.1861853196339354e+00 -6.7722890843708683e-01 -1.9955688875676101e+00
  8.6998931261336665e-01  2.3232128129897092e+00 -1.5515666822672642e+00 -5.4903024729611616e-01 -2.4943055423344163e-01
  1.9252094018166621e-01 -1.3573949259889999e+00  5.5276744831274982e-01  3.6282529888049453e-01 -6.7952169094708381e-01
  5.7633292015221826e-01  1.5626123299919767e+00  5.9312315764018397e-01  7.6994532487103129e-01  1.1452986812512620e+00
  1.1753888222628177e+00  7.5180824019568604e-01  1.0392485082459748e+00  1.3729080763723931e+00  8.1454526383993198e-01
  1.8612352999377890e+00  2.3491965162884867e+00 -6.8668372150659707e-01 -2.0525808317893883e+00  5.7847371739958198e-01
  7.1750022312869532e-01 -1.6273137852672903e-01  1.6498050981881818e-01 -9.2463973732853333e-01  3.2692568377345697e+00
  2.0304738532853981e+00  2.6854439482801951e+00  1.7066750310663821e+00  1.8500988006949743e+00 -1.6311303956324537e+00
  2.2332889332886419e+00  2.4607360025509601e+00  2.2873963880872452e+00  1.7330884792165762e+00  1.4738550300112436e+00
 -4.4145438941057336e-01 -2.1517425826811936e+00  5.4148109802606248e-01 -1.7214827501489935e+00  1.2868772407403526e+00
  9.4707863683184712e-01 -2.3406460888957668e+00  1.2323516928856808e+00  3.2255164559059892e+00  2.2442628733575702e+00
 -1.2651432411621499e-01 -5.7144809302799615e-01  5.8346048775442227e-01 -1.6991918688746099e+00  1.8733103006577672e+00
 -1.0943061423427025e+00 -3.5991716730160306e-01  2.9367631315999176e-01  2.5322788641244927e+00  5.3745274115424624e-01
  3.6934705576942095e+00  2.3674757968796598e+00 -1.6843541619684856e+00  7.4665854463357562e-01 -7.7071676751234008e-01
 -7.2696770413361556e-01 -1.6686645466943588e+00  2.0108695778030778e+00 -3.3773091145690159e-02  9.4875504455907844e-01
  1.9458862670267081e+00 -5.3974453082044338e-01  1.3803379598114569e+00  2.2324517024068200e+00 -4.8696143784786727e-01
  1.2490256976024767e+00  3.1809518711258988e-01  1.3381668130256519e-01 -3.6482315036775770e-01  1.5931971688726208e+00
 -9.9451412376959070e-01  7.2147919339840882e-02 -1.2123897860669217e+00  3.8801523370703217e-01 -1.4640216725386006e+00
  3.9751459424689983e-01 -8.2476196044603967e-01  5.4879674427007785e-01 -1.1916432207790137e+00 -4.3730797105181729e-01
 -7.8569840014279979e-01  1.9008781856121004e-01  3.1415625566859262e-01  9.9882666415180665e-01 -6.5806606284586877e-01
  7.6419509122632734e-02 -1.8320459551239558e+00 -1.2859899429068946e+00 -2.6048968185875765e-02  1.8742629896580745e+00
 -8.9143812932104538e-01 -6.8890881023146111e-02 -1.7429602320096276e+00 -2.2913048450657243e+00  1.2011921377460339e+00
  1.3556742645359066e+00 -2.5762060647110729e-01 -1.7796932858070158e-01  9.4063960734556495e-01 -2.9083673755220047e+00
  3.5587548886047671e-01 -2.0594925901721695e-01  1.1748175839079522e-01 -7.5447843194569586e-01 -8.8509305404562610e-01
 -2.4965575644091587e+00  1.9664562439418205e+00 -1.6796261388217033e+00  6.8969235457450395e-01 -5.4080436135628496e-01
  1.6809878971999588e+00 -3.6855295873565410e+00 -4.3050437906617844e-01 -3.3429782198080602e+00  5.9497618228635929e-01
 -4.6468994493603688e-01  6.4087833562099839e-01 -2.6744497948274102e+00  3.9785626995421808e-01 -3.5949043205012856e+00
 -9.9883683064511161e-02  3.1514939165283684e-01 -2.9521739579807988e+00 -1.8161159420165909e+00 -2.0700612318703415e+00
  3.0931925631236057e-01  9.9015762313387670e-02 -3.2304614117276177e-02  1.2707993482077597e+00  1.0573953537866929e+00
  1.2278303218892226e+00 -2.6204284602971206e-01 -3.9338380662821623e-02  1.5853118754106155e-01 -8.0686765639144475e-01
 -7.6027525771544546e-01 -2.2759433489475372e-01 -6.0198198635294053e-01 -1.4325933280907460e-01  2.3290420252638327e-01
 -2.1792686545334465e+00 -1.7587705942729031e+00 -1.3875078007248904e+00 -3.9815706496894965e-01 -1.4207678845487112e-01
  8.9507391744240078e-02 -1.6979959622233034e+00 -9.8556308993812536e-01 -1.4570169301365747e+00  1.6698828440526997e-01
 -2.6490678597907852e-03 -1.3543691403207381e-01  7.2147777912314037e-01  4.4323685774481358e-01 -9.2177910954720776e-02
  4.2783961579685559e-01  2.7903692669424204e-03 -3.6419299512867426e-01  1.6002993604078828e+00  1.1247315322044642e+00
 -3.8819963612726660e-02  2.9475479939710181e-01 -1.5493601669749448e-02 -3.2864340381770363e-01  1.0180288538005628e+00
  6.9981542547345699e-01 -1.4943693680673720e-02  1.0596775496977529e+00  9.2358740794474273e-02 -7.0692894204413004e-01
  4.0027572225740791e+00  2.7318202336074275e+00  1.0697030334456974e+00  7.3524889219626210e-01  8.3875524590209652e-02
 -4.4073935924317342e-01  2.9402720778064833e+00  1.6003566532076690e+00  1.3349952390425917e+00  5.3262434630696820e-01
  9.8822358077212860e-02 -5.5661376038438667e-02  2.4822738418453820e+00  8.2807157876828796e-01  1.7744410112894220e+00
 -4.5735482256085302e-01 -2.2307552170772738e-03 -1.6402039564654345e+00  2.5139678269867449e-01  8.4731890400771359e-01
 -2.8154942127217919e-01  2.3345796538371361e-01 -2.5670001336499837e-01 -7.5501310094416851e-02 -6.1620448474230338e-01
 -4.9130269419453754e-02  4.6834979566164048e-01 -3.5997235048689319e-02  1.8693658574833361e-01  7.8974471892434561e-01
  3.6921198698274815e-01 -8.9927811470889996e-01  7.3453062821095927e-01 -3.3629208296557300e-01  2.6629249524902221e-01
  4.9463315941314079e-01  8.5916064396255831e-01 -1.1274267267442983e+00  1.3666760754558557e-01 -4.7292744106282864e-01
  1.1444284909443603e-01 -1.0945651925385942e+00  3.9633081068264842e-01 -2.4573794595671183e-01 -2.9006557572238378e-01
  1.3590793131790763e-01 -1.9824379765555644e-01 -1.7171541349092103e+00  6.5220977762657550e-01 -2.0374639964080199e-01
 -6.2969237854997806e-01  3.5446498749287064e-01 -5.4945849783480938e-02 -2.1808857972347075e+00  8.3399367497883614e-01
  1.3857349901194338e-01 -2.1679815087558862e-01  4.3320462644315805e-01  4.4384506362000309e-01  3.3335603722063123e-01
  5.6571936741559048e-01  6.9066971160557955e-01 -1.2141200155683358e+00  9.4534736238660644e-01  3.0132804663918478e-01
 -1.9240371524888609e+00  7.1374340047243301e-01  1.2703714171260527e+00 -3.6048644994237256e-01  9.4951579220467630e-01
  6.9840498780689586e-01  1.9509975660902192e+00  2.9868777069311392e-01  1.4734460852874189e+00 -6.6210696510186934e-02
  6.1304044913313860e-01  2.1235399570919000e-01  2.6608476832124541e+00 -4.0913689691007793e-01  3.3064981384893599e+00
  2.4992805244091869e+00  2.3753145299393736e+00  3.2043273047236198e-01 -8.7012325207890573e-01  1.1281467411148238e+00
  1.8447697658871220e-01 -7.2677863572039314e-01 -1.2471886320302303e+00 -4.9397555825129302e-01 -2.7727948805995695e-01
  1.6372179512706504e+00 -1.8167846553462823e+00 -1.4116036949706086e+00  5.9315060226644789e-01 -8.8112231347997749e-01
  7.0421710329661380e-02  1.0591913040899037e+00 -1.8999546139466474e+00 -1.1272359447405051e+00  3.9170791867471166e+00
  1.8855135371849201e+00 -1.4669155994309948e+00 -2.0050540293349073e-01  3.9552388387983228e+00  1.1099107002094115e+00
  2.0058043119139484e+00 -5.5549119532153668e-01 -1.2678912153050170e+00 -2.1632015754243739e+00 -4.8968742918037833e+00
 -2.4953854262158757e+00  5.0774725965323313e+00  6.7525482904602541e-01 -1.2860659449494136e+00 -4.0918534036933423e+00
 -2.1703496503164388e+00 -1.3370049375630515e+00  3.0958636308439793e+00  1.5619553380056459e+00  5.2539302242528318e-01
 -6.1262882031438437e-01 -7.7060412909509068e-01 -3.0163756031090543e+00 -6.0904963673465318e-01  2.6485588002235545e+00
 -2.5235342877886566e+00 -6.3266273058698346e+00  1.7254610659774698e+00 -1.8338221489334501e+00 -5.0165652965389427e+00
  3.4093129927555310e-01 -3.0008733108150665e-02 -7.2734874303426977e-01 -3.7167299741026909e+00 -5.8551366055389735e+00
 -4.0276274221040467e+00 -3.7604796302209706e+00 -6.1864033160946619e-01  1.7027622458542524e-01 -7.9577751677343258e+00
  1.2636143181543957e+00  3.2565838282781101e+00 -1.8108254747767205e-01 -1.8936211654848876e+00 -3.1576628596201317e-01
 -1.2239371978366491e+00  1.9745405227096811e+00  2.2007374628603884e+00 -1.6461312163551156e+00 -2.5009145134697519e-01
 -9.2682549910335865e-01  5.5420660046020043e-01  1.9175499281892971e-01 -6.4437623990772863e-01 -1.4273152960907964e+00
 -3.7201433237831338e-01 -1.2817226720807184e+00  1.1032555706497646e+00 -1.2005738274206852e+00 -2.2976251294692247e+00
 -7.2549124452439173e-01  8.0236337113109357e-01  6.1861483389031946e-01 -1.1635402142674751e+00 -7.0006848782582765e-01
  1.4028896984641506e+00  7.9878281513526872e-01 -1.8259845384670825e-01  5.8134791066900959e-01 -1.7654818020616871e+00
 -3.0867167535214186e+00 -9.4968279675947542e-01 -1.7163518450337278e-01  3.2584535077052976e+00  2.2255388465245005e+00
 -2.5543882229425678e+00 -3.4968743114089946e+00  1.3746589955105719e+00  2.5145478783631461e+00  3.3353374934873727e+00
  2.0657358635807270e+00 -4.3089736844129156e-01  1.0960724688162529e+00 -1.3403243219977412e-01  1.7009534651687090e+00
  1.7164446728643981e+00  5.0487523438340531e+00 -4.4337783653119658e+00 -3.1352117610711190e+00  6.0643119966575796e+00
  4.2541500918268866e+00  5.0249175730760953e-01  2.5565140610497110e+00 -8.1965967188989630e-01  1.7175972225792009e+00
 -8.9643436298956658e-01  1.3449470135174124e-01  4.3104350239798350e-01 -3.4936402308142078e-01 -2.7002063375326202e-01
  3.5411430165751767e-01 -4.7510176722398683e+00  3.7673529209723711e-01  1.9360796159339770e+00 -8.3887280327847691e-01
 -5.4198178432457667e-01  4.5888943871773635e-01  1.8511022881291939e-01 -5.3228974528141748e-01  1.2490749241560479e+00
  1.0348757824371049e+00 -5.6338867650740099e-01  1.5105410256350464e+00  7.4124355645142348e-01 -1.7072302764725293e+00
 -7.2028252682051175e-01  6.2669659306739689e-01  4.0616292977205148e-02  8.3517127044492545e-01  6.9298895501144564e-01
 -9.3290960111716004e-01 -1.3745885455454072e+00  5.0514807084952906e-01  7.5615898789568803e-01 -2.0053990232842036e+00
 -1.1723881540742820e-01  2.0392349377390815e+00 -5.0588227919959650e-01 -6.2190946091888577e-01  2.6265738899130753e-02
  1.2024645912564642e+00 -7.0258301306764492e-01  4.3535281839666169e+00  1.1052071061228332e+00  1.9432626712968677e+00
  3.0950409950791880e-01  3.7820475565985001e-02 -1.4186202449423622e+00  6.4189242518907008e+00  2.1489891477278888e+00
  1.7948175532170332e+00  2.2991863313109917e-01 -1.6327383296578550e+00 -5.7973445199252804e-01  1.3459828476667326e+00
  1.6436375645634200e+00  9.1529608059063960e-01  5.3344404703636883e-03 -6.8759123686659018e-01 -2.0278649731084650e+00
  8.2738081250081450e+00  3.2722141716509441e+00  9.4501066239524789e-01 -3.4467967129651811e-01 -5.1365071093094472e-01
 -3.2159364794684286e-02  6.9987141140313724e-01  1.4172653348846325e+00  6.6994102147017998e-01 -3.3794062380906098e-01
  1.6357702590340348e+00  1.5689400969138885e+00 -2.1951035076443759e-01 -7.9936668232528518e-01  1.7951368494522768e-01
 -9.3144726338535833e-01  3.8886549573308904e-01 -6.0187941172784365e-01 -2.0469227800970202e+00  1.4832226375943947e-01
 -4.1238545591573939e-01 -8.8808860578041049e-02 -3.6062284328951866e-02  7.4639324125963080e-02 -4.6817772829680848e-01
  6.3323817065592891e-01  6.8634960227043962e-02  1.4229266027051892e+00 -2.3325367011136167e-01  5.6389703242773015e-01
  9.9043553438355048e-01  5.0538210660988625e-01 -3.4011649768063990e-01  1.3692251273031957e+00  1.6246981078525669e-01
  3.5134934044596289e-01  5.9076515578800581e-01 -4.5848215897228783e-01 -6.9811818697162664e-01  5.7260435595123838e-01
 -1.9779623158605564e-01  1.0620083346339702e+00  7.0360066433148916e-01  4.4948277071836173e-01 -2.4675347467850273e-02
  6.4386786658781148e-01 -1.8075018986003655e-01  1.0164650169562925e+00  7.1503506009526063e-01 -2.2520975236997742e-01
  1.9308298304390092e-01  3.2025799031089264e-02  6.5167534843970198e-02 -6.1475100837479690e-01  8.8082428621393660e-01
 -2.2258190533057132e-01 -2.2794647310835714e-01 -5.1650225390824289e-01  1.7577564269018930e-01  5.9625227710457018e-01
 -4.4490436162845981e-01 -4.0938691869371269e-01  1.8697036037315371e+00 -1.0497956397011308e+00  3.4774393144743510e-01
 -1.0058580997239002e+00  8.2515294333109068e-01  7.9238381197768604e-01  1.6136765937912116e+00 -8.4680172143231403e-01
  3.9537724460527190e-01 -3.4619441005227980e-01  1.5728319924008360e+00  9.4740546468796083e-01  2.3024626058617486e+00
 -1.6762686820625469e-02  7.6439435175440773e-02  2.6527377120446571e-01  6.2784291865772102e-01 -4.2724067551886225e-01
 -8.6345252437115383e-02  2.3137586484445402e-02 -1.4454322572837858e-01 -5.0228349190907440e-01 -1.2579344676490711e-01
 -7.9885588207743802e-02 -4.1643586586729242e-01  6.4929675884732307e-02 -2.4312776746687703e-01 -8.5112988088047370e-01
 -7.5797693467728422e-01  2.6699295081847407e-01 -3.4443068756323636e-01  6.0028257646710763e-02 -1.0622747722529732e-01
 -3.3977443971881138e-01 -8.0027958086601814e-01  4.3200733353027160e-01 -1.5582708200538392e-02 -2.9526319565997126e-02
  7.1311167562312941e-02  3.6184033982447261e-01  2.5558517404717374e-02  1.9454350644132234e-01  5.1399636005710403e-02
 -5.0147090596075874e-02  2.3652965547457871e-01  9.3211988166707460e-01  1.6142302027301159e-01  3.9095888427544750e-01
  7.0101089732610145e-02 -1.7084220974328993e-02  2.2677425798552506e-01  6.9209158811468385e-01  1.7105675337939075e-01
  2.9985660063693537e-01  3.9109118575636503e-01 -1.0699647356556140e-01  5.1702159279287385e-01  1.9266263444581648e+00
  9.4184280593508385e-01  3.4751834131329529e-01  3.4588887649718680e-01 -5.6136696408357112e-02  3.4187533203432591e-01
  1.1011172106735456e+00  9.9181933563428837e-01 -7.7445044568772436e-03  2.6679395124181782e-01 -2.7636303918917346e-02
  8.2654349331229143e-02  3.3276513826290133e-01  1.0538021951396574e+00 -4.2546334281315634e-01 -1.2833260210462542e-02
 -1.0107405412406312e-01 -4.2570397816576167e-01  1.6117587236926822e-01 -4.0062191762834765e-02 -1.1179588263964954e-01
 -1.4135273666833362e-01 -3.2155330738413612e-01 -1.7289541428038668e-01 -5.1261342544908572e-01  6.1636133023627870e-01
 -1.8352442404048389e-01 -8.7371413354929955e-02  5.4669052883905778e-02  4.8349158385266389e-01 -5.8024324415433337e-01
  9.4479859532490296e-01 -3.4885945531582058e-02  1.5146205775577010e-01  7.4827514080585011e-01  1.1999460813069409e+00
  1.8123793649755771e-01  2.1919466097040785e-01  2.6670753176644042e-02  1.5859709800165497e-01  6.3491795928437145e-01
  5.8393886114228710e-01  4.8670455361011755e-01  2.2612473660386778e-01  6.9400016596875849e-02  2.1646151957471185e-01
  7.0682965747567694e-01  5.0287096636981188e-01  8.0646615213762018e-01 -1.0209834008599938e-01 -1.8563323363288746e-02
 -4.7938165371946916e-02 -2.8727517035247407e-01 -5.6355846535264842e-01  8.3554519138709538e-02 -4.7423742765069177e-01
  1.8079615466395599e-01  1.7801803615402945e-01  6.7175915066163938e-02 -4.8109117831572057e-01  1.0820225131716843e+00
 -1.0993558091698992e+00  3.5890424584934688e-02 -2.4250200766450172e-01 -1.4455167109729885e+00 -2.0256675445345191e+00
 -2.0329645702686006e-01 -1.3470647220361505e+00  7.0404799834098586e-02 -2.9605194285968739e-01 -1.6690425173244092e+00
 -2.0769782370177170e+00 -5.3157787855017968e-01  1.2807949061032673e+00 -1.4963268328981485e+00 -7.9836634646227367e-02
 -2.5514816334677448e-01  3.5515401369620747e-01 -4.6473219653306375e-01  8.7217688425022288e-01  2.8800976862885364e-01
  1.1623354579833745e-01  1.6161304615422409e+00  2.7957277428100458e-01 -4.0673318082825638e-01  2.0947458399632524e-01
  1.7674371116552265e+00 -9.1344175119894544e-01  1.4478078013277127e+00  5.9367475183159524e-01 -1.6755321360442110e-01
 -6.3489447627807749e-01  1.7920762493058646e+00 -6.7495008134079626e-01  1.0827332498023949e+00 -4.0674920793741576e-02
 -1.6385193316207936e-01  9.2228285720949543e-01  2.2159209910319362e+00 -2.5337971544074591e+00  9.9584355903209598e-01
 -2.6906857303286813e-01  2.2164857056717580e-01 -1.9613077448108243e+00  2.0319794488081016e+00 -2.0537878041695024e+00
 -4.3400005448833667e-01 -2.6521875742765699e-01  1.8482510963338861e-02 -3.1553127156679466e+00  1.3252739570350514e+00
  2.3159191113947486e-02 -9.1640500538539982e-01  3.4108712015083142e-02  7.3533060148650264e-01 -6.8682681095056068e+00
  1.2038006764057627e+00  9.3276124047201847e-01 -1.8944703618726635e+00  1.4896504366645846e-01  1.1617193616982924e-01
 -5.6368001768298654e+00  6.2409598069393724e-01  1.7104032546220083e+00 -8.5172916002522925e-01  6.1382322411763957e-01
 -8.2347435683495007e-02 -3.1905210413667646e+00 -3.1433750547485033e+00 -6.8806918782800608e-01  6.6423733564093368e-01
  4.3230411959618209e-01  1.3139146584751416e-01  9.2380067678082822e-02 -4.1700687791938718e-01 -4.8178724838692233e-01
  7.8857709073915316e-01  5.4974974085034489e-01  1.8632577904332948e-01 -1.1168958760596581e-01 -2.3074857604177623e-01
  6.7390560447870484e-01 -2.8157247810565877e-01 -2.7469533505097843e-03 -5.4711263400358234e-01  5.5989716918371757e-01
 -1.8839372716217362e-01 -1.4513834170145401e-01 -1.7532477109029969e+00  2.1651533525586331e-01  1.1314203441040860e-01
  3.5799165120960508e-01  1.6976337350876518e+00  1.8946930107869377e+00  2.5808083492776746e-01  1.1133886859097331e-01
 -3.6610874284532713e-01  3.4447545651071554e-01  2.1105383451233202e+00  1.5221439436018045e+00 -1.1335936911328304e+00
  6.0140866570179696e-03 -6.9338173379179580e-01 -1.1867965145066695e-01 -3.4857585415645431e-01  6.1249185560751584e-01
 -8.9900251436364442e-01 -1.1183905476159737e+00 -1.1765327915078956e+00  7.3563400339278306e-01  2.5618823008482998e+00
 -1.8651631873649421e-01 -1.0972303354677706e+00  1.1689509212938844e+00 -5.1589471767124451e-01  3.6800902494552368e-02
 -2.0946037339764167e-01  7.8717964019665487e-01  1.6105600085548986e+00 -6.8344168467697841e-01  8.8992155189788491e-01
  2.0853521444590495e-01  2.9341991669364376e-01  2.3839530372110858e+00  2.8039798041185122e+00 -1.0437375681329684e+00
 -2.0245097711479421e-01 -4.8224877456366499e-02 -4.9730826887809920e-01 -1.9504987542597535e-01 -4.9590312789914037e-01
 -3.5823178967964964e-01 -9.1189812328778519e-01  4.0016764196060706e-01 -1.6288699733650991e-02 -4.1384940934302594e-01
 -7.3458152969061530e-01 -8.3368402758917171e-01 -8.0032568999788722e-01  8.7939658981174063e-01  1.0112474692698079e+00
 -3.4999233026975618e-01 -4.7854071292707090e-01 -3.6638223865529085e-01  6.6283044706865368e-01  4.3283002242452273e-01
 -6.2024715797784846e-01 -9.6859232979717769e-02  3.5622718557630151e-01  2.4201117730143551e-02 -1.1809990601704294e+00
  5.4670038515263286e-01 -3.0587953892280872e-01  3.7178269982157230e-02  9.7457708567893064e-01  4.4465272189214033e-02
 -8.0818528099279696e-01 -3.5462566820026353e-02  4.6508311493700660e-01  1.4887912670655035e-01  9.1137686267168760e-01
 -4.2095781652616182e-01 -5.2376710802136017e-02  1.4934765586311016e-01 -3.8315910609180137e-01  3.5380902393645952e-01
  1.9108904342912183e+00  5.1248106078986666e-01 -3.8953694659056026e-01 -1.0404961146164453e+00 -2.1846367739986494e-01
  3.1331328974031414e-01  1.2328959181791390e+00 -9.5632217071965897e-02 -5.5384920524084436e-01 -1.7071138648283934e+00
 -9.2546189530428447e-01 -5.4907354543609399e-02  4.3690459066567655e-03  2.1292448003312359e-01 -1.1951821745202196e+00
  2.8630217797546642e-01 -1.1838284996630927e-01 -1.6154146202886621e-01  9.6811531754310920e-01  6.5916804028071851e-01
  1.4657725159500679e-01  6.4386786658798201e-01 -1.2415911169767324e-01 -1.9467676626459918e-01  8.7538756754256042e-01
  4.7284627310975225e-01  2.3568808984917666e-01  3.2025799030549251e-02 -1.2541707014584791e-01  1.1412569827373331e-01
 -6.7485175743573222e-01 -6.6810968237994928e-01 -1.9504207232398230e-01 -1.7366667188693086e-01 -4.4879721414479434e-02
  1.5959354926967095e-01 -4.7133366845815061e-01 -8.1343603923063412e-01 -4.3591799022171873e-01 -6.0464382179366183e-01
  4.6226832429561826e-02  4.7346566069955642e-01 -9.3722652147422991e-01 -1.1097455260613316e+00 -5.6144702427446092e-01
 -4.4359588076652301e-01  1.8710158032941571e-02  4.1074025072618514e-01 -5.8176836361880646e-01 -2.1191660884588970e-01
  2.2218964200349234e-01 -1.0791949607386897e+00  3.1210153783091110e-02  8.9678581974680149e-01 -8.4073592269425035e-01
 -1.3177033761712380e+00 -1.1216725862357393e+00 -4.6842375098202638e-01 -1.6064995166207297e-01  4.4545184069350574e-01
  5.7253606651210021e-01  1.8210141535868729e-01 -1.6492745143578702e-01 -2.4274434402087763e-02 -3.7012608802728370e-01
  2.8258460573793442e-02  2.0392597252210294e+00  1.0467911944122363e+00 -4.6211645825553660e-01 -4.0670960791444194e-02
  1.0785314159095859e-01 -6.0303705699630816e-01 -4.0066091804599036e-01  3.4591403625242034e-01 -5.5034789870912038e-02
 -1.1345313906970428e-01  2.6389416428985391e-01 -8.3024829268890432e-01 -3.0190606383730278e-01  9.3966312301194210e-01
  1.4017585559912216e-01 -2.6511311203491331e-02  2.1772226967573341e-01  1.6433030933865833e-02  4.5332730902927554e-01
  7.5147349001571295e-01  1.0608327009757773e-01  1.5333928005160538e-01  3.6857488602361557e-02  6.1092663664688140e-01
  4.8417583591389135e-01 -1.1354661475189154e-03  2.1127491391723302e-01  2.0914590985666287e-01 -1.1904036846315168e-01
  1.1472109150721330e+00  7.3862337083088114e-01 -5.0288964292231242e-01  9.7534569867231913e-02 -4.4188203403178715e-03
 -2.7752724406932111e-01  4.5516553062309550e-01  4.1753868723140908e-02 -8.1485570020264797e-01  2.2860983992772810e-01
  2.8772120199760892e-01 -4.6197304191798905e-01  1.7814396415031899e+00  6.6399711542455897e-01 -1.7231843082947806e+00
 -6.8588694687505170e-02  7.7683801024318322e-05 -5.0483146499434184e-01  2.8784269957830499e-01 -7.0718924742371048e-01
 -1.7017435502937324e+00 -2.6830736034439839e-01 -1.1636167511023138e-02 -2.1386473924013727e-01 -5.1652900035398996e-01
 -1.3043028170783113e+00 -1.0051564303384430e+00  8.8420242843610303e-02  2.3761464707852120e-02 -2.5291596635922442e-01
  4.0009336666009143e-02 -2.8225224624908929e-01  2.3478450367503997e-01  2.5397400693605277e-01  6.3705335333219981e-01
  1.1012173433686012e-01  3.2301478574978382e-01 -1.6536760685250074e-01  1.0447118581226594e-01 -2.4727818798919610e-02
  1.1029232696002493e+00  4.3838149660477299e-01  4.9686017784427411e-01  1.0905240198216232e-01  1.4008495653506239e-01
  2.1392374455803329e-01  2.6194689698933793e-01  3.7939352631650891e-01 -1.9806406769610924e-01  2.9488900690465081e-01
  1.0359385479679095e-01  2.0273850639042279e-01  2.5042647550901442e-01  8.5136770875030177e-01 -2.6430831255438003e-01
  2.3898354697932800e-01 -4.0654008192777008e-02  3.4711077422793057e-02 -2.0395234751825964e-01  7.1561980790472690e-01
 -1.2384456364944973e-01  6.4583258443626335e-01 -6.6313054768180349e-02  2.0951211435318015e-01 -5.3910455993508855e-01
  1.0229540040261211e+00 -7.2957915268358897e-01  4.5250178305481414e-01 -1.9844261378458117e-01  1.5973786129347683e-01
 -1.5577894760171072e+00  3.0163127947051294e-01 -7.9520396716921482e-01  2.6519189492078654e-01 -2.2219523100242386e-01
  2.7243521042154895e-01 -2.1680431598981240e+00 -6.4586939180158698e-01 -1.0644917509059988e+00  4.9141445663417471e-01
  4.2722456410777454e-01 -3.2782702196642077e-01  1.3692619848980598e+00 -4.6066776239065632e-01  1.5955563001102213e-01
 -3.5566719754979204e-01  7.6130068756901892e-01  1.5962059111362237e-01  8.9438923115912417e-01 -2.2670038033397688e-01
  5.2197767172595677e-01 -1.6932764494639514e+00  2.1387684059845924e-03 -3.2012500964394519e-01 -4.7944024381294525e-02
 -2.7832504419920356e-02  4.1877922764116260e-01 -1.0153217384880406e+00 -1.0959243255859690e+00 -1.6003781175923493e+00
 -5.1994217614029026e-01  5.1513571896687926e-01  1.0271876640562159e+00 -8.0264166914469115e-01 -4.4094898049496578e-01
 -1.5206099584851671e+00 -4.6402334751762453e-01  4.1414273801964230e-01  1.0754269623981347e+00 -7.2529672967948500e-01
  3.9185241862682574e-01  1.2987561004776964e+00 -1.2879114136268299e+00  5.8133754790868597e-01  1.6942952652095524e+00
  1.3746403129048304e+00 -6.1500667538712150e-01 -3.0055962196439623e+00 -1.3101481089454978e+00 -3.2583634383684723e-01
  9.5671729360417679e-01  1.1475519752657419e+00 -7.5948430902076325e-01 -7.1477008753845439e-02 -1.6913903879805048e+00
 -1.4299166738187079e+00 -1.5101855905962580e-01  1.6663546391299633e+00 -4.7055172530599521e-01 -1.3442811586942724e+00
  6.3075218543431788e-02  2.9835432500968295e-01  1.0450185447155036e-02 -5.1774627235082016e-01 -9.0247119419984312e-02
 -2.4972627567564132e-01 -4.0598391710523174e-01  7.5119368887212090e-01 -8.2971488314564112e-01 -4.4893780352207258e-01
  7.0391645550569670e-01 -1.0649918651182020e+00 -8.0858584189331850e-01 -2.2648818420453409e-01 -1.6401581530086062e-01
  1.8841544515030184e-01  3.6799244657348984e-01  2.5008873637226259e-01 -2.8498967451224644e-01 -1.6419474690331270e-01
 -5.2726056656186415e-01  4.2505656457986762e-01  8.1201993531588013e-01  7.9423584610361786e-01 -1.8371886453962816e-02
 -5.1012414623878755e-01 -2.6279738686675103e-01 -7.3548444802236657e-02  4.6018572618028797e-01  1.5501330002226155e-01
 -1.5003752462442321e-01  1.3911018189144997e-01 -1.9514541071819735e-01  5.2146254411573567e-01  1.1618275392321422e+00
  2.7121562057706115e+00  6.1738861573985560e-02 -2.0080352155535621e+00  5.7833783112459969e-01 -3.1688263134827999e-01
  6.7112180832953783e-02  1.8780192578340120e+00 -5.8070007051520633e-01 -7.1763702353473491e-01  9.6087243297264990e-01
 -5.4513925529078255e-01 -4.5182747116775257e-01  2.3308714977117688e+00 -1.1524734712099871e-01 -5.0949027436226402e-01
  8.1180786921616122e-02  1.8384437615018356e-01  3.3202096306545759e-01  3.5025124611021485e-01 -2.8849106195535512e-01
  2.3609275859806900e-01  9.5596738137226289e-01 -1.5917369153871874e-02 -3.3842176462913726e-01  2.8789774449727129e-01
  4.2880629526496250e-01 -1.4005375750477356e-01  5.5711809778327215e-01 -2.7016786092793055e-01  7.7257838720572458e-01
  7.9971548566489137e-01  1.1283114339444076e+00  1.1114759762420690e-01  3.4267202798595386e-01 -4.8425553299117219e-01
  5.1433675253921562e-01  1.0509897728030992e+00  1.5464076853591777e+00 -9.5372394830505414e-02  3.1298167167316038e-01
 -1.9445319819422480e-01 -5.6491678258674261e-01  2.4273328251958037e-01  1.0542893880675308e-01 -3.5178363222403419e-02
  2.5947970801937981e-01 -8.1642876709894807e-01  1.6325650596316610e-01  1.3291561661303386e+00  1.9685234157757634e+00
 -7.7551731708231841e-01 -4.3605108061890974e-01 -2.4674425949137913e-01 -5.8599514754935123e-01  4.9371470512026572e-01
 -1.1148622754323867e-01 -6.3602066496046916e-01 -1.8154684882243544e-01  4.7162573690638254e-02 -1.0925851996644587e-02
  8.2289141494341134e-01 -2.4975818091674284e-01 -8.7634540270038030e-01 -7.4567000524616844e-03 -2.5825112695169139e-01
  1.0254037356688128e-01 -8.4079174720772798e-01 -8.2491306505744433e-02 -3.2948536113258342e-01  6.5872776694820345e-01
 -1.0497956396988286e+00 -3.2117441016258463e-01 -2.6649656394748611e-01 -1.3219461690780463e+00 -6.7954513536989225e-01
  4.5114263790944165e-01 -6.0464382179351617e-01  3.8388190002535350e-02 -8.4639285785664331e-01 -1.0056898854192013e+00
 -1.0447622031687018e+00  3.0237393867977858e-03 -1.0791949607394002e+00  7.0357884079991440e-02 -4.9978517580100146e-01
 -1.4773868938987675e+00 -6.1666780790369558e-01 -4.1581275749013713e-01 -4.6842375098228217e-01 -6.4223001541374058e-02
  9.4528408001096409e-01 -1.4454874727417746e+00  8.6940867007257339e-02  2.3973534461224233e-01 -5.7824260257001470e-01
 -3.0935277132372363e-01  3.3471111159224876e-01 -2.2412266089668265e-01 -1.9091347942492121e-01 -2.6813952958352445e+00
  3.8450859800508397e-01 -4.6794607448776349e-01  1.3597816023208544e+00  3.3252124273985828e-04  1.1295124546063562e-01
 -1.8826820817837273e+00  6.5654076148342710e-01 -6.6696950847918335e-01  3.5605648999280426e-01  1.1434318988590348e+00
  1.0982557044958412e+00 -2.5040588336703564e+00 -9.7178579682511187e-02  4.8353690445355602e-01 -5.6117775028194217e-01
 -1.7489882791466016e-01  4.9718119178774078e-01  3.2164433031754491e-01 -9.2197074021549683e-02  3.2074194058018846e-01
  1.6549288763749814e-01  8.6751108341724636e-01  2.1367749921017198e-01  1.5083875687469017e-01  1.8876787831172609e-01
 -2.9698643884912067e-02  5.7265933670985691e-01  6.2203655742012853e-01 -1.4281770419143258e-01  2.7020018454117523e-01
  2.6736329675839549e-01 -3.3613445054034363e-01  9.3253126370509865e-01  9.5909725361863307e-01 -7.4056492833531862e-01
  1.1339952213477478e-01  7.4599746340080555e-03 -4.8504554604528838e-01  2.0727110757132827e-01  7.9078893827830399e-02
 -9.8694613967927269e-01  1.7181391257137113e-01  4.1051156525073240e-01 -9.3800072550121549e-01  1.2229174245191761e+00
  6.7254025797476480e-01 -1.7053580411955711e+00 -1.9276983033333028e-01  5.6467840719648790e-02 -8.2180130930789119e-01
 -1.4268429258314086e-01 -1.1500407686701681e+00 -1.4210576328788831e+00 -4.1428312411895263e-01  2.4507115237750492e-02
 -2.9375003465597560e-01 -6.8503036504860315e-01 -2.0390748182030185e+00 -3.9155546835277677e-01  1.2430232737574023e-01
  5.6470129162063820e-01 -1.1924522548607897e-01  7.7492418111812511e-01 -8.9466873584169804e-01  1.4924879278560524e-01
 -1.9546007167343482e-01  7.6283301054384367e-01 -3.7944605085221905e-01  5.0076819809804562e-01 -2.1122748325171137e-02
  8.7098769421403960e-02  1.5787554213906091e-01 -3.9827562763007585e-02 -1.5194020547043730e-01 -2.4205132436853158e-01
  2.1593701721198721e-01 -3.5389775448855562e-02  1.5632704286346438e-01 -2.1262785522750960e-03  3.7703407139714518e-01
 -3.9137869319033602e-01  3.7359064538745890e-01 -6.7738355891867302e-02  1.4709138588864479e-01  6.9650992805345702e-02
  1.2000249230576632e+00 -5.1423918455802964e-03  1.1776772229476276e+00 -3.7758489968831976e-01  2.9472365459784505e-01
 -3.3184626236373305e-01  1.2216577812594274e+00 -9.8190883952759478e-01  1.3533702331666584e+00 -2.8371586863522685e-01
  4.7860195069726363e-01 -6.9679913026174845e-01  1.8506019220305170e+00 -5.9941773345517468e-01  1.2808042265257971e+00
 -2.7481532342026127e-01  5.5790724012096893e-01 -1.4129963450003125e+00  9.0953771349761681e-01 -9.1027395453452975e-01
 -1.0397417587198561e+00 -1.1921371781270409e+00  1.5103871505511961e+00  2.7173677861833312e-01 -8.9654878201324717e-01
  5.2477810882330722e-01 -1.2980625098387009e+00 -1.3755416311341833e+00  4.7670516407217178e-01 -7.2914121252586028e-01
 -3.6673937124298739e-01 -2.8882463077001930e-02 -2.3897770755027068e+00 -2.8543961875462287e+00  1.1150356040392637e+00
 -7.6818219831795886e-01  2.6158443662769759e-01 -8.7088480600073126e-02  4.6959467053397930e-01 -1.6599722918523412e+00
  5.1996925966992080e-01  2.3744886946465726e-01  6.6370232125341744e-01  9.1458932812146365e-01  1.3361522579709799e+00
 -8.2533833114939625e-01  1.1870711166232439e+00  2.9561605781952949e-01 -1.5808459655807283e-01 -2.0847727389475779e-01
  7.4425541901364340e+00 -7.5447354321795501e-01 -4.3797186981966547e+00  1.5949276201683915e-01 -4.0794086249039907e-01
  7.2949981182592083e-01  4.8222808283635459e+00 -1.5291436993609295e+00 -1.8116915588592519e+00 -1.8109043270916345e+00
 -1.8564350854092941e+00 -7.1380075287674316e-02  2.7291959291733292e+00  2.4657361495076202e+00 -6.5293157952339698e-02
 -1.2371628864354989e-01  1.4743765204957526e+00 -4.8886443554164316e-01 -1.0261024251168447e+00  6.4842514879940172e-01
 -1.1947383680278563e+00  1.6809178812059145e-01 -1.9206322442732926e-01 -2.0160060837358174e-01 -4.4719552643857119e-01
 -1.3928856734884851e+00 -1.4131673266725784e+00 -8.0091661783114887e-01 -7.0350670825476413e-03 -1.7551434060237625e-02
 -4.0281608665770996e-01 -1.3583657159389890e+00 -3.0569603089259090e-01  6.1652008010787540e-01 -6.4143170325625931e-01
  5.0867391857573807e-01 -1.1118742571948959e-01  8.3680801596567900e-01 -2.5799735814473479e-01  5.4422681380594895e-01
  8.2408524234426750e-01  1.3716946869766389e+00 -9.7544911831078274e-01 -1.2942290979214306e+00  3.8381503770619929e+00
  9.2758244956098679e-01 -4.0228380398359604e+00  1.4849982957376824e+00 -5.2401319641118427e-01  5.0074085128667178e-01
  1.8906287059517126e+00 -1.4203127025964477e+00 -7.5680003063763479e-01  5.9489824367278743e-01 -7.0971092334661989e-01
 -5.2539513172781938e-01  1.0370126533446182e+00 -1.2097559049952906e+00  3.7945831523381912e-01  1.0139806354015732e+00
  2.5740203629621305e-01 -1.3589587414436424e+00  5.0736414980818134e-01  2.3448835338824381e+00  7.7276263428302627e-01
  5.0970480316852118e-01 -5.9238946115408631e-01  1.4198204454396295e+00  7.2525544692024213e-01  1.4355038236295314e+00
  9.2859917904668521e-02  1.2859274863343959e+00 -9.8573086971879320e-01  7.3947207685513205e-01  7.2952122688631871e-01
  1.3360129209165734e+00 -3.4219328282917161e-01  7.8903042477070784e-01 -3.2514881293803910e-01 -1.1910996076558038e+00
 -3.0262496365196512e-03 -8.2905293117650558e-01  1.6440789041126891e-02  1.6378323555573360e-01 -1.8282921348094305e+00
  2.8854170052051531e-01  6.4541208851113829e-01 -4.5883104985193768e-02 -2.2389839412571746e+00 -1.0285773620095000e+00
 -5.2302561802761716e-01 -5.8100009572287259e-01  2.2524616508207762e-01 -2.6308490681754506e+00 -1.7590366184815309e+00
 -5.7963111131435596e-01  2.2913539152865781e-01  8.6467023564405221e-01  1.1417144212372383e+00 -1.8091917484220517e+00
 -2.3626650173725920e+00  5.2998807705350259e-02 -4.2340086071672545e-01 -2.4852092611972787e-01 -5.7910762210445732e-01
  5.5898636470794827e-01  6.4010237114047186e-01  7.2016983725869466e-01 -4.4359588076648038e-01  7.2554094485066001e-02
 -1.3612830530917381e+00 -9.1554715477209925e-01  1.3748563493403765e-01  1.3679873924314911e+00 -4.6842375098222533e-01
 -5.9361829272697397e-02 -1.4316150659051461e+00 -1.5739908134278267e+00  9.9377221439411301e-01  1.0937877188593959e+00
 -2.4274434401867495e-02 -1.2131667961720627e-01  5.0130592153439268e-01 -1.8918345622305992e+00  2.4602521948034450e-01
 -1.2555210157209729e-01  3.8450859800838089e-01 -5.2440309511728866e-01 -1.0221796656140150e+00 -2.0398915452771007e+00
  1.3544167006917860e+00 -6.9997936479826706e-01  6.5654076148175022e-01 -3.0439451677895368e-01  9.9816569916631170e-01
 -3.0199405301299294e+00 -6.0468041308183729e-01 -2.0648938972800011e+00  4.5033266791381266e-01 -1.8187473617208227e-01
  4.3197230304953749e-01 -2.8072521732575524e+00 -3.1509899217644488e-01 -2.2138625145707920e+00 -4.4703051036692046e-02
  3.6099575187873073e-02 -9.0675262586681615e-01 -6.0742689958382590e-01 -1.2787179227144330e+00  6.8685341200253297e-02
  1.9552055045275680e-03 -9.7744045002992191e-02  1.4842336688393143e-01  2.5045009665984341e-01 -6.8669120608119791e-02
  2.0132635732208592e-01  2.0575595718460241e-02 -2.1868294278125841e-01  4.2248079761132118e-01  7.0633395353776951e-01
  2.0239620576229989e-01  1.6155307577504086e-01  2.0477379693482078e-02 -1.4585056006552927e-01  3.6522303688843127e-01
  5.3264968369988708e-01  3.4117377473732646e-01  5.6221678044758949e-01  9.8351913903587163e-02 -3.9201457712811227e-01
  1.4655729708931702e+00  1.7575524854988593e+00  1.4855732158865773e+00  4.5036297546316750e-01  8.9985340655688667e-02
 -1.8303249545308020e-01  1.4085910965033612e+00  1.1618412927020980e+00  1.6179820344873668e+00  3.6655832818308043e-01
  6.6681156471593561e-02 -1.1061470439933802e-03  1.4160009833172342e+00  6.3890851863476250e-01  1.6171333533911398e+00
 -1.2313704799621208e-01 -2.2717121506252269e-01 -5.7925975961681875e-01  4.4474695926663976e-02 -2.4744998464721479e-01
 -1.5904909243731327e-01 -6.8192396440755351e-02 -7.2496409956747421e-01 -1.1862091524147451e+00  3.3925374244843487e-01
 -3.5145610237243230e-01 -3.0696221389467221e-01  1.9410705781669271e-02 -1.0624104626791517e+00 -1.7085820803492697e+00
  4.1394199146222566e-01 -3.9541572436398553e-02 -6.6312190034001836e-02  2.1456397634340485e-01 -7.4667928548334039e-02
 -9.0033133511613350e-02  3.5976848187227795e-01 -4.6961681100037289e-02 -5.4333598838921093e-01  2.9643231016537136e-01
 -1.1636329918844233e+00 -1.9076604562871911e+00  4.4742330924196816e-01  5.7160122632663501e-01 -9.4658401615523663e-02
  4.6706899108884015e-01  4.7195495468939619e-01  8.1322587934025137e-01  4.8133196405205880e-01  8.6273001082661960e-01
  2.2888762864062918e-02  2.8159104714623001e-01  9.1477474973265238e-01  1.5904801028400888e+00  2.3153613966859954e-01
  1.3738402180713365e+00  4.0914584734605342e-01  1.3702327444620153e+00 -5.0550097945107098e-01 -7.3503473046612688e-01
 -1.4648117008146500e+00 -2.8974842961967511e+00 -1.4782497473200635e+00  4.2924091522342138e+00  4.9514081414335465e-01
 -9.1994080199281214e-01 -2.9912240721994365e+00 -7.3569372560768898e-01 -9.7096953248353657e-01  3.0709828726406556e+00
  1.3020912866575713e+00  2.1180699914309287e-01 -8.7194384545502857e-01  6.7217893031875064e-01 -2.0704616153983579e+00
 -7.8008547568654762e-01  2.3785759753277489e+00 -1.7244525144790614e+00 -4.8151429816008289e+00  2.0784168726422649e+00
 -1.0157931790320163e+00 -1.5385045511915223e+00  1.2122205486981557e+00  1.2142394285188018e-01 -9.7558889891929113e-01
 -7.5319613982537703e-01 -3.1293488729756973e+00 -2.4287343269976986e+00 -1.3193671607095894e+00  1.2042917538801312e-01
  1.2166357011513007e-01 -3.8632817098989563e+00  1.6321881976605255e+00  2.8416545268239872e+00  5.8872880778227454e-01
  2.4603437084201119e-01  1.9868175055899684e-01 -1.1256414777433121e+00 -2.4356096259942301e+00 -1.9432589329185248e+00
 -3.6305125826802964e-01  1.5261017634400318e+00  1.2622877227767049e+00 -1.6493312255801436e+00 -3.0598335264054786e+00
 -1.1346581827118598e+00  1.2010914962300490e+00  1.4426055833201588e+00  1.3533076978468728e+00 -1.6064834668900119e-01
  4.2934572918842395e-01 -4.6069341913857897e-01  1.1566243671990719e+00  9.6076743891634919e-01  2.8984590183318915e+00
 -2.8394571008177358e+00 -3.2876032460830018e+00  1.3739465554663184e+00  1.9286186804897625e+00 -4.2112061382260890e-01
  1.4791713271817457e+00 -3.3022527912815836e-01  8.6659664893977784e-01 -5.6566560010537614e-01 -5.2633198883768273e-02
  2.0381502339751023e-01 -4.1147084095092623e-01 -9.5153776292855596e-04  3.0760577336837613e-01 -2.5308249184877241e+00
 -1.3290859840594749e-01  1.3270098584532661e+00 -1.3709488470593278e-01 -1.0055797639041941e-01  6.4893472054571211e-01
 -6.2374088131686967e-01  1.2544896242947488e+00  4.1852283581450678e-01  1.0363843615869728e+00 -2.9897221201032664e-02
  9.4901556378923502e-02 -1.2011891002271471e+00  1.6858131432878736e+00  8.5202760149510937e-01  6.9226608291260305e-01
  7.7844582350326874e-02 -7.6447743319287187e-01 -5.4722953980471212e-01  1.4352972407442621e-01  7.5845432272326718e-01
  1.0574398720462774e-01 -5.1508198006455075e-01 -4.0008768291638575e-02 -1.8747574210913314e+00  1.6174082622226820e+00
  1.0228027176953560e+00 -1.7295688232562156e-01 -4.4780838360553332e-01  5.9293026179201513e-02 -5.0586180348864618e-01
 -4.7150869872399426e-01  2.1900928094646588e-01 -2.4664343936193234e-01 -3.6359573725711414e-01  1.1433864317800060e+00
  4.4029255241003229e-01 -2.5385057195305194e-01 -1.0187399657393712e+00 -2.2246998951790431e-01 -8.4075195133036518e-02
  6.2468613348240332e-02 -3.1399094855966969e-01 -6.1918296893582436e-01  4.9843742213731446e-02  4.8578819977182164e-02
 -1.2916410635859954e-01 -2.9189209887852341e-02 -5.5794122176748207e-01 -9.9602441079361625e-01 -1.5893964981967201e-01
  1.0862049445002064e-01  3.8191852228521839e-03 -4.9420567418806377e-02 -2.2212800881560713e-01 -4.3116913715472549e-01
 -4.3111370307729047e-01 -1.6610958691991407e-01  2.0599536090350767e-01 -9.3174238515398633e-02 -7.6410225176835533e-01
 -1.1416445477356376e+00 -3.5692317743942681e-01  5.5732846975876882e-01  3.1729538554856873e-01  5.7154352423659627e-02
 -1.0580706626043679e-01 -3.9300689420561241e-01 -5.4344822656105407e-01  1.8607882366079487e-01  3.5960009978427365e-01
  2.5373292762234173e-01  1.2300582718085384e-01 -2.6897446443817330e-01 -3.1955532608641590e-01  4.3937080034033471e-01
 -1.8436237124897428e-01 -3.5860662689957001e-01  1.1979217303635947e-01 -6.1123468098177081e-01 -1.4016280318028771e+00
  1.4145647690968782e-01 -4.8454689484311930e-01 -4.3787855785125912e-01  4.1481546561448646e-01 -5.7029865474541319e-01
 -2.1549828526031436e+00  9.1786228783018731e-02  1.4898110343165578e-02  9.2279839430145449e-02  5.5656429705098076e-01
  4.5367081738451087e-01 -5.1548140190243497e-01  2.4161477527202924e-01 -6.2574734940693444e-01 -4.6597063064899780e-01
  1.4417075584271508e+00  4.3610843584124792e-01 -3.6014324923933314e+00  1.3928151575042036e-01  2.7719115103660336e-02
  1.9503118244563974e-01  1.7334729764689110e+00  1.9888858412449433e+00 -1.2573210293579438e+00  8.6157728696434455e-02
  2.0637917404318792e-02  5.3409853082089814e-02  1.7191817172016490e+00  2.2204593698190429e+00 -9.4488570945484485e-01
 -4.6758876472801042e-01 -4.1385626301598633e-01 -1.3111180813512233e+00 -9.6511696654464685e-01 -5.0485649068167859e-01
 -4.2635528353115687e-01 -1.3903873193079361e+00 -4.8878957855084337e-01 -1.8862386981413657e+00 -1.5842117221909788e+00
 -1.6921791490038518e-01  3.0395114153598159e-02 -4.5620853503813719e-01  4.8403158226789955e-01 -4.9677933034495458e-01
 -1.6388046810378276e-01  2.5570802506215351e-01 -3.9124195962763292e-01 -1.9463828547711852e+00  6.1394634277866800e-01
 -6.1468500543159976e-01 -1.8488368059822706e+00  1.1322769409885285e+00  2.1651208958251686e-01 -5.7030946954093564e-01
  2.9276758611228733e+00  2.1277448487681596e+00  8.7586668247955313e-01  1.7614034227675077e+00  2.9203741265014094e-01
 -1.7433828561435166e-01  4.2015161549345663e+00  3.6619479319007446e+00  1.9040882328234676e+00 -1.2709549186439517e-01
 -6.5621235662604249e-02  6.8050075539140664e-01 -6.5796158448240760e-01 -5.1757727140846388e-01 -1.4818926481516081e+00
 -8.5573588331158135e-02 -1.9379428192138448e+00 -1.2455834876669840e+00 -9.3414103689148931e-02 -5.2609512065952702e-01
 -1.6002993720946703e+00  1.7166191285531909e+00 -2.4661677217612521e+00 -3.7565490785752367e+00 -3.2953601530684296e-01
 -8.4985744329668345e-01 -2.6356414454653425e+00  2.0356707412041715e+00 -1.9092700160897493e+00 -3.0924522770157239e+00
  7.5190481861659464e-01  1.7008300709241375e-01 -1.4323924287108296e+00  6.1341497299069943e+00  4.7871158287267690e-01
 -3.6337687654226727e+00  1.6369935337862103e+00  1.5203740077320269e+00  3.2019457426895581e-01  8.0773941465878352e+00
  4.0304413601505189e+00  1.1991602784883213e+00  1.2360838349033543e-01 -2.1212119515374912e+00  5.2537472594198675e-01
 -9.6996423202513438e-01 -1.8632216552897534e+00  2.3360114183236647e-01  1.4454338890298857e-01 -2.6274421817641560e+00
  3.0426061368508783e-01  7.4460515971187302e-02 -7.0511296694238945e-02  4.4236896153518046e-01 -4.5454617893128102e-02
 -4.5981106744272182e-01  1.0110945008945293e+00 -1.2466449649839899e+00 -2.0346669299983606e+00  1.6122360184713216e+00
  1.1405050140065782e+00 -2.6823334745744347e+00 -2.1872825896764425e-02  3.9696393828249832e-01  7.1581448655424174e-01
  1.1962176480840867e+00  1.3615902193838565e+00  2.3770463892198279e-02 -6.9276969270488564e-01  7.1104313746855752e-01
  7.6835911678897695e-01  9.3886945296276281e-02  1.5385144838414249e+00  6.1231765255586623e-01  1.9441932036345944e-01
  2.6183463540285956e-01 -1.5709130186809888e+00 -1.4051927109995175e+00  1.9464447932019908e+00 -2.9993335773432044e+00
 -8.3105635013769330e-03 -4.7884036781248085e-02  2.0295372251246954e-01 -6.0388031729669778e-01  1.3997620913596762e+00
 -1.6721649840409007e+00 -6.7289379703584862e-01 -3.8294402369889724e-01 -1.3955364072267591e+00 -2.4573921498839528e+00
  6.2613616197367605e-02 -4.2273799878471721e+00 -1.0668981897248315e+00 -1.8921487566877566e+00  8.1549346471455286e-01
 -1.8561156967825070e+00 -3.6064504721985600e+00 -3.1156366247393024e+00 -1.3653545479551781e+00 -3.1501316433256434e+00
  1.0700157614395867e+00 -2.4206796125353485e+00 -7.8720248250469638e+00 -2.7819933675612560e+00 -7.2578419702459840e-01
  1.0299768045167923e-01 -2.1042620414755464e-02 -1.0538051661015637e+00 -1.0371298351750227e+00  3.2224052976536655e-01
  5.1918562898738330e-01  3.1729538554835557e-01 -5.4023491032492155e-02 -5.8833702365440055e-01 -3.1965148444572833e-01
 -5.0809715891992369e-01 -2.1396651341335726e-01  8.4345565889518070e-01 -5.9192688262799109e-02 -1.6724492880771979e+00
 -2.0883142116888394e+00 -3.4583149240449984e-01  1.6965892647134027e+00  6.3326722282126013e-01  2.1130182820992283e-01
 -4.9439011875832239e-01 -1.7824556571702033e+00 -1.4563212760260456e+00  6.4167890192648969e-01  3.7291910920471594e-01
  5.8273196818957951e-01  1.1346141978374780e-01 -2.6901131962503086e+00 -1.8866938402278777e+00  9.9767100068407188e-01
 -3.1073595972118628e-01 -4.0457359823174222e-01 -6.9043725444755655e-01 -9.9052001888381858e-01 -1.9278624602096985e+00
  3.9444241947091285e-02  5.8882417859365439e-02  3.1877045202639270e-01  2.0057670748078094e-01  6.4584997366564467e-01
  1.8532560097390677e-01  1.0546063788253424e-01 -7.9205920868600688e-01 -2.1169906644417899e-01 -8.1565166663061461e-02
  3.9085523706299341e-01 -2.4287082498713275e+00  2.5941733247814058e-01  7.7482388407052571e-02  5.7999858818963468e-01
  1.7082468646067710e+00  3.0074330605360684e+00  1.3234914839507450e-01  3.5279975037335864e-01  3.3124797528071195e-02
  1.9326088922114007e-01  2.3954890258772092e+00  3.5394347163563857e+00 -1.7437764334159900e-01 -1.0024100325896648e+00
 -2.1289105913896016e+00 -3.0423290853804055e+00 -2.2681415533643481e+00 -4.8407037667755004e-01  1.4909805432640016e-01
 -6.4792231949070977e-01  2.3313699214589434e-01 -1.2756654531168108e+00 -2.5724272224037303e-01 -6.1933862665618378e-01
 -1.0973342064020714e-01 -2.8236185860706664e+00 -6.2408479120023230e-01 -1.9825215446182334e+00 -2.3818490544970210e+00
  8.9982142734360693e-01  5.0446390544952413e-01 -9.4311931634666424e-01  4.6388519247876623e+00  1.9811405908968673e+00
  1.5896153999583524e+00  1.9848501064928925e+00  4.9683232111015430e-01 -4.6024083168410407e-01  7.5280659044534772e+00
  4.6603655006799354e+00  3.2855129463661208e+00 -4.5874421264585408e-01 -3.2821729842415834e+00 -2.4362370388429611e-01
 -5.0840092215736377e-02 -9.3844445495670481e-01 -2.7683969627772687e+00  2.3371729450642533e+00 -3.7579782218022615e+00
 -5.4054559364302008e+00 -7.5642206831787462e-01 -9.8434290033078931e-01 -4.0226679511821821e+00 -2.2907368356140978e+00
 -4.9651787878738105e+00 -8.2412743187921933e-01  1.4541460337505896e+00  4.6625153792385721e-01 -2.5941256630349461e+00
  5.4320850165852335e+00 -4.6108239114096250e-01 -4.1028338735364400e+00  3.3216225742893357e+00  2.8819018987802822e+00
  4.0642208303390071e-01  8.4368264002150681e+00  3.7250861249771106e+00  2.1500853854395530e+00 -2.9472378415582057e-01
 -3.3399931084180565e+00  2.2163563577829848e-01  3.1111422584849224e-01 -6.3443581065853571e-01 -6.2044587574268917e-01
 -2.3112600709254139e-01 -6.1052840202943059e-01  7.2232021171316774e-03 -1.1264488131776513e+00 -3.8974397361732258e+00
 -4.7861567597842622e+00 -6.7781870868441274e-01 -2.2170567712674654e+00 -1.0239535548361118e+00  9.0050903175101915e-01
  4.0663326663809229e-01 -1.0634302345927154e+00  7.9252104003592194e-01  6.2479235149515944e-01 -1.7167725875225415e+00
  1.2387204281798838e+00  1.1089424314479794e+00 -1.2946599671787453e+00  5.2248116151224622e-01  1.0093083805117118e+00
 -2.5199284807796385e-01  1.9571783092682438e-01  9.2856731575231599e-01 -9.2988413505412171e-01  1.7127398808645324e+00
 -1.6827582646682515e+00 -1.1582121957082183e+00  4.0998190129583634e-01 -1.1288368027081950e+00 -3.8555355051612730e+00
 -1.8140264936387780e+00 -3.6705547290980860e+00 -1.0767852929693404e+00 -1.3599075227975845e+00  1.6955455880335144e+00
 -2.8494140196394211e+00 -2.4173704045039983e+00 -2.4101003188630159e+00 -1.4092249898832030e+00 -2.9860792391755950e+00
  1.2361432367880458e+00 -3.8567328618665688e+00 -7.0420132822754624e+00 -2.0524302936641305e+00 -4.8083198337318578e-01
  1.7980004989231446e-01  1.8657995523345294e-02 -3.6828812626612129e-01  2.8516368610229392e-01 -8.7595694229534615e-02
  1.0617522444058736e-01  6.3326722282185699e-01  9.3922342393935931e-02 -9.5837064781835135e-01 -1.1270736310979146e+00
 -5.5496402937524181e-01  1.0334481367554602e+00  3.7291910920347959e-01  1.7362989115457084e-01 -4.3364997568277452e-01
 -1.4813298662507464e+00 -1.2142660040053954e+00  7.1046172873288072e-01  2.7179114022217732e-02  3.1534007225727834e-01
 -4.9615989848360798e-02 -2.8229153286773112e+00 -2.0389114403630799e+00  6.4766965576597357e-01  4.2965207030314541e-02
  2.2168475054249068e-01 -3.9594630912245865e-01  4.2369474956773179e-01  1.0166076278179934e+00  3.9884467748524388e-02
  1.1154601160672101e-01  3.4221367120174850e-01 -1.6149998003277357e+00  7.7094651185818730e-01  2.4646915685698292e+00
  1.5413141866715563e-01  9.5855177788460047e-02  3.2230985507947718e-01 -6.6033114054020725e-01  8.0350991345210332e-01
  1.9875575943964092e+00  1.7351459509361544e-01  9.0554555984338203e-03  8.4006531604578605e-02 -3.1262725778558575e-01
  5.6103840408989258e-01  1.1013501700330053e+00 -1.1979989485419108e-01 -9.9812794545494299e-01 -8.5421135213883437e-01
 -2.7027180424934127e-01 -1.4124947939911277e+00  7.5042218552826701e-01 -1.0274659016139476e+00 -3.6479064019037395e+00
 -1.6387021833413069e+00 -9.0560337781271816e-01 -7.8589927187774755e-01  3.9672172220839386e-01 -5.1215052668417349e-01
  7.4478511334469033e-02 -1.3779651503655508e+00  4.5432577307329058e-01 -3.5849655239372025e-01  1.5980731409913962e-01
 -3.6135152964636208e-01  2.1657767634758116e+00 -5.9070753015962385e-01  1.2824758417159212e+00  1.6577654781648334e+00
 -9.0232836165228036e-02 -1.0803123556619383e+00  5.7337575652184114e-01  4.3720523574100678e-01 -2.5026912558412562e-01
  1.9367393975999221e+00 -6.6977896474782028e-01  4.1106655123985831e+00  2.1060869952513599e+00  2.7602595653251338e-01
 -1.1180629929041253e+00  4.5383287779864077e+00  1.6110973841952045e+00  3.3159482582541955e-01  3.2049133005758677e+00
  1.2314133655218149e+00 -6.0984388051657845e-02  4.1758800568638890e+00  9.2670364222908574e-01  4.5475608599036832e-01
  2.6405767270411218e-01 -3.1680714655249886e-01 -1.0019866192522500e+00  1.1310815275103163e+00 -2.4799796285975511e+00
 -4.3451273181867691e+00 -4.1684417471810775e-01 -8.0458295282207359e-01 -4.6108284204183292e-01  6.8534950270689921e-01
 -9.5169588603191979e-01  1.4881176959869435e+00  5.0805418820391424e-01  2.4349468526483520e-01 -3.3161426110913794e-01
  4.3979887332720757e-01  3.6527582967502248e-02  2.3035726109875441e+00 -1.0477431984474492e+00  3.2392393536426312e-02
 -6.0860899540264679e-01 -1.1252043360847352e-01  1.1808071604157702e+00 -7.8265042609366109e-01 -7.2649169634090640e+00
 -9.7657821147265622e-01 -1.4280612494233900e+00  3.6056187939151130e-01  1.1167083883292142e+00 -1.1592584210673174e+00
 -1.0050929604146859e+00 -6.8659518545612741e-01 -1.2657496950164742e+00  2.9138534959098905e-01 -1.5616506679646813e-02
 -1.7258857112254924e+00 -1.1073267885370797e-01 -5.8313353304973248e-01 -3.1620950050187346e-01  4.5931501978978417e-01
  4.6230621776284586e-01 -2.0543240474013693e+00 -4.0618260870489848e+00 -2.3216702176628132e+00  3.9824484245072540e+00
  1.9895254182080180e-01  6.3206043250109989e-01 -1.7113243724496723e+00 -3.1078426414478599e+00 -3.1555058643702978e+00
  2.8312940830907110e+00 -2.2470873930478774e-01  1.1142380981340674e+00 -2.0944790765447685e-01 -5.1300501295453387e+00
 -4.6116961724027306e+00  3.2876488195428806e+00 -5.1528297767138675e-01  5.6256352207904758e-01  3.0875922373489928e-01
  1.3961306650534020e+00 -6.8381389968664807e-01  7.7833204085157082e-01  1.0523075666267913e-01  1.2621149645406504e+00
  2.9044450724039308e+00  5.0952014577192912e+00  1.4990978475423973e+00  9.2670888053433575e-01  2.6801532585642066e-02
  3.8651626380969878e-01  3.6975040162579287e+00  5.9154256324661176e+00  1.3419733071325934e-01 -2.0831056218027433e+00
 -2.2114693073200584e+00 -3.4345903290277064e+00 -4.0870309209189948e+00  2.1779535345661571e-02  9.2763441182710904e-01
 -1.7236699869249614e+00  6.3535012831806199e+00  8.0432915690742135e-01  1.9057572323787433e+00  1.5996413973905099e+00
  7.3538192370900624e-01 -1.0203643241161371e+00  1.1353437243508452e+01  4.7314112837877893e+00  4.7926990845680955e+00
 -6.2805667820121016e+00 -1.0515194377252556e+01  2.0149798532512477e+00  5.4606171442787854e-01  7.1916989749831828e-01
 -3.4993881822593664e+00  2.2544449014858401e+00 -1.7150045734038031e+00 -3.7712250678381452e+00  5.5696165548592944e+00
  4.4455014479318091e+00  3.3329241017914057e-01  9.0630724300444854e+00 -3.6157626091653583e-01  4.7102900453160146e-01
 -6.4799165278236615e-01  1.2908001438738665e+00 -2.8529846175001694e+00  1.8184490516024496e+00 -6.1920061829133743e-01
 -2.3469088943547831e+00  1.3949322370046957e+00  2.0462943788964481e+00 -2.5838401199658847e+00  1.8922141870487561e+00
  1.2858092328395365e+00 -1.4112134392426015e+00 -4.9904335119572352e-01  7.2769784650444080e-01  2.7671333441828239e-01
  1.1123841023355965e+00  2.8321071821422961e+00 -3.6664776098295171e+00  3.6326403989470464e+00  1.3979868197657197e+00
 -1.4316432088625675e-01 -1.5829239519202645e+00  6.0278848014483666e-01 -5.9658038103168938e+00 -3.7623033716043324e+00
  1.3002079515196101e+00  8.5444331949470609e-01 -1.1235436965077383e-01  4.2598406283318457e-01 -1.3411023061269844e+00
  7.3055707005573822e-01 -1.7247109920328967e+00  2.6276080766652399e+00 -4.5208789050110454e-01  3.8932075816228151e-01
 -4.7167056465969637e-01 -1.4631309033046591e+00 -3.2089525078771430e+00  2.3734928715891641e+00  3.5794747437797578e-02
  5.2233492474294407e-01 -6.1764599872219605e-02  1.2625915150383822e+00  1.3408948803456153e+00  2.1409121064792203e-01
 -8.2718845950732894e-03  5.1106829464499980e-02 -8.2160537852006854e-01  7.8189080021288859e-01  1.1121397174200376e-01
 -5.2107379804482301e-01 -9.3411749443266245e-02 -2.1871792404303498e+00 -6.5511963851341726e-01 -9.9623434096692431e-01
  1.1482617511169990e-01 -6.3031548307107466e-01  2.1179458433797400e+00 -1.8237483775427936e+00  1.0924167769183639e+00
  3.6409913267782485e+00  3.5216704368808678e+00  7.5200427997367569e-01  4.9109129371012159e+00  7.9904585721373955e-01
 -3.4498328368633580e-01  9.2421144844302034e+00 -1.9334401807959694e+00 -4.8097870015246826e+00  6.9746216878684208e-01
  1.0318210087947932e+00 -2.7566141146223799e-01  3.9796375261742956e-01 -5.7314753899902904e-01  4.2429227797215390e+00
 -2.2338852506259173e+00 -1.0021648628394360e+00 -5.7320857380176449e-02  1.8823929867840548e+00 -1.0887831315997585e+00
 -2.5244877193667064e+00 -1.3929434390838651e+00  8.0576373947280899e-01  1.1274948291828437e+00 -2.0635348515422436e-01
 -1.0491845231343788e-01 -5.5949184368215743e-01  2.8601811982864547e+00 -1.3694765045790405e+00  1.5014157864577982e+00
  9.0347161972001658e-03 -1.4122366840447192e-01 -1.3256490544300190e+00 -2.3629965712768364e-01 -1.3852119663879807e+00
 -1.1657030687040233e-01 -4.5871547815185565e-01 -1.1648347031337938e+00 -8.7369996405245409e-01  5.3982351113156710e+00
 -1.8542795040564215e+00 -9.6576999510439805e+00 -2.4280969035472140e+00 -1.3632635531033372e+00  1.0285391276826701e+00
