DATE: Wed Oct 28 21:39:17 2020 CONTRIBUTOR: Anders
chebyshev
1 8 4 16290
quadratic
5.00
  2.2528171988652321e+00  1.0995621722254549e+00  7.7348770666369604e-01  1.8386752298420426e+00  2.0692075918156512e+00
  1.5579354523596471e+00  5.0516524333190049e-01 -9.6096514638770406e-02  1.6585732269125586e-01  7.3355544068595435e-01
 -2.9503633630271313e+00 -2.1049916340322780e-01 -1.1441285110886836e+00 -2.1603133288803491e+00 -1.0856738171137756e+00
 -2.8578520436146206e+00  1.5153833411308443e-01 -3.0083677751362209e-01 -1.5357683739323278e+00 -5.4249581564329574e-01
  4.3581531968069420e-01  5.2404648278547006e-01  1.3578952729405491e+00  6.5480338367286706e-01  1.1014693020419983e+00
  1.3236632605432701e+00 -5.4425914970553568e-01  1.0358122658155116e+00  7.3980557087573118e-01  9.0195634959897752e-01
 -1.1619944581200059e-01 -1.5110546563801277e+00 -9.2370497105096405e-01 -6.6682963427865616e-01 -5.8416248115301528e-01
 -2.8544531724303734e-01  4.3809411275240406e-01 -4.0718355629840164e-01 -6.7038323334345939e-01 -1.3832946997733249e+00
  3.9783244557280995e-01  3.7035721985779502e-01 -9.0225960654020360e-02  2.0319941533262664e-02  5.8194517827251158e-01
 -1.1933913313147602e+00  2.0299526068654883e-01  4.2228144666931880e-02 -1.4416366111152001e-01  3.6754672247080844e-01
 -7.5648022110791935e-01  1.8801981751964597e-01  3.5050553681624341e-01 -1.0071999437276702e-01  3.0928500996223640e-01
  6.1052678114400827e-01 -2.7832262911971363e-02  4.9053954497949648e-01 -1.8620316200116527e-01  1.1849530850910828e-01
  4.2460358304402729e-01 -5.6022417784398237e-01  1.2848953685189890e-01 -4.7547341907381835e-01 -3.7787070847692661e-01
 -5.1946521318589767e-01 -5.1282975876902992e-01 -3.1266812703212526e-01 -2.2135009361567448e-01 -6.6637586268074855e-01
 -3.3107702224023594e-01  7.9867868333936665e-01  2.0444001015596711e-01  4.7936760280754864e-01 -5.5612333746867559e-01
  1.7654800452569532e+00  5.9575975169262763e-01  1.7133946324057154e+00  2.7062008245854390e+00  2.2687614196625860e+00
  2.2906634317361174e+00 -4.7172270081419825e-02  1.1604474120219388e+00  1.8854893430537309e+00  1.3088275663072135e+00
  3.8089609870418029e-01 -8.9827263722856898e-01 -8.4484885042410407e-01 -1.2728993593412694e+00 -1.2715403417391684e+00
 -1.0101255272261551e+00 -3.8876975385381313e-01 -1.1822619446364966e+00 -1.8828078190048441e+00 -1.9566522627692899e+00
 -7.2730620032321802e-01  9.8888919802855235e-01  5.0905807758032229e-01  5.1692367927418204e-01 -6.9610264697585933e-01
 -2.4003624213006214e-01  8.8821087814037925e-01  6.7605379972611968e-01  1.8932590411551722e+00  5.3880027895613214e-01
  1.8301593495637647e+00 -6.9253973738975905e-01  5.5587488701777488e-01  1.3199350321029897e+00  5.4307767560835529e-01
 -7.0412977855299985e-01 -8.4558032646104153e-01 -8.0244855126922898e-01 -6.2239351071532845e-01 -9.2355037325569711e-01
 -1.0532869230442485e+00  7.4948665080660282e-02 -8.9558903199682027e-01 -8.0665548776290308e-01 -1.1213875817073706e+00
  1.7369398776237510e-01  7.6626895542183615e-01  1.9114267290514236e-01  3.8557754521634990e-01 -5.8628576023276935e-01
  5.6041280115991743e-02 -3.0159246016400088e-01 -4.9528176022045023e-01  1.0055087036393591e+00  1.4911764265761640e-01
 -1.1137931640131375e+00  1.6803933483172356e-02  2.5151920638407610e-01  9.6002552754663117e-01  4.2955252031006630e-01
  8.6090529062923193e-02  2.8286625266869486e-01  4.5833032971682036e-01  9.4026447601525120e-01  5.0136828035905179e-01
  7.8999081057376142e-01 -6.7819383796462518e-01 -6.3841532866653106e-01 -7.3582887766542449e-01 -6.3257130103720804e-01
  6.8229725537919617e-02 -1.3947118570081731e+00 -1.8850843479341259e+00 -7.6095220714984446e-01 -9.7241385154968185e-01
  5.3883238192991678e-01 -1.9141890519762955e-01  7.6031428751280394e-01  3.1744146621138825e-01  2.6841037600402373e-01
 -1.5934286449846394e-01 -7.2194719649135330e-01 -3.8564638365360726e-01 -1.1169256235208103e+00 -5.7743237962297123e-01
 -1.7121947292367065e-01 -4.9577669932039831e-01 -1.4160554436812025e+00 -5.8102054221957911e-01 -1.3667704387918884e+00
 -8.5881968370999351e-01  1.0519719567579027e+00  5.0469831072635396e-01  3.6548077192470885e-01 -9.1206423074222442e-02
  1.4483262080958448e-01  1.0917817388616242e+00 -8.6755652612556466e-02  1.3788984839787410e-01 -1.3814690905607092e+00
 -4.7895660673558993e-02 -3.9533895180245082e-02  4.9384774216575250e-01 -2.4886372136552399e+00 -1.2983417414301313e-01
  1.1768968216068154e-01 -4.5838760525673095e-01 -8.4829700099414018e-01  8.4174120845469436e-01  5.5990631894654386e-01
  1.4624536950366090e-02 -3.8592500280270342e-01 -5.0341121070175943e-01  3.4957966218362324e-01 -4.9745134626623971e-01
 -3.0706186323278678e-01 -1.6809293689451066e-01  8.7951230139324849e-02 -5.9915088787990833e-01 -1.0210664640624632e+00
 -2.5820359179391106e-01  1.4646539642026207e-01  3.2689224183922672e-01 -9.3760997879912977e-01 -6.0322589816278127e-01
  9.1351946662925655e-03  3.9260300498900336e-01  4.2376912196132815e-01 -1.4389610099527722e-01  2.0580528521846519e-01
  3.4649644808530687e-02  3.6234674102363867e-01  8.6392792282926101e-01  1.1051793355021078e+00  6.2681356974329483e-01
 -1.1334795643596456e-02  4.5682610239640160e-02  1.0786264598395010e+00  1.3915324394104502e+00  3.8750512560960376e-01
  5.8619227431780474e-01 -2.0367777017343405e-01 -2.2547491589513960e-01 -1.2262799814078566e-01  2.8712903925523969e-01
 -5.5413057598515475e-02 -2.5761007555004706e-01 -3.2666997696340755e-01  9.8218102881990260e-02 -2.3960262534101823e-01
 -1.2581805641244720e-01  3.0208047232586060e-02 -1.5172734805667188e-03 -3.6259501671104266e-01 -4.8566802525728520e-01
 -2.6719235661788743e-02  2.7242392506721486e-01  1.8725411522022295e-01 -4.6040159747567333e-01 -2.7212662238924273e-01
  1.1718788666929260e-01  3.1905199126130035e-01  3.0712211980035453e-01  3.2896754718952870e-02  8.7143799000374098e-02
  7.5656870291151243e-02  1.5975193211746441e-01  5.3478294864279452e-01  6.8458244407516866e-01  2.1092775189601118e-01
 -2.8517956110460090e-02 -9.2790089510821322e-02  5.8220850030874538e-01  7.5649454797858928e-01  3.6040468227748104e-02
  2.0408547373739147e-01 -2.4834651478740435e-01 -1.0483600200880870e-01 -4.4055281830423287e-02  2.7915542795576592e-01
  1.9619776803679820e-01  3.7436672770111795e-01 -8.0807284867577905e-02  1.4878666534370258e-01  5.5733156933323291e-01
  3.0971716075528621e-01  4.2034941004798848e-01  3.9414409140033066e-02  4.8814080155356609e-01  3.4098904443320982e-01
  2.0328029962356525e-01  7.6832840238300087e-02  9.1226768626312599e-02  3.2095863044862094e-01 -1.7335347876067084e-01
  1.0681176500983444e-01 -2.8849285995577451e-01 -2.5076562147168485e-01 -2.2440171915042112e-01 -5.6890399513768053e-01
  4.9545490638418597e-03 -3.2852675048003183e-01 -5.6666262567314352e-01 -5.1213228742388484e-01 -5.4752462360983889e-01
 -3.9626731414162591e-01 -1.8966671730958115e-01  6.8211549602094412e-02  1.2996673507759340e-01  1.0453450250613627e+00
  2.4977488284680352e-01  2.0990375817265869e-01  1.0915006581601477e-01  9.1520711443786984e-01  5.5328617677312686e-01
 -4.6782723378281287e-02 -3.2763353988950994e-01 -6.6192585788767022e-02  2.9339691767993359e-01 -3.5719489893917811e-01
 -5.3781246390169485e-02 -6.5108601190210214e-01 -8.6917438369864086e-01 -8.1375633982049589e-01 -8.4029315051477593e-01
  1.1363779332202982e-01 -3.3023610618717164e-01 -1.3583147225304599e+00 -1.1182611220670409e+00 -5.5025536003117004e-01
 -3.3543318959040624e-01  2.5565728962952494e-01  3.6959370200895202e-02  1.9038556619384486e-01  1.8416482595364034e-01
 -4.3669383109586429e-01 -7.1040885767223527e-01 -2.6326940719703612e-01 -1.1316138111120835e-01 -2.7585944842397769e-01
 -4.3421980112142738e-01 -6.9351737372088273e-01 -5.8839872077907529e-01 -4.7684846508026274e-01 -2.9076974117053539e-01
  3.7234969928500485e-02 -3.3867695749397179e-02 -6.9368295870861396e-01 -4.1050552307158744e-01  1.3629762736244391e-01
  3.3865803314596798e-01  8.9475937055218568e-01 -9.8422519587489904e-02 -1.2079411104907432e-01  9.0540467810568195e-02
 -7.1249020474231750e-01 -3.8122618496991972e-01  5.4447567903457050e-01  4.9347182030405035e-01  5.4167840344796847e-01
 -3.9238131346709393e-01  2.1053042933219496e-01  1.2058037884471804e+00  8.2127122993074575e-01  7.3885243914327625e-01
  6.2089367130683981e-01  9.5729977460779359e-01 -4.3398232253782913e-02 -7.1874034283439447e-01  8.9841787103845760e-01
 -7.0228255827449415e-01  7.8309952786493872e-02  2.1898357361609513e+00  9.4139294455860578e-01  5.2558286441497148e-01
 -8.5933942540108638e-02 -9.6557689192201021e-02  1.9652302529848240e-01 -8.5557507913093556e-01 -3.2222301840794720e-01
 -9.6301236435282023e-01 -1.5287799327343452e+00  3.2450999823272886e-01  3.9895966997585719e-01  1.8103823107353753e-01
 -1.0811568571039227e+00  3.1216104415725962e-02  4.6472483913445095e-01 -3.5181434291418517e-01  2.6150004798245474e-01
 -7.4782298831042526e-01 -4.5313975759748860e-02 -1.3870642323431823e-01 -4.6369328417857084e-02  1.9117377513767939e-02
 -2.4406720551384872e-01 -1.9243043346138358e-01 -5.5450029800299017e-01  2.3465645167287366e-01 -2.1704108835785429e-01
 -1.9931512739034379e-01 -2.1358830468942674e-01 -7.6694615487961859e-01  6.5061645984099650e-02 -2.7214452551049817e-01
 -2.4420010814388854e-01  7.4919935876891733e-02 -9.1592630001230546e-01 -4.9569064727516643e-01 -2.4635352536371814e-02
  3.5007141135149528e-01  6.2765229109541509e-01 -6.7628892600812074e-01 -4.8932717253461244e-01  4.5927603761106989e-01
  1.0790474950593785e+00  8.8667238176310159e-01  2.2037367658735715e-01  8.3852721667979824e-01  8.0335864234843057e-01
  5.2098850018934950e-01 -1.4505945523951028e-01  3.3665103219381876e-01 -2.4114812794470109e-01  1.6238546139824661e-01
 -4.5796803783640455e-01 -3.8126570408212601e-02  6.7349461499695437e-02  3.1229383282147850e-02 -4.2952944522613994e-02
  4.5946711139213878e-03 -3.2867203664076305e-02 -1.9513685646727910e-01  2.4702363696650589e-01 -1.6232912396126861e-01
  6.4374013907887773e-02 -1.8345771874874350e-02 -4.7667684695222329e-01  1.3052398515933131e-01 -7.8043971386510091e-02
 -1.0418831994680287e-01  8.7565983508184078e-02 -7.5030200093923227e-01 -2.5943947342685475e-01  1.4640560904158825e-01
  1.1189849550184025e-01  2.8453165149931364e-01 -6.8830073665765357e-01 -3.5901889833674555e-01  3.2010660691345011e-01
  6.2265550797436897e-01  2.8778570529992542e-01 -1.0216014909514989e-01  2.7837666765080182e-01  2.7712236882740093e-01
  5.6281308315018885e-01 -3.1301897501850906e-01  4.2137366326918430e-01  1.5119187947550200e-01 -1.2552034061627818e-01
  5.1365570005699634e-01  2.6134933089535600e-01  4.7125422538143957e-01  1.7328110237418010e-01 -4.2425042690702457e-02
  7.3985882823795668e-01  3.6252199947320102e-01  1.2631117420243135e-01  1.5552651189647584e-01  2.1004595465077366e-01
  3.1366760473882516e-01  1.3168599904647513e-01 -3.1473177785731804e-01  1.5633487014792039e-01  3.4012144031802927e-01
 -4.4184798774803546e-01 -3.4469209946392110e-01 -5.9634888288057331e-01 -4.4557588581832432e-02  4.1821451223194542e-02
 -5.8947661171546584e-01 -7.6862588304859003e-01 -6.8317929593098170e-01 -6.3786777574620346e-01 -5.2633046892641822e-01
  4.0382429207834941e-01 -4.6412877294828325e-01  7.6778817554389478e-01 -2.7385634078573497e-02  6.3345913414702040e-02
  1.2557931710528749e+00  5.0710673300506193e-01  5.7366079470695364e-01 -6.4052673120632550e-02  1.1041369045927230e-01
  7.1957568442892872e-01  1.4944149635548262e-01  2.0485395421553421e-01  2.0379725460728149e-01  6.8392364245579096e-02
 -8.5398318183561028e-01 -5.5966458520382012e-01 -2.5601927487640347e-01  2.2343983143445251e-01 -1.0770169671163045e-01
 -1.7253118687856646e+00 -9.6048450654833473e-01 -8.1505699038356627e-01 -6.1813447096455243e-01 -3.7319478571333764e-01
 -1.6074779526011562e-01 -9.9660371144143903e-02  6.9246888878219015e-01 -3.3230715441900371e-01 -3.4220822621746527e-01
  4.4975354899156550e-01  2.9279616501820611e-02  5.6317494224217757e-01 -2.4341605771984431e-01 -5.2654901403615695e-01
 -6.3719214519638301e-01 -1.2902893713735744e-01  2.0385233435395819e-01  1.8416779563385627e-01 -3.7811084508164047e-02
 -1.4087154139849960e+00  2.0223091309867387e-02 -2.4649420524548432e-01  3.9441951867763370e-01  5.8130750890720007e-01
 -5.8260569821573860e-01  4.6822027478182676e-01  6.4071095964684588e-01 -5.9923668046428646e-01 -6.7015667568236681e-01
  1.2897210034906159e-01  6.2179643542641194e-01  5.7970667540143106e-01 -1.4801008881823791e-01  2.6926447636306913e-02
  5.1446731371042043e-01  1.0599858521713683e+00  6.3790708270362528e-01  9.5614573237301970e-01  7.5730412836897609e-01
 -3.9288381135857531e-01  1.9418873736168535e-01  9.2270415258524963e-01 -3.6684276556178941e-01 -2.0517703252051403e-01
  1.7114821183867006e+00  7.6723072690173411e-01  1.2547080559763912e+00 -1.0047837901142502e-01 -6.4229885925193841e-01
 -2.9472637535520052e-01 -1.1696484983111224e+00  1.1346738932584068e+00 -1.8843940083054753e+00 -1.9045151579680146e+00
 -1.1570043812111130e+00 -1.7947894522211134e+00  1.3049897870394958e+00  2.7593202973407216e+00  7.4307745630881783e-01
 -3.2147453630892198e-01 -6.5252423499380918e-01  2.1262400776180179e-01  9.2906568738364470e-01 -8.1492886325384273e-01
  7.1228774640533610e-01  3.5684942035529393e-01 -3.2567675561471887e+00 -2.0370669857717463e+00 -5.0155569375197118e-01
  1.1523125788396988e+00  1.0967855531543047e+00 -2.4384002467625052e+00 -2.2185836111489756e+00  8.1552516867551361e-01
  5.2606469890916407e-01  5.9763566811770619e-01  1.4136353624318527e+00  2.4275272132200243e-01  7.8019298041993246e-01
 -3.7382112375153409e-01 -9.7954269512242231e-01  2.8816844309723741e+00  1.8874179595938418e+00 -7.0238278257154008e-02
 -4.2803322363358332e-01 -1.6597665598796554e+00  1.5056966128135727e+00  1.0434292899725115e+00  4.6003050488961428e-01
  3.8943650018633230e-02  7.4002778690278892e-01  1.7770794807318175e+00 -1.1941447161957264e+00  3.6253733617114214e-01
 -1.2395326756521252e-01 -3.9330530859632140e-01 -3.2801512310261227e-01  2.2892027612652477e-01 -1.2334111211388787e-01
  2.6060520928957187e-01  2.0164632163617280e-01 -9.4579080534142257e-01 -8.5750932904232613e-01  5.5180400360480775e-02
  4.2561261665869066e-01  6.5136719865474557e-01 -3.5908759054513695e-01 -7.7455097411844775e-01  3.5944558999959852e-01
  2.2401538201072929e-01  4.7301471573785381e-01  7.2686454248639087e-01  3.4221335076618864e-01  2.6321000918538395e-02
 -2.8549477959138619e-02 -2.9437911153157742e-01  7.9418607925857110e-01  9.7884494136862266e-01 -1.6018962267367876e-01
  2.3596866744734858e-02 -8.0456424795876424e-01  2.9993898543170872e-01  4.3962110111676189e-01  7.2738923537142197e-01
  1.1423543188801008e-01  2.9315736604108706e-02  8.5877549586151236e-01 -6.1065333408409206e-01  8.8557653398061809e-01
 -6.0079638419554093e-01 -1.5029596101482973e-01  2.6691115413732174e+00  1.1643696662087706e+00  6.0970637287627127e-01
 -9.0664108570237656e-01 -3.1209554091547748e-01  2.5718843089697252e+00  1.6251231057937652e+00 -6.6813215708414209e-01
 -2.8136928618519164e-01  1.3197289086156860e-01 -6.6574333581302803e-01  4.0425433625057838e-01 -1.1490185098092491e+00
  5.6979267005675682e-01  8.9147133496692210e-01 -2.3447078582113789e+00 -7.3642597050122038e-01 -1.5545461619603795e-01
  6.6771353670436528e-01  7.4603498946531221e-01 -1.2822951856601073e+00 -7.7199055928690719e-01  9.7273076049508478e-01
  1.3045510799097307e-01 -1.2010904530201754e+00 -9.2644412702519130e-01  4.3577549462055032e-01 -1.7481428072849781e-01
 -1.2905802188731426e+00 -8.7814618861937799e-01  1.7603275337033111e+00  1.9274485670376684e+00 -1.3006027410283778e+00
 -3.2679020846235823e-01 -2.9899011603297898e-01 -1.3390363833537222e+00  4.9862060464224811e-02 -9.5721422117522448e-01
  7.0569690630575221e-01  1.0139233172904272e+00 -1.9907090692528513e+00 -1.5661766256227398e+00  2.2751695556800300e-01
  5.2458886751371081e-01  1.2649461502302761e+00 -5.9657745892609881e-01 -1.3756067534513328e+00  3.6231598495845407e-01
 -1.6763610206840121e-01 -1.2827334872660472e+00 -1.6615703278748555e+00  8.1712525553031412e-01 -6.7213734517213730e-01
  1.1183318290962548e-01 -5.2574028855276966e-01 -4.9517516928167016e-01 -6.4062810994770381e-01  6.1571169887737354e-01
  3.6833437935169094e-01 -2.0068256695631692e-01  9.7274988823479625e-01 -1.0250073640034500e+00  6.4883688485762558e-01
 -1.0431925938017381e-02  4.5694956661383596e-01  1.1456167067563872e+00 -5.7740988427888418e-01 -8.3647236349079535e-01
 -6.1359800186213709e-01  9.9828464595966629e-02 -4.9385882083009136e-01  3.7792790578381563e-01  1.6203709550351744e+00
  1.8862204124171053e-01 -1.1842848182133527e+00  2.2052968394935277e+00  2.8576456386167770e-01  6.0871334249983278e-01
  1.9496434681746577e-01 -4.4050490096417022e-01  1.2465866595652528e+00  1.3107678657293107e+00 -1.3557571424179791e+00
 -8.6840470697636774e-01  1.1553333013137115e+00  1.3958593792123475e+00 -3.1255003405122217e-01  1.4046490454569227e-01
  6.8478524896169279e-01 -4.5375725131168199e-01  7.1343808749447390e-01  2.3258596114964085e+00 -7.6977289533582649e-01
 -8.6486295327045137e-01  3.0227199619137013e-01  2.0069302019941215e+00 -9.4709247134973484e-01 -7.5817390498062265e-01
 -4.6671561746521345e-01 -5.1997630290218910e-01  6.1933418143885266e-01 -1.0611125789187619e+00  1.2172023649514436e+00
  3.6537628377124776e-01  4.2206914004978835e-01  3.8331152249175451e-02  6.7005698033464434e-01  8.0222338930351000e-01
 -2.0691168432532328e+00 -9.4687324490364044e-02  1.5809596522245140e-01 -2.1323071931558530e+00 -1.5762784119011055e+00
 -1.5088893095938936e+00  1.6988556349046705e-01  4.3916779617026391e-01 -1.0037213085633638e+00 -1.2559977552352990e+00
  9.7453661532428626e-01  5.4692801904413813e-01  5.9322752578457294e-01  2.0958345598579378e+00  7.4276981502193351e-01
  1.7473637666519442e+00 -5.8676871295286141e-02  2.5699616472260323e-01  1.9392952315145848e+00  1.3540508006155196e+00
  8.1620603536839553e-01 -8.7271000199773785e-01 -4.8035895953756547e-01 -6.6263411361975244e-01  1.0089092191664086e+00
  2.3558553080652533e-01 -7.1425162690605948e-02 -1.0023680379809325e+00 -1.9264212025801619e-01  9.9589853991247601e-01
 -4.6299615739142652e-02  3.1208406916454617e-01  1.3231317107976975e-01  1.9948630688393187e-01  3.1253716524587283e-01
 -4.9550261504992132e-01  1.4659008406197199e-01  2.8008572964950623e-01 -3.1067662719514466e-01 -3.8503975632725318e-01
 -1.0656043413737848e-01  9.8567510584492521e-02  2.8749707181988854e-01  1.8345824528334731e-01 -2.7685656484992549e-01
  4.0933688608792806e-01  1.5607192031204505e-02  1.8181637940991996e-01  8.2636632362017437e-01  2.6390472861119108e-01
  1.8847942087507330e-01 -2.0050661694835331e-01  8.8598219250360183e-02  2.7656303260039827e-01  3.9493373949563981e-01
  1.3428561042862430e-01 -1.5606627065545572e-01 -8.6107855700100419e-02 -5.9494272346059063e-01  4.7951569578645703e-01
  6.8529832314461636e-01  4.3233236385861767e-01 -5.1371884302011872e-01 -7.7946869882072889e-04  7.6339414310727438e-01
  1.9843176205867088e+00  2.9505388673797589e-01  3.3355960995218037e-01  2.2179032010703974e+00  1.3221274974278048e+00
  1.8554285846652609e+00 -2.7806454313626777e-01 -1.5138442943148034e-02  1.3649641655280718e+00  9.9771793521724739e-01
 -6.8464673834698520e-01 -8.4936772359093538e-01 -3.7861798049770490e-01 -1.5186786501326903e+00 -5.6682334005021762e-01
 -2.1512357359362815e+00 -2.4974455495989353e-01 -1.7243196573106451e-01 -1.9436541793669981e+00 -9.9619354432204954e-01
 -8.4894084840114381e-01  1.0113501750260883e+00  3.1616963505548845e-01  5.1345214626515201e-02 -4.6090232174089962e-01
  1.0825168614802994e+00  9.7207401066766430e-01  1.3591132204504155e-01  2.9079246058400621e-02  2.6710123455881529e-02
  1.2588569799482947e+00 -8.6713493906780881e-01 -1.9819692219532706e-01 -2.1917291404737682e-01  4.9738856080330862e-01
 -9.5857012151560994e-01 -8.6242551658829691e-01 -1.9392253147365560e-01 -2.2718303538509019e+00 -7.4022112741531210e-01
 -1.6508913920129533e+00  1.4452136095608634e-01 -1.5994304820686261e-01 -1.0899571391285470e+00 -8.6113029701935773e-01
 -7.2567505594717652e-01  9.9826852620819062e-01 -1.7716771915671922e-01  1.1829239457175191e+00 -7.9505092292903612e-01
  2.1416058238802105e-02  2.9313244475330602e-01 -1.8166887686677330e-01 -4.2053135352221815e-01 -8.1557872645821483e-01
  1.9235700080250240e-01 -3.4345464559670316e-02  3.2418566322375653e-01 -6.9620243508408031e-01 -1.7343333189866428e-01
  1.2244513799362535e+00  4.0553871278159581e-01  1.0259468242385511e-01  1.1955023383480921e+00  2.1975342092724315e-01
 -3.2349262691540481e-02 -2.2360070406865054e-01 -7.6261286381222371e-01  1.1891840331472885e+00 -2.0558078876795172e-01
 -1.9064122730212056e+00 -8.4446263882988859e-01 -1.1213493381185269e+00 -1.4745532450103127e-01 -8.1767312137154224e-01
  2.3443589646302270e+00 -1.5418378446361306e-01  2.4763761775612636e-01  1.0458140383785306e+00  8.5866419927598514e-01
 -6.7785992401377171e-02 -9.2391988426288207e-01 -1.6239209787780973e-01 -2.7056326669812236e-01  1.2530778153763773e+00
 -2.2227676447176621e+00 -6.4105446465226334e-01 -1.4594754778213481e+00  1.6143233945814242e+00  2.4197263245580025e-02
 -3.8252968448580260e-01 -7.7197118706374052e-02  6.4747396563894954e-01 -2.6123861031091167e-01  2.7093370265845458e+00
 -3.6105509431510363e-02  6.2649383123943025e-01 -7.2524045459228292e-01  2.6430795984761346e+00  1.6367075145084886e-01
  1.1237941881931293e+00  3.5527437467030265e-01  1.1916094116980462e+00 -2.0624600883257349e-01 -8.6255188911628178e-01
  1.9891622278657639e-01  2.7725868263281550e-01 -5.9015380864990953e-02 -6.4679915162864532e-02  8.7095337844397491e-02
 -1.1933913313149991e+00 -6.4524856382950635e-02 -7.1149174978598029e-01 -1.1441577196655892e+00 -1.1113675013921576e-01
 -7.5648022110671143e-01  8.0688355425664313e-02 -2.5910606219629784e-01 -7.6144491977212780e-01  3.6244057085462700e-01
  6.1052678114207204e-01  1.7975324657796837e-01  7.0214323747324869e-01  2.6571096572482666e-01  6.6935232390490995e-01
  4.2460358304377566e-01 -3.8486584048549999e-01  5.4503611966603538e-01  1.4363012033538602e-01  1.2870089728728829e-02
 -5.1946521318510541e-01 -7.2697686301701192e-01 -5.6186593229191406e-01 -5.3806609533871708e-01 -6.4316379326846373e-01
 -3.3107702223904800e-01  4.6218373864874512e-01 -2.3402945825168045e-01 -2.4288176237644965e-01 -6.1048870148368817e-01
 -1.5290566937329331e-03  2.1234715591739325e-01 -7.8884346089926005e-02 -8.4406445909420036e-02  1.7176696731805396e-01
 -4.2032535423057338e-01  1.2891140299790660e-01 -2.5433163838623742e-02 -5.4294060915688114e-02  3.6491200803004631e-01
  7.7040778088779405e-03  1.0288434408621798e-01  1.9205482121070258e-01  2.8332309510371800e-02  4.4462990214262632e-01
  5.1180742306249272e-01 -4.4230993739573066e-02  3.3600295860682711e-01 -8.4253791664596456e-02  1.6705970599687525e-01
  5.0507842583573215e-02 -3.3009790072364598e-01  1.0544987607157380e-01 -3.6885396135406179e-01 -3.2705886752880220e-01
 -5.4110764281807811e-01 -2.5552629868807358e-01 -2.6786663409156120e-01 -2.7999216339530975e-01 -5.2621395394939796e-01
 -2.8475623260114102e-01  4.8715835583419176e-01 -3.0734331972065224e-02  1.9885812959171068e-01 -3.6442583514843285e-01
  8.2670391343586114e-01  3.0927913667697687e-01  9.9271824755131099e-01  1.5084197524613234e+00  8.7705763005495774e-01
  9.2501006692687771e-01  4.4909934630765289e-03  8.1213202613258895e-01  1.1330521888467544e+00  3.2763579262997489e-01
  1.6963828387652313e-02 -3.9014287169204442e-01 -2.5219090726738608e-01 -5.0934351467823102e-01 -5.7596711386708010e-01
 -4.9446070820482341e-01 -1.6465962683182112e-01 -5.7583261654666074e-01 -8.9964995282072202e-01 -6.2762829135721754e-01
 -2.6426699317676494e-01  4.0315503811860126e-01  1.0616119655627927e-01  1.6573362439539174e-01 -2.7132968529920820e-01
 -9.1281344595678382e-02  2.5015682025361829e-01  5.5252047824317564e-02  7.0603623752389977e-01 -5.3907209378327714e-02
  3.2684896209138437e-01 -2.8404176034075257e-01  5.4060881491328727e-01  8.5651551927175618e-01 -2.1375895402582401e-01
 -7.2114360327247962e-01 -3.5544326455992481e-01 -3.2997737224174706e-01 -1.8611365849417538e-01 -5.1624185358460117e-01
 -3.7240043505677478e-01  1.4156321451947772e-02 -5.6974415862357197e-01 -3.4214059862082635e-01 -2.3405154285787599e-01
  4.2433331466505830e-01  1.8987881236751897e-01 -7.0649276969312780e-02  1.4999722837125518e-01 -1.6323262937072691e-01
  1.4871243703718706e-01 -4.1229714327702044e-01 -4.5559434997051196e-01  3.3658514026712538e-01 -1.2514416810988838e-01
 -7.3383665950715038e-01 -2.2317010476820928e-02 -3.5775590158424353e-02  4.5514971333640863e-01  1.0567364854147776e-02
  2.0833110277615802e-01  6.4701794770285134e-03 -1.9489610381790451e-02  3.2553801243428815e-01  1.4653099978641393e-02
  6.2367129343167438e-01 -4.7255212700370847e-01 -3.7670263367216816e-01 -4.1948050605800358e-01 -3.3634060119526499e-01
  1.0577659632327818e-01 -7.1986747188861455e-01 -8.4389199762799816e-01 -1.9725807891790970e-01 -2.5944784613672311e-01
  3.2335735448866632e-01 -1.7238072428721743e-01  2.4301535219842657e-01 -1.3706887750199925e-01 -4.0253177142436991e-01
 -1.3528032336728546e-01 -1.9748995704317671e-01 -7.4427941836385236e-03 -6.0616893250839965e-01 -3.3969764596373775e-01
 -1.2797178431809375e-01 -1.5459856786059696e-02 -4.0860061170205225e-01  7.6349207933418484e-02 -3.2435190116299939e-01
 -5.8688330612913120e-01  9.4245112550108401e-01  5.8466361658932431e-01  2.2249916005441150e-01  4.7024304861952970e-02
 -6.2642465583219176e-03  7.1228838231871194e-01  1.0649845692037142e-01  1.0045910438244920e-01 -7.9565637108147946e-01
 -1.4683142455410197e-01 -1.6193940589522612e-01  2.4446379642997915e-01 -1.7378714602717948e+00 -4.5067814142281049e-01
 -1.1151595744916870e-02 -2.4243742869954141e-01 -2.1120038572930061e-01  1.6320292603070094e-01 -1.8494778773849696e-01
 -5.5179544937365578e-02  7.7287323921108597e-03 -4.0303824549309170e-02 -3.2270296693607864e-01 -4.5215023853786684e-01
 -1.2066288066201195e-02  2.2033381119886666e-01  2.0002161995255650e-02 -4.6759691268797410e-01 -3.2344947531634599e-01
 -4.0488877015262617e-03  2.4153581340081590e-01  1.4713743330206711e-01 -3.4315281730698914e-02  1.4131101277676581e-02
 -1.2515801792005218e-01  5.3596300818318371e-02  5.2190997157889008e-01  5.7988059392809288e-01  2.2196858142003814e-01
 -1.4429379767649311e-01 -1.8725440373202479e-01  7.1207157894744200e-01  6.6525898292790797e-01  1.1523351870557044e-01
  2.8858836344100430e-01 -2.2218371110110829e-01 -2.0777174477203786e-02 -1.1743296199802022e-01  1.5925540015511414e-01
 -3.1987195157274960e-02 -1.4970260363669149e-01 -1.4375773992023219e-01  3.4299573255467918e-02 -8.0109205992131713e-02
 -2.5299911146786282e-02  5.1958296181226875e-02 -2.4852815164569969e-02 -1.9349979211507870e-01 -2.2202680712765718e-01
  2.4073170482223020e-02  2.0086140912299388e-01  4.4831289514211975e-02 -2.2154387935881531e-01 -1.7122593817242218e-01
  4.6023166597934567e-02  1.8553538069157377e-01  1.2689610531120743e-01  4.4855482561823624e-02 -2.8165759002755184e-02
 -2.0135637044269211e-02  2.4081937505798838e-02  2.9432577483641709e-01  3.5847688550679985e-01  4.7634247470829894e-02
 -6.2266508310274277e-02 -1.5780036256478364e-01  3.5148948638513133e-01  3.5970216527086835e-01 -9.8448530398220872e-03
  1.0758471218568161e-01 -2.0689726592593546e-01 -2.1057579781343320e-02 -4.8320758103094517e-02  1.2944220081678753e-01
  2.4519902273771495e-02  1.2187314294035829e-01  5.0513855993893443e-02  8.1435596490177856e-02  2.3406977668367521e-01
  5.0394921763658333e-02  1.1188456003400975e-01  1.5216154026812503e-01  2.5577889489400668e-01  1.2421901608107574e-01
  8.6640295276518869e-02  1.4599072326799731e-02  9.0330753175647871e-02  1.6084920131672384e-01 -1.1132163111050059e-01
  1.5334080029498476e-01 -6.7645098869972831e-02 -2.1916320468080064e-01 -1.1608387429307751e-01 -2.7141348025998929e-01
  1.2096890348378521e-01 -6.8277574114713704e-02 -4.3345785751902394e-01 -2.4277975490564674e-01 -2.0771213541339692e-01
 -1.7568210763262931e-01 -7.2965332005032052e-02 -4.3300719133406086e-02  9.4989459488688241e-02  4.6377895431717692e-01
 -8.2741492124429657e-03 -6.7190783223229536e-02  2.5495588184653961e-01  4.4677050818535557e-01  2.6477486294792729e-01
 -2.5755460649871616e-02 -2.3464412945672464e-01  3.6238698496556351e-02  1.1366440069781585e-01 -1.3877079143184176e-01
  1.2378872389035277e-01 -2.0509373216585225e-01 -5.7395322953795469e-01 -4.1735856524138448e-01 -3.5479089893550320e-01
  2.1920607981939277e-01  5.9359362533830735e-02 -9.0176762787171216e-01 -5.1781504978845161e-01 -1.8050412596584717e-01
 -1.4692457590488431e-01  2.6902765746389001e-01 -8.7629376728640587e-02  1.4045842846905318e-01  1.4861886579962991e-01
 -1.9860706328084299e-01 -4.1405244803695518e-01 -1.1259337486134775e-01 -9.4907955771738731e-02 -4.1435883920786676e-02
 -1.8802717442234534e-01 -3.0884474370214854e-01 -3.4818969812646899e-01 -2.4203794572947418e-01 -7.3340655482794490e-02
  3.3173290302086607e-02  1.3833821047228559e-01 -4.2301605427215372e-01 -1.8058634144261873e-01  8.8110701725756371e-02
  1.6153854260913861e-01  6.1416660611888618e-01 -7.5191484601983119e-02 -6.6697907677114893e-02  1.5184906970940942e-01
 -4.9834223781165482e-01 -2.4921337383143760e-01  3.5252779604148182e-01  2.3712300437601874e-01  3.0968017793728175e-01
 -3.7857576542074950e-01  5.2400487851080160e-02  7.3582448316302129e-01  3.6964586690284396e-01  2.8365783866226513e-01
  2.7016960506761362e-01  5.0382927989838622e-01  4.8618850668346300e-02 -4.1651208091910774e-01  4.2019780304019938e-01
 -5.7156528408886287e-01 -1.7736439313888194e-01  1.2939123587788210e+00  3.9091298885648973e-01  1.3997472470220126e-01
 -8.5028774716016220e-02 -2.4784472030792448e-01  1.9277414130051954e-01 -4.3111351631506400e-01 -2.2897890614885114e-01
 -4.8701021234806680e-01 -1.0565637420456477e+00  2.2023905745942313e-01  3.4465953603481142e-01  9.9477391969319442e-02
 -3.6661291581263233e-01  2.8565262410337591e-02  9.5376433756069415e-03  6.1283853921935791e-02  3.4947407025421262e-02
  6.5333736989809349e-02 -4.6023668623723590e-02  2.9271766239455724e-04  2.1556764988561042e-01 -1.4525428854553524e-01
  5.4522252334948534e-02 -1.6794418861802962e-01 -1.5296322624492198e-01 -9.7930716921012162e-04 -2.0350699229614738e-01
 -1.8049036043044947e-01 -1.0015361110606685e-01 -3.1094460672713614e-01 -3.6262342749373694e-01 -4.9639475345738600e-02
  2.5768325528755655e-02  3.2945868430794339e-01 -1.9994317000895173e-01 -2.5707302292941936e-01  2.2369260663520885e-01
  5.4220919233592313e-01  7.0926614582806535e-01  1.4888055041093248e-01  5.6851385419093969e-01  3.4260073567650851e-01
  3.8839404771102148e-01  1.3418002766661274e-01 -7.4479344155162410e-03 -1.5105660369475477e-01  1.2142571722998929e-01
 -1.9989225256614618e-01  2.3409161681193669e-02  8.1583730630281154e-02  4.6498000386621025e-02 -3.6010555150541988e-02
  5.7094496344842316e-02 -1.0884064724368309e-02  6.8983947908957247e-02  1.6171989349405050e-01 -1.2009528061421106e-01
  6.0439210668501518e-02 -6.0573566628033683e-02 -1.0606383262918494e-01  4.9545584407232730e-02 -4.9599367425378557e-02
 -8.1995717047757058e-02 -2.1235102685875168e-02 -3.0132654980643947e-01 -1.8290007091882737e-01  9.9878788263443596e-02
  1.1695367728971253e-02  1.5268805787070402e-01 -2.7335181272397968e-01 -1.9054835322336378e-01  1.6639508017675025e-01
  3.1228243040865794e-01  2.4506963780305496e-01 -1.7263687673834197e-02  2.1142292032876370e-01  6.3319378226705011e-02
  3.0606251099276677e-01 -9.0321101507183379e-02  2.0069434448023221e-01  2.0481134979172793e-02 -1.2921299832930883e-01
  9.4134066783164938e-02  8.8702020332284817e-02  1.9367541760292431e-01  3.1037428946375054e-02 -5.0681456597266257e-02
  1.9463247946737472e-01  1.8900100261331851e-01  1.2771528533096294e-02  9.9052361450540027e-02  1.7696877647748110e-01
  1.7072531517568176e-01  1.2697230015320082e-01 -2.2461665779368117e-01  1.3007067411344983e-01  2.7902868978132678e-01
 -1.0001973832421275e-01 -2.1507035496795940e-01 -3.6759410923214081e-01 -4.0788485731579165e-02  5.0255755132290386e-02
 -2.9620297589820099e-01 -6.0187505142774045e-01 -3.2955139370527686e-01 -3.9768801453170299e-01 -3.2266466000693583e-01
  7.0673923700946675e-02 -3.8382234312620545e-01  2.3764810040232331e-01 -6.1493194229230649e-02  3.8204523803492964e-02
  4.5014353435645771e-01  3.5613564947700610e-01  1.5821065977652943e-01  1.5472628261392131e-02  9.8627028626822960e-02
  3.7444397073627200e-01  1.6098720424198071e-01 -1.8804921616461301e-02  1.7759641290994257e-01  8.1883907322950422e-02
 -3.0103242275779002e-01 -4.0792360531225647e-01 -2.6865887047592402e-01  7.3905578662857893e-02 -1.7293616040873701e-02
 -8.4834669623901859e-01 -7.9876035612896834e-01 -4.3366620445313858e-01 -4.6449677609656570e-01 -1.3286984399410223e-01
 -1.8994395025112565e-01 -1.7811653768368546e-01  2.7207322399451161e-01 -1.1787503698993244e-01 -2.4646824557904401e-01
  2.1815932903104235e-01  1.0526816402026778e-02  2.6039218259120583e-01 -9.8033809459645668e-02 -3.7749583600604769e-01
 -3.0142076115880334e-01 -1.3235117898173479e-01  5.6504875064364107e-02  6.3910359227834362e-02 -5.2135639576050916e-03
 -6.3157684017207660e-01  7.4811684267064287e-03 -1.7495023300980400e-01  9.8093924619391801e-02  4.5299535927926782e-01
 -2.4593009364964746e-01  3.3776270067451891e-01  4.4769137615166915e-01 -2.9271462059988607e-01 -5.0220700000915686e-01
  8.6073874793743149e-02  5.4309096806596668e-01  4.3129088824471135e-01 -2.4530870132140972e-02 -2.0429176034986462e-02
  4.0066442647825651e-01  1.0012585748371297e+00  2.7837913630194544e-01  5.0501755743633558e-01  4.7629502677163499e-01
 -1.1676242458356713e-01  2.8213848352983245e-01  6.5853741031839985e-01 -3.6817327698490131e-02 -1.8682706685599978e-01
  9.7765452679004361e-01  9.2582173788352318e-01  6.1147870307187868e-01  8.8013400238510509e-02 -4.1888742561052977e-01
 -2.0223505317936991e-01 -6.3830954764391201e-01  5.5130934254570019e-01 -7.4560562694133070e-01 -1.0939363852752686e+00
 -6.3962537656628604e-01 -1.1941695934972034e+00 -1.8572610264967127e-01  9.2028205003184205e-02 -2.4418411425814401e-01
  3.4361033295475535e-01  3.9618796306687221e-01 -1.0217909543670700e+00 -7.8150288401254819e-01  2.0543195694063598e-01
  5.4952670685754157e-01  7.2339330253850154e-01 -3.3234040865681180e-01 -6.5623979622244377e-01  7.5428389689022612e-01
  2.1231876125897409e-01  1.4167518312689406e-01  9.0762078095660570e-01  3.0743578690878870e-01  5.7973313723389830e-01
 -1.7886911176344283e-01 -8.3849117025428865e-01  9.7259356809480124e-01  8.3089319071223944e-01  8.6947997680457689e-02
 -8.4053728445388234e-02 -9.4664882275844742e-01  2.7755151262437394e-01  3.2964948757946821e-01  1.0347321305693047e-01
  1.8495897140996337e-01  6.4628158683096637e-01  6.0731188900770583e-01 -8.1084800061478290e-01 -7.4724265654758426e-02
 -9.1342319241975070e-02 -2.0081067599899768e-01 -3.8960814314769054e-01 -9.6199879515147302e-02  2.8032645188022398e-02
  1.3239170187453231e-01  1.5063605182885859e-01 -2.4036763887565371e-01 -3.2777968902860133e-01  2.9816296457875779e-01
  2.1186169454412690e-01  3.5945647927318647e-01  2.0597634004279630e-01 -1.3123884421996657e-01  3.9935681125029010e-01
  8.9852119886645654e-02  1.8865110864730772e-01  5.0117447312783403e-01  3.3603831618142221e-01  1.3162833927344930e-01
 -1.8974517348854809e-02 -2.4232423317354199e-01  2.4108772520173449e-01  4.7047796925279295e-01 -3.4271286698528414e-02
  6.6688666906897967e-02 -4.4382469461671548e-01 -8.0048724019547102e-02  6.5425126872217021e-02  2.4628762179560337e-01
  1.3857870958224752e-01  6.9063661307216667e-02  2.3140642665281286e-01 -5.1526756311855593e-01  4.0634495441808793e-01
 -2.6578023039419985e-01 -2.8837854962699982e-01  9.3979139120900257e-01  4.7741172586747105e-01  2.3241139971572888e-01
 -3.9915192663305987e-01 -3.3744255421670621e-01  8.0899011867854753e-01  7.2306248865866696e-01 -3.6868572156056811e-01
 -1.1051301099328419e-01  2.0246456993545564e-01 -3.2910529854631765e-01  2.7607991913967211e-01 -6.2363493203379849e-01
  2.5346493770696760e-01  7.6326103459707606e-01 -8.3325442598759558e-01 -2.8583952637992427e-01 -1.9358235883437613e-01
  2.5564649775357118e-01  4.5698425266782922e-01 -4.6488516876897634e-01 -4.6851660227823277e-01  4.1672110759005876e-01
  3.1843601091516649e-03 -9.0250873699619949e-01 -4.6524080224849174e-01  1.0150882048824905e-01 -3.2219961271192421e-01
 -5.6070037579924115e-01 -5.7469023243221984e-01  2.2249785030765779e-01  7.5700048234629769e-01 -8.5187511103737368e-01
 -1.1896151169958909e-01  4.6161936495281788e-03 -7.6856748547036435e-01 -7.6444644131182571e-02 -6.7002118998620586e-01
  3.0215042178217560e-01  8.1603458744773194e-01 -6.5250656584550626e-01 -8.1672424734363602e-01 -8.4480928032548697e-02
  1.4384833266888802e-01  7.1641636903092387e-01 -5.1833037790636638e-02 -7.0262352917323767e-01  2.1970326925177375e-01
 -1.7244054003542486e-01 -9.2414810195520758e-01 -6.6972100133369850e-01  5.4649259199800682e-01 -5.6119743129172495e-01
  5.7126130308120492e-02 -2.7993643607913077e-01 -3.6923345585804501e-01 -5.7789310240368419e-01  1.2707718094676670e-01
  1.3107322241054520e-01 -2.5097369370202749e-01  4.1210524740572474e-01 -7.2525400733612866e-01  2.5373074839883802e-01
 -6.0348535818219390e-02  1.6016900992666494e-01  5.9955532215841156e-01 -2.0683755318589903e-01 -2.5643230454501187e-01
 -2.9748498750537067e-01  1.7864060079604460e-01 -1.0730792813297696e-01  5.6360925848503696e-01  8.0780073945933550e-01
  5.2860777066531701e-02 -1.0647752795299610e+00  8.3587920164924689e-01  1.8039560630776830e-02  4.9359051885261729e-01
  9.0758068003952225e-02 -4.1508927168606291e-01  5.5270381875860863e-01  8.3657022735565967e-01 -4.8657124538192387e-01
 -3.5539440043724596e-01  9.9369979499038319e-01  6.3356017534414377e-01  1.4286300904374216e-01  3.6843256361630239e-01
  3.2638164345559662e-01 -3.2667140664655148e-01  3.3297791966471735e-01  1.2883544793473618e+00 -3.1584249007178267e-01
 -3.9652761320055652e-01  3.5313228482240278e-01  7.8324863076141238e-01 -5.6328809282278680e-01 -4.7813559516835352e-01
 -2.6301430242322299e-01 -5.2087878813807698e-01  2.5886057048572275e-01 -9.1141578785495270e-01  1.4282259372996986e-01
 -8.1292482725387316e-01 -6.5715793783253290e-02  1.7606122452241219e-01 -9.5415850681976977e-01 -4.2669215298052521e-01
 -5.5953322100401337e-01  5.8894276564822642e-02  2.4861755711372674e-01 -3.1975516836655515e-01 -2.5929617579121533e-01
  3.7625939448399315e-01  2.5504909106847956e-01  1.7032616502705897e-01  1.0048601443871226e+00  3.3013231374257934e-01
  6.6678795449729233e-01  4.4471262545458398e-02 -5.1830482352060100e-03  7.9283555227024038e-01  4.0177808965186657e-01
  4.6915263370141336e-01 -2.6427862927174423e-01 -1.9215408638352804e-01 -3.4644010653045143e-01  3.2996062799900194e-01
  3.2584546802034842e-01  5.1232112337931318e-02 -3.4396300322200096e-01  8.3071639163656563e-02  2.6612055825699343e-01
 -4.0728262588241471e-02  1.1726362829318225e-01  8.7454758738336177e-02 -5.4735563736359794e-02  9.4654789212047064e-02
 -1.5775144445452360e-01  5.3804449601131274e-02  1.6413423916622699e-01 -1.3660535458207157e-01 -1.6199499360700642e-01
 -5.3344589494388472e-03  4.9195023149695642e-02  1.2323550236147406e-01  2.0119497367444694e-01 -7.1872318326931861e-02
  1.2182073119905468e-01  2.9867682908060397e-02  1.8847321975382570e-02  4.7762575657611350e-01  1.9986756782829662e-01
  1.3753901578845151e-02 -5.3496345218727273e-02 -4.8875149523622055e-03  1.1733458751597148e-01  2.7983616675099121e-01
  1.4243931444222291e-01 -3.0031517638001916e-02  1.0335808215263566e-03 -3.3893981308577459e-01  2.6127769728109396e-01
  4.5130473265709758e-01  2.1233281451593156e-01 -1.6646951940492299e-01  2.0463837619377756e-04  1.6269547801080586e-01
  8.5947150157304553e-01  1.5120423129259913e-01  7.8056892476240744e-02  1.0178227414479712e+00  1.8184670687040727e-01
  7.6502875478234378e-01 -7.6066141784796287e-02 -8.5734820396185740e-02  6.9390398143415410e-01  9.4916530712310987e-02
 -3.2727880240007412e-01 -3.4488480574183694e-01 -1.5002495497979712e-01 -5.4706159994893344e-01 -6.7114397931239189e-02
 -9.3655467713070450e-01 -1.5013235685256973e-01  1.0418768378053528e-02 -7.8771973046900889e-01  9.6687600060381573e-02
 -3.8046992413573522e-01  3.3677529665565009e-01  1.8616322309614222e-01 -7.5052499415427576e-02  8.5971443991432750e-02
  4.3592400729596770e-01  3.4583783988318689e-01  3.1002058882610241e-02 -2.4576613021897753e-01 -8.4672484378110813e-02
  5.2898623133783218e-01 -3.2500665728256484e-01 -1.1598133932279206e-01 -6.3230778383179143e-02 -1.2039034427203887e-01
 -3.3262613180933975e-01 -3.7031844002738257e-01  1.4000782770275111e-02 -1.0021653346404147e+00 -2.5173065458931010e-01
 -6.5013432057044906e-01 -1.4515226460965367e-02  4.6782191300412321e-02 -4.7852726823214198e-01 -2.0233133903063916e-02
 -4.6480381051675490e-01  2.9353316376433508e-01 -9.7800176933067792e-02  4.5703690023141519e-01 -1.2868083535268404e-01
 -2.3047065398010869e-01  1.6189419955924503e-02 -2.0442004263033253e-01 -4.0376092113518247e-01 -2.3476789207002291e-01
  2.6307085778354100e-01 -3.1597451727460805e-02  2.5888802387169163e-01 -4.7433742077143037e-01 -2.7814748043955451e-01
  5.9632455522003758e-01  1.5888323810115387e-01  7.2058391072262737e-02  3.4903415194491760e-01 -2.2614115163849213e-01
 -2.4631019868471604e-01 -1.2325085965426612e-01 -4.5286165967480513e-01  5.0794687665405469e-01 -1.6760953348622554e-01
 -1.1095315179715672e+00 -4.5108119307855005e-01 -6.9407722834141983e-01  4.5587169464792465e-02 -5.9496055536707892e-02
  9.7817169809936944e-01  2.8330171593466000e-02  2.8915001896303805e-02  2.2691940537596089e-01 -2.5562423439071358e-01
 -1.7160758799061748e-01 -2.8410631131433317e-01 -2.2074044055225353e-01 -1.2236441091824801e-01  3.6358156019656995e-01
 -1.0248257143104536e+00 -3.4289985284679614e-01 -8.6357761964354862e-01  1.0305532878203985e+00  1.4852635635211597e-01
 -6.6225986210219023e-02  9.8984091055651480e-02  1.6699496630167615e-01 -7.6379950648966854e-02  1.1261720071749881e+00
  2.2182143792576936e-01  2.5989305490446651e-01 -4.1547740229852492e-01  1.3231477283672506e+00 -2.2612476697954076e-01
  6.7671009171464402e-01  3.5274554014850318e-01  7.8091896563985852e-01 -2.2421106337395602e-01 -8.2115229417717606e-01
  8.8274002262834150e-01  1.9003794734067642e-01  1.1464120368886108e-01  5.4007493177699839e-01  1.1947948293220381e+00
  2.2906634317373191e+00 -5.5235517301864767e-02 -2.0739001611921190e-01  2.9107692013295061e-01  1.2754877716108286e+00
  3.8089609870485175e-01 -4.2209310588782323e-01 -5.6698393842082095e-01 -5.0733251969697379e-01 -3.1907946892127503e-01
 -1.0101255272260743e+00  8.6739461979240956e-03 -3.0860510350407000e-01 -5.2532605416826161e-01 -1.0978435750323476e+00
 -7.2730620032373494e-01  7.7064810840096110e-01  2.7455145096014577e-01  1.3601881950932171e-01 -2.1281801785920251e-01
 -2.4003624212973396e-01  3.2645427586105624e-01  5.4598420597306588e-02  4.8657026439272988e-01  7.9698586972915986e-01
 -4.2032535423089668e-01 -1.1760299654419872e-01 -5.4371300078800880e-02 -1.6181938389384043e-01 -4.8133908603009279e-01
  8.2670391343606886e-01 -3.8049911716541242e-02 -1.5582683773566317e-01 -1.8252525105924011e-02  1.1389868648070256e-01
  9.2501006692686971e-01 -6.4128660370541060e-02 -1.4111374102506721e-01  5.5805759334998761e-02  3.3856009403703791e-01
  1.6963828387265512e-02 -4.0667308078352338e-02 -5.5740822417524229e-03  7.9538374710451665e-02  1.5294833430674237e-01
 -4.9446070820487581e-01  1.6164859173385454e-01  6.2482978083040958e-02  3.9424271157344482e-02 -1.4441975964049059e-02
 -2.6426699317706004e-01  2.3357882046152226e-01 -1.0970347032596021e-01 -1.8724495081253867e-01  4.3859046248266864e-03
 -9.1281344595888436e-02 -2.0386508454971480e-01 -4.3807789122829510e-01 -3.3097990070901884e-01  8.0168892609624454e-02
 -8.4637790694745418e-01 -2.6138573886618016e-01 -3.8939696862682077e-01 -6.8360884710321379e-01 -1.4654380039131776e+00
 -1.3544773137789030e+00  8.8368276063964676e-02  1.1909701168423399e-01 -1.3678580942683638e-01 -1.0904114494365116e+00
 -4.6571762955377005e-01  5.7279201968183724e-01  7.9957731350547268e-01  9.1556555578042720e-01  7.6253530509625911e-01
  4.2008212122637573e-01  2.6357671354112211e-01  4.6562680749226137e-01  7.0916856870728440e-01  1.4834829280507476e+00
  4.3993383184604040e-01 -6.8544611447260662e-01 -6.9988048314614448e-01 -6.8702539634544380e-01  3.0733745127498491e-01
  1.4705686235698218e-01 -8.9193389875488072e-01 -9.4868338614653891e-01 -1.4004670529136425e+00 -8.8810332996902808e-01
 -1.7288242949051549e+00  4.6845726950087857e-01  4.9393879282610242e-01  2.5272883792539602e-01 -9.7080786327674051e-01
 -2.7517677868520352e-01  5.5371160216119386e-01  5.4446365223768944e-01  6.2620503921055537e-01  3.7167110130571768e-01
  7.0006680889414663e-01 -8.3127696671927542e-02 -7.8051119440562533e-03  1.9099403160048922e-01  9.6831999750628217e-01
  4.5129540790723000e-01 -7.9933039561743646e-01 -6.0000867896536447e-01 -5.4456249177959570e-01  3.0019799735290498e-01
  2.0091662379047326e-01 -4.6668934512418436e-01 -2.1185944033746265e-01 -7.9739276690167360e-01 -4.3740839913537788e-01
  2.3560085583312418e-01 -8.9149846254592310e-02 -4.9072462634145492e-01 -4.7712365173056204e-01 -6.1725442566325306e-01
  2.6816686124663403e-01 -4.4204870226133047e-01 -7.8825696642992926e-01 -7.5254607317734479e-01 -7.4964523078815737e-01
  5.3175137653049376e-02  3.8327619197812524e-02  1.6509496328862516e-01  2.5547873885948258e-01  2.4503402446697597e-01
  1.2561571795702053e-01  6.1917166954088276e-01  1.1053458918637975e+00  7.8425008248311334e-01  9.2781959526646607e-01
 -6.9798649933236298e-02 -7.4886731161322065e-02 -5.2820908911472464e-01 -4.8722403724228958e-01 -9.8864523756376399e-01
  5.1669534607567603e-02  7.4249833042250157e-01  7.2210344233525425e-01  6.6782745155494805e-01  4.3433027636562471e-01
  2.3387571263442590e-02  7.7743887179928828e-01  1.3188906642620988e+00  1.0542917517154213e+00  1.3032581923952291e+00
  1.8033177959638136e-01  4.6972753483081631e-01  6.3054865396741566e-01  5.8565840655582235e-02  4.8926647957014779e-01
 -2.2348025577480624e-01 -1.4024358661852793e-01  4.0919160645730318e-01 -5.8230519379830703e-02  3.0349587148881940e-01
 -2.7861902658601667e-01 -2.9541874904464438e-01 -1.0856484747189143e-01  3.6841332801911819e-02 -7.8497448016724236e-01
  1.7816874948231098e-01  2.4547580887456968e-01 -3.2339844978088783e-01  3.6304692750247662e-02  2.4659977440600936e-01
  3.7363789565345096e-01  2.4170787052870885e-01 -5.6515405710644095e-01  1.5454200286444608e-01  6.0892843693246143e-02
 -1.6531562021821700e-02 -3.9595778847038743e-02 -3.0676426401581530e-01  8.9392148500207741e-02 -1.5316827256874835e-01
 -3.3268482376423053e-01 -3.8227123304107657e-01 -6.3490357881626963e-02 -2.4386844488745124e-01 -2.5618087631803926e-01
 -3.3936610401853906e-01 -4.6964247932640307e-01 -1.7869458643630015e-02 -4.8624057169370344e-01 -2.8442404071657473e-01
 -3.4416429341366289e-01 -2.3700979672259170e-01  2.8749594228194170e-01 -5.7511349990353920e-02  4.3741849073307693e-03
  2.6326889996565440e-02  5.7171510502953035e-02  1.9872666028999642e-01 -2.3652576907790060e-02  1.1006481572150732e-01
  1.3945395444423903e-01  4.4601117946150029e-02 -7.4608663089119939e-02  6.8838468875010578e-02  9.2915296153638444e-02
  8.9897669673648359e-02  1.3037154741841389e-02 -2.1344295923791112e-01  1.1288428903579704e-01 -4.1052406757338102e-02
 -8.2351641417471061e-02 -5.6012931562266839e-02 -1.8769952236405701e-01  6.0882981218748425e-03 -1.3616167751206384e-01
 -1.6485722024101132e-01 -1.4667518996783624e-01 -1.5238532804971400e-01 -2.1093616281597805e-01 -1.1097986007731941e-01
 -1.0889160986638098e-01 -1.8468260529933581e-01 -1.1379769918208220e-01 -2.9377736562390711e-01 -4.0331902947603075e-02
 -1.1035066865642600e-01 -1.0492064227488963e-01  1.0924786495737419e-01 -1.4622413618114729e-02 -6.1925655799882844e-02
 -2.5622767630949006e-01 -3.1677435549642391e-01  3.4093921342727224e-01  8.2309755769246110e-02 -1.9082415374572306e-01
 -3.8392035473877811e-01 -3.9800820303946216e-01  3.8408119285377812e-01 -2.2321386170619031e-02 -1.9019103303841331e-01
 -1.4008050686338092e-01 -7.5909485288542827e-02  3.4892490852443690e-02 -1.4069234365578762e-01 -5.3964607446546763e-02
  1.7257974600611248e-01  3.1362202016918533e-01 -2.2990425522060134e-01 -6.8504442482474170e-02  1.7289379727232748e-01
  2.8553073919748589e-01  3.7995355970548433e-01 -1.8134526205039520e-01  1.3070039109716247e-01  3.7506792022281860e-01
  2.6788594399149951e-01  1.5065797152736299e-01 -1.9667798010169732e-01  3.7774803263978175e-02 -2.9410267391803080e-01
 -4.2727453989867797e-01 -4.6926482931675417e-01  5.0315905466435673e-01 -1.8164199448083848e-01 -1.3336211570557119e-01
  7.1621987747717722e-04 -2.2523411591354018e-02  1.5015199166160459e-01 -1.5157041004434246e-01  1.2149192069554927e-01
  3.6537078454537170e-01  5.3762364818390085e-01 -6.5416566083542724e-02  1.6112213131921355e-01  3.1528422335128647e-01
  3.4807346795733995e-01  6.4332687730902072e-01  6.1163061182975187e-03  4.0317974165638570e-01  4.0333434895074599e-01
  2.5758179031214057e-01  2.3006822256547679e-01 -2.5122461551846287e-01  7.6316205651590771e-03  1.2260384208029396e-01
  2.4014665334839461e-01  1.5357082582909443e-01  1.4933605457088683e-01  3.5698739391909727e-02  3.0036575480308819e-01
  2.7309582681838679e-01  3.5032393568395920e-01  1.5835921421703125e-01  2.3268973527687303e-01  2.0283102279747198e-01
  3.2463010039628613e-02  3.2903536212967427e-01  1.5503059635345803e-01  1.9699717503996611e-01 -6.0878287639534283e-02
 -1.4702217606722537e-01 -1.7841604246340025e-02 -1.3669277391001551e-02 -1.1398488349333252e-02  2.7999161584705679e-01
  1.1714415003486141e-02 -6.4600728711074317e-03  8.8998983271922086e-02 -4.7169869364726440e-02 -5.8038211897765909e-02
 -2.3539317214524852e-01 -2.3598227466496291e-01 -1.1137414025291735e-01 -3.3024360170735717e-01 -5.2497992807385241e-01
 -3.7662380853224942e-01 -3.5634542511454032e-01  2.1586267251337141e-01  1.6249310587666199e-01 -3.1965753907410455e-01
 -1.7734016589728591e-01 -4.9174494948289849e-01 -3.8863563591690808e-01 -4.5766079161564860e-01 -4.7623795317442191e-01
 -4.8933781438194004e-02 -3.4594242828958804e-01  2.1835957826894634e-01  4.0795482443813558e-01  3.5129815109529568e-02
  4.2905574131315061e-01  8.3234521357052990e-02  5.2062622562110056e-02  1.5954550734001768e-01  2.0952467842716514e-02
  4.3455709983332214e-01  9.4253567202934957e-02  5.9358875573057235e-01  1.5623124583135742e-01  1.4499722539612215e-03
  3.0751427814675203e-01 -1.7862694158203002e-01  6.8330634079666974e-01 -9.0758409861939449e-02 -4.2497039708122471e-02
 -3.7895694561945928e-02 -3.4725673823667497e-01  7.9242535168478589e-01 -5.0918943346431510e-02 -7.2251231330185350e-02
 -3.7279799525039153e-01 -1.0459350681823963e-01  7.9490285129907268e-01  1.5662223318687132e-01 -1.9971649739127764e-01
 -3.1438722191982055e-01  3.1293906971937246e-01  1.3260247404847697e-01 -1.0076530858975696e-01 -4.6740266366697630e-01
  1.6543362562812616e-01  4.5797760205630555e-01 -4.6967295413259241e-01  4.2285250123885662e-02  1.7264376878488297e-02
  2.8471550541992063e-01  1.2276822621959670e-01  2.2234008144179900e-03  6.3271190385025392e-02 -1.4442615491018763e-02
  8.2542112446286647e-02 -1.6884501726849105e-02  3.0688339090596489e-01 -1.5111743299835268e-02 -2.0622774374883999e-02
 -1.2858187004438991e-02 -1.6086094068167289e-01  4.1924209415300479e-01 -8.3894819621363123e-02  1.7363747867654147e-03
 -2.3496766218774459e-02 -1.8408983454931491e-01  5.4212682113308031e-01  4.9260361167175956e-03 -8.6981785811541239e-03
 -1.0371720086497810e-01 -4.3452991269244477e-02  5.7720173364992300e-01  1.2930202840762980e-01 -1.1843507892797610e-01
 -2.1574107853483251e-01  1.4704017522705765e-01  2.0714457928760771e-01 -1.8274238878902812e-03 -2.7828463186000668e-01
 -1.4890689850557159e-01  2.5895875902756166e-01 -1.8133581524853271e-01 -2.3010744315317555e-01 -8.4699436510619272e-02
 -5.3015728140518370e-01 -1.4386225964396396e-01 -2.0451803303246605e-01 -2.4707824662891445e-01 -3.8049766608781337e-02
 -6.3062165937945835e-01 -4.6318240413809206e-02 -8.5111383245507627e-02 -2.2459816453692813e-02  6.7217863447437673e-02
 -9.3367324211532307e-02  8.8465938937728569e-02  1.4765497042496297e-03  8.9277652320141787e-02  8.3728433269980848e-02
  3.8323760508998644e-01 -3.2684044609764033e-02  6.8633626262222094e-02  1.9078170245332839e-02  3.9557901139954416e-02
  1.4335836297088941e-01 -2.1722204409762169e-01  2.9188909569405130e-01  1.1576744153304522e-01  9.7005541939801238e-02
 -5.4243023687736014e-01 -8.5534295602005136e-02 -4.1767645385847030e-01 -1.5168221858519082e-01  3.1151663084547157e-03
 -8.3613758437281027e-01  1.4028689198222477e-01 -3.6336879697126889e-01  1.1979689978502721e-01  5.6099193892488360e-02
 -2.7694353673876676e-01  1.3292582638270151e-01 -3.8208623525089525e-01  1.0934325336160187e-01  6.5812175269164747e-02
  5.4709254348485348e-01 -1.7928661303670218e-01 -3.4735240326406852e-01 -1.3860907225697497e-01  1.0924579862521294e-01
  6.5175333773504807e-01 -3.9885777248780080e-01  1.7626595712972759e-01 -2.6706917940949943e-02  2.7749553557084894e-01
 -2.7337428895292831e-01 -1.6432066186983166e-01 -3.5911893358014169e-01  2.2818555819653777e-01 -1.1868652324086182e-02
 -2.2142643621002220e-01 -3.8051405508008673e-02 -3.3269674345979749e-01  1.3509299422088511e-01 -3.4417214659839282e-02
  3.1435434501991638e-01 -1.3005136237462789e-01 -3.1815952177048801e-01 -1.4069149145762935e-01  2.5787330046192214e-02
  7.8700873828693640e-01 -3.3810254689423322e-02 -1.2202428359858497e-01 -3.4186013605702387e-01  1.1859073569813210e-01
  3.4070602456143273e-01  7.1307197644050371e-02 -3.1109851891409093e-02  2.2031090742345746e-01 -9.5862341732815687e-02
  1.1385011588466237e-01  3.4559302167150119e-01  3.4467080124379663e-02  1.4950658009077331e-01 -9.8379559521162757e-02
  2.4245965391510194e-01  6.9513842273753002e-01 -4.0582668507102243e-01 -3.2190432231124971e-01 -6.9760518334357910e-02
  4.2282639160513225e-01  3.3789319563687736e-01  7.9043655539275101e-02  4.8034391042911995e-01 -8.4410560252596856e-02
 -3.2040788075054077e-01  9.9643259405759976e-01 -5.4699755203196143e-01  3.7373567923411100e-01  1.1091012540265466e-01
  8.9407131557880826e-02  3.9584753886772739e-01 -4.5804291937185526e-01  1.2601286746006837e+00  4.8133298675763342e-01
  4.0382983013003543e-01  7.8231032460045050e-02  1.2677054695358745e+00  1.0026869007671415e+00  9.0738029571192946e-01
 -4.8528397175310262e-01  1.0508274655742907e-01  2.6285303153300283e+00  1.3345667643522212e+00  2.6435494729854092e-01
 -2.8427117385916301e-01 -5.5333866201469362e-01 -2.8975351983509157e-01  1.6746862469999790e-01  1.8740028064395786e-01
  1.4824537871898308e-01 -4.7511247626830166e-01 -1.8938494018347320e+00 -5.7829925466263887e-01  3.9334717729837010e-01
  3.7473021399913947e-01  3.2106717023765907e-01 -1.1794459469758145e+00 -3.8475999319331322e-01 -6.2191436389680854e-01
  3.2472576379138463e-01  2.9150755021114305e-01 -1.4316951487313609e+00 -4.6305822518938555e-02 -6.6393858608315170e-01
 -5.1502290642505291e-02  9.4432346590212213e-02 -3.0107777832030358e-01 -4.4600327455443267e-01  1.5174940316577823e-01
 -9.1319642453341232e-02  7.1774221371620692e-02  8.3014429744376628e-01  4.2489419952663621e-01  4.1527391495753285e-01
 -1.3638116656865865e-01 -1.1347439694709487e-01  8.4036024791469544e-01  6.3224438352361290e-01  2.7605959248355738e-01
 -1.1833811260812947e-01 -2.7943667074533551e-01 -6.1347558248705081e-02  1.5270339726622506e-01  3.2304724170739002e-01
 -2.6560669519826954e-02 -1.3429338896990045e-01 -5.1713520605519392e-01 -2.5903371687105547e-01  2.0010800586046784e-01
  5.4000609609469133e-02  2.0048774184443469e-01 -4.0318173515469624e-01 -3.2149613778393871e-01 -6.9868971987172102e-01
  1.2368434070995893e-01  1.0877815543045366e-01 -8.1230193375420789e-01 -2.5536661893240842e-01 -4.0702869409242015e-01
  3.5155510688883823e-01 -4.6529609874664246e-01 -1.8661645119944357e+00 -4.7239743019144953e-01 -2.6475910884832210e-01
  5.0351206999804821e-01 -3.5744925051246040e-01 -1.8805998775756692e+00 -5.0559110625629344e-01  3.3387407254159873e-01
  1.5766326570196906e-01  2.3250402620543797e-01  3.9016586666056075e-01  6.4536518138834431e-02  3.8252798101171659e-01
 -3.2640595681800022e-01  4.0444326021708871e-01  1.4995190386825925e+00  1.9297025564534298e-01 -2.7569664368340630e-01
 -4.2201196882883146e-01 -4.0550847932735085e-02  5.9799921324809446e-01 -1.4272618907525381e-01 -6.3811627974681506e-01
 -1.6111555448362236e-01 -1.4389426484355364e-01  4.4888649828929239e-01 -4.1913398132504565e-01 -1.2538748437584601e-01
  6.7804775205925061e-01 -7.6490822244424744e-02 -1.7131620891660795e+00 -6.8822167841908666e-01  2.8985977361424986e-01
  1.7270644448031219e-01  4.3093031224004597e-01  5.2215166805323321e-01 -1.2515410922253167e-01 -8.7438255961424904e-02
 -3.9861111926801718e-01  3.5832148065409908e-01  1.1583153040111718e+00  1.4386340544475296e-01 -6.5887930071451706e-01
 -3.7640604794198135e-01 -2.3384864396513760e-01  1.8559558995278636e-01  1.3634550202717399e-01 -4.4268439458073239e-02
 -5.6712270273037491e-02 -5.1543715806012608e-02  1.1156449260345882e+00  5.0481738540272048e-02 -1.6424610790123406e-01
 -9.4119872022847065e-02  1.4692428220330550e-01 -4.7122104192856007e-03 -2.7425159561993429e-01 -7.6081737074022682e-01
 -2.6701000955288162e-01 -2.9048236642663228e-01 -7.4498958335987542e-01 -1.3245610578570499e-01 -4.8319927972791721e-01
 -5.5688047613249518e-02 -3.8230804871648583e-01 -6.6557231317922927e-01  3.5242381306400183e-01  8.0975114569234696e-01
  3.6010458802746820e-01  3.0152268002934457e-01  5.0479388675217773e-01  7.7260635104759512e-01 -7.4990219033865491e-01
 -2.3777658561716541e-01 -7.7500979833686001e-01 -1.1925643099325960e+00 -1.1991356404932452e-01  1.9044770127472821e-01
 -2.0697189448745712e-01 -4.6588236369053698e-01 -2.3764303905933559e-01  8.0719236953666673e-02  1.0900905788490955e+00
  5.9973023156797012e-01  5.4014252376372562e-01 -7.8082070352302679e-01  8.4435147560161150e-01  6.3697387829608010e-01
 -5.3805949841171818e-01 -2.1513038319362920e-01  2.6795710226058489e-01 -5.8198846926381087e-01  5.4543685249128027e-01
  4.4646142310489267e-01  4.3123735999869778e-01 -1.3760901503187499e+00  1.7049790601586245e-01  2.8091399682031770e-01
  2.5997110762539306e-02 -4.5602122828617453e-01 -4.7418858970441846e-01 -5.1599832635296572e-01  6.0659860473780514e-01
  6.4658761573181422e-01 -8.7174037776095809e-02 -1.5040037900247100e-01  5.9938349465346619e-01  8.8846710342064661e-01
 -8.9890798494833835e-01 -2.8315496611976232e-01 -5.1147807609705853e-01 -1.0168392152314221e+00 -5.6681647790777134e-01
 -1.0317375859105857e+00  1.4647451212209059e-01 -3.4662447697301862e-01 -9.2643295828598937e-01 -8.0641691827564355e-01
  7.8334886336789644e-02  7.0794367831993799e-01  3.8215704518463722e-01  5.5014366020444783e-01 -3.2360157268287359e-01
  4.0856051879513400e-01  1.5336984606477469e-01  8.5561991680697735e-01  3.7561335287376352e-01 -9.6605267987322474e-01
  1.0744476253125956e-01 -2.4579296184401947e-01 -5.6669771085468446e-02 -4.2992729043371369e-01 -1.9265669167868538e-01
  2.7855800803415631e-01 -1.1202749410576357e-01 -9.8381565797339546e-02  8.5813242582426064e-02  1.1587907760774119e-01
 -9.8458298913053355e-02 -3.1778899268729330e-02 -1.7022098269859154e-01  6.0091217274724329e-02  5.5772954691072130e-02
 -4.5425157098007940e-01  6.1468572360603060e-02 -2.1095116029440220e-01 -2.0324795941005824e-01 -4.2597525161263583e-02
 -1.1162573531988612e-01  2.0189528156476558e-01 -1.1257134937624974e-01 -1.8220768594223280e-02  1.6871937764241007e-01
  2.8071999758515442e-01  1.4788898965615535e-01  1.6678380741248466e-01  2.9445864345395911e-01  5.3636933985676372e-02
 -5.7310674528548100e-02 -2.7128646749067598e-01  4.6793270008593413e-01 -4.4584034711997678e-02 -8.2742557361771230e-01
 -1.1461281706134887e+00 -1.8318876400713660e-01 -3.2736153408446750e-01 -1.0852939860047144e+00 -1.4527403707017021e+00
 -1.0194629503030543e+00  2.2158496768775801e-01 -1.2925579694738140e-01 -4.0094309493722058e-01 -1.0255323305518891e+00
  4.9079240008927494e-01  5.9823130799321778e-01  2.7158265063344589e-01  1.1771378125893737e+00  7.9472552741146574e-01
  1.2773249670852727e+00  1.4672345846296106e-01  2.7744516566632182e-01  1.0850910562522182e+00  1.4648869998885234e+00
  3.7607008617021509e-01 -7.8210724296818102e-01 -9.4541717122712698e-02 -4.3116526242922681e-01  5.7469036667599482e-01
 -7.8622428071625861e-01 -7.8645799501588443e-01 -1.4657205087611330e-01 -5.1427214991165249e-01 -2.1499136348126324e-01
 -3.8663550338995023e-01  5.8793230924678641e-01  8.1920012227039068e-02  4.6136700157844857e-01 -5.2240453577077162e-01
  9.7477382865379880e-01  5.4385977396220964e-01  3.2257561463603390e-01  1.3142548478301297e+00  7.2394002585950901e-01
  9.9122310789212886e-01 -1.7605755021958902e-01  3.2015100432244625e-01  3.2559328502357943e-01  8.5133805738595303e-01
 -1.5450116835005501e-01 -8.2126565791509076e-01  3.8314413683505244e-02 -1.0874629484787874e+00  4.3110050186549209e-01
 -6.2413928330341761e-01 -3.9014764993147932e-01 -1.9445101115833735e-01 -1.1255699596112656e-01  7.7751467279545317e-01
  3.2542729467386966e-01 -3.9313381087608776e-02  4.0410409234685508e-02 -6.9939229751119214e-03 -2.8808844068208739e-01
 -7.4425041810014836e-01 -3.0897821730089159e-01 -2.8569364566966252e-02 -1.1299906645602920e+00 -9.2423936148665753e-01
 -6.3561640916976225e-01  1.0397612106599785e-01  1.6621377818878963e-01 -7.1877379754734960e-01 -1.7344699763541982e-01
  4.9585808037314694e-01  3.9942806041465900e-01  2.0893759802591427e-01  3.8243435685661686e-01  1.1838923375520478e+00
 -1.5167055431657062e+00  1.8265796465795767e-01 -3.6796855401724859e-01 -8.1574634626148423e-01 -1.5190771250516590e+00
 -1.7450052236686822e-01  7.2481311859679853e-01 -2.9043600849671913e-01  4.5468784727394862e-01 -7.3125535792718299e-01
  1.2452015169563129e+00  2.8589050147133899e-01  4.2061767306207742e-01 -2.9121579033140943e-01  3.5772565497393738e-01
  6.4313549347280152e-01  1.9196473876621975e-01 -6.9748665606188831e-01  4.9465456503893535e-01 -1.2459513005361753e+00
  6.3060144295099618e-01 -4.5231627062608687e-01  3.0434315686503077e-01 -1.2548223402820016e+00 -6.9335616213119788e-01
 -8.7545866922888127e-02  1.4590899788298253e-01 -1.2729506147442365e-01 -1.5137246649196578e-01 -5.6773942310729764e-01
  9.1507967478217900e-01 -9.2106838530235380e-02 -1.0164141969333232e-01  6.1036240561236355e-02  9.8248237070539091e-02
 -7.0412977855229286e-01 -5.1842175612634522e-01 -1.1412325106266838e+00 -8.6008771077096036e-01 -9.9626794972182076e-01
 -1.0532869230439790e+00  3.9674539011499205e-01 -5.9365938059336187e-01  6.3071349002932209e-02 -4.3486103660605124e-01
  1.7369398776154910e-01  1.3888127032598783e+00  9.0539846378134270e-01  1.2434258387844999e+00  8.8481272850665249e-01
  5.6041280116529535e-02 -1.8921197541272194e-01  1.4716521435110144e-01  6.5389583613447932e-01  1.1653523052964472e+00
  7.7040778089303430e-03 -3.2742948058747989e-01 -3.7403071362803637e-02  7.1507596538546991e-02 -5.2144038841560203e-01
  9.2501006692709753e-01 -1.6444043493811031e-01 -1.6373787436292675e-01 -2.3190485555258533e-01 -4.7943870134533739e-01
  3.2684896209110192e-01 -1.3771560809379166e-01 -3.1283138346745221e-01 -3.4165479667004739e-01 -4.0199355326915054e-01
 -7.2114360327311111e-01  4.6749336691605067e-02 -2.7942943318241931e-01  8.5978099319142132e-02 -4.0131725013547559e-02
 -3.7240043505672094e-01  4.9204691305643528e-01 -3.6939333160101659e-04  6.2400292109468936e-01  5.2404081213245490e-01
  4.2433331466481672e-01  4.3517651163827487e-01  1.3184009207240052e-01  2.9836593739545236e-01  6.8915459392449030e-01
  1.4871243703764092e-01 -7.1814606576545714e-01 -4.5547823336307669e-01 -5.0006656497400792e-01  4.0700924594611099e-01
 -1.3544773137787534e+00 -5.6347518217025538e-01 -1.0875087703385951e+00 -1.5985490562722084e+00 -1.8420149180328007e+00
 -1.7288242949049462e+00  6.5555035567011727e-02 -3.9225035017967036e-01 -5.6943322624516846e-01 -8.3022539522515615e-01
 -2.7517677868482071e-01  9.2965912231803927e-01  1.0051608497196252e+00  1.3870707717295554e+00  1.2910831110135019e+00
  7.0006680889420969e-01  4.3364404617817165e-01  7.2388718789834572e-01  9.7233828455206073e-01  1.5442461288957618e+00
  4.5129540790718581e-01 -1.0429456022230981e+00 -1.0020665104168363e+00 -1.2569231872168931e+00  2.3418277264074039e-01
  2.0091662379061503e-01 -1.1389396149269917e+00 -9.1628975096536813e-01 -1.9130103809251029e+00 -5.3327767883263366e-01
 -1.1239379509949963e+00  6.7948125858107011e-01  2.3641744480607774e-01  2.7751769213931254e-01 -4.2223884834477587e-02
  7.6101384401173000e-01  8.4693465146039471e-01  8.1219159824371434e-01  8.4853758284231873e-01  8.6944992134846188e-01
  7.1791198334373063e-01 -6.7958443033243249e-02  2.2779059363293927e-01 -1.5664242513361515e-01  5.6903036571790011e-01
 -2.9822019208126438e-01 -9.0951194763244481e-01 -7.5157021485409659e-01 -1.1660808199798396e+00  5.8942762735972209e-02
  8.0740641247370792e-02 -7.7803357200101869e-02  2.9881793798075723e-01 -9.4813012339658442e-01  1.1174336303652055e-03
  1.0263297784820296e+00 -8.1159077841925831e-02 -4.5030586715762400e-01 -8.3298146103367099e-01 -5.7188978086362585e-01
 -8.2210893847450894e-02 -3.9968635422865412e-01 -7.4178090561203813e-01 -9.8097451095631882e-01 -6.6191397831154042e-01
 -6.0956496730171938e-01  5.4847585373134911e-01  5.0357467747736118e-01  7.2064788865054119e-01  6.3883932318049830e-01
  1.2471941625310179e-01  1.2724151686361747e+00  1.8523516933865083e+00  1.0094223908692603e+00  1.1402889074603944e+00
 -2.6375979653294274e-01  1.3872465035844000e-01 -4.6299295761300852e-01  3.3696274388299052e-01  1.2929429430428341e-01
  3.6937484558086908e-01  9.5604033605090100e-01  9.0597539706364816e-01  1.7172847932308386e+00  1.2426662326871156e+00
  2.4425141643138357e-01  7.4996622794090095e-01  1.5991800731610966e+00  8.8883900470653998e-01  1.2460867527801169e+00
  8.6666839516696470e-01 -4.1493347014472487e-01  2.3849939709446058e-01  1.0373710738189956e-01  7.5025443887920851e-01
 -2.4370967896702167e-01 -8.2196982138693886e-01  3.4022299763729458e-01 -3.0910298101431799e-01  7.2267552416244119e-01
 -2.9333148079230964e-01 -7.3816158713599048e-02 -1.2377294886609333e-01  1.4479898905315736e+00 -4.7083780680193477e-01
  1.8429977234691605e-01  4.7000999656176233e-02 -7.5640399589919982e-01 -4.8602335098671720e-02  4.5351485281717882e-02
  3.0592628103833387e-02 -1.0827085643748029e-01 -3.2904535514388877e-01 -1.5994281113722333e-02  1.9548987131726392e-01
 -1.8786021526105090e-01 -2.4457591400451686e-01 -1.9776371430596099e-01 -2.9155329298343396e-01  8.8458424331129007e-02
 -2.7959852650049660e-01 -2.6702511402394147e-01 -4.1456597976828335e-01 -5.5263065741776796e-01 -2.2031908968017452e-01
 -7.3395895730359961e-01 -2.0361052789253606e-01  2.4685475129232601e-01  6.9723215501880209e-02  5.0487627264078350e-02
  6.3297377578587333e-02  1.2511756423577475e-01  3.1622867820515127e-01  6.8726097204915779e-02 -1.9598478404778095e-02
  1.5041332189908291e-01 -5.1110224734351055e-02 -1.0234796893162232e-01  8.3842527419783583e-02 -6.8084065486782808e-02
  6.5496092054147192e-02 -1.4475859664596699e-01 -2.8081614317057230e-01  4.2616192442203320e-02 -3.1065478351350064e-02
 -1.0291781491915261e-01 -1.0713889924496607e-01 -2.4864656459213016e-01 -1.2949893159512396e-01  6.9052556197194317e-02
 -1.3546011972588387e-01 -2.9281486865555258e-02 -3.0948977476857914e-01 -3.6410613343737508e-01  1.1036785469169652e-01
 -8.9826540207207123e-02  1.8852779302512906e-03 -3.5586611105265686e-01 -3.7408356420744454e-01  4.7299323579794765e-02
 -2.7044670988419856e-01 -1.6742011360390927e-02  1.0736721202857268e-01  8.4533855710188399e-02  2.3919980520479590e-02
 -2.6156818286607530e-01 -4.1320664945047664e-01  4.9381500452873511e-01  2.9873444019766687e-01 -2.5128080167820317e-02
 -4.2305225658710499e-01 -4.5678194089416585e-01  4.5927117822903596e-01  1.2915642686146706e-01 -1.3730554796092143e-01
 -2.4503680947235904e-01 -5.8228832370846903e-02 -9.8552212541522216e-02 -2.7057039953507311e-01 -1.2513373696000277e-01
  1.2220499195182494e-02  3.9994829178895086e-01 -3.2279827993069315e-01 -3.1645842320416145e-01  1.4196172134421395e-01
  2.0652491902269660e-01  4.8268580339038430e-01 -2.4435592820252733e-02  5.9569631746577444e-02  4.6737741297854302e-01
  4.8738422629548817e-01  2.4596301617872182e-01 -1.2855016953542811e-01  3.4866305198867513e-02 -2.6225403088494737e-02
 -4.4423785120538878e-01 -4.0618263947534727e-01  4.7717174441995353e-01  1.0167383049711383e-03 -8.4239671335899213e-02
 -3.4339103430805033e-02  1.1363433270798380e-01  2.3411620467273974e-02 -1.1923103810862530e-01 -8.1272853343980683e-02
  2.2931586093346520e-01  6.2317113188967277e-01  8.9440571681065520e-02  1.1337608561562283e-01  1.2715874853799777e-01
  2.1841127710433145e-01  5.7059081315763838e-01  5.1206808941216986e-01  4.0393858301569197e-01  3.9347676879710414e-01
  5.0561117111578946e-01  8.2336175317931970e-02 -1.6105826386701164e-01 -1.1468192901824953e-01  9.9414247138189471e-02
  3.7268158641577237e-01  3.6284028055371742e-01  1.9675212159379907e-01  2.8118702072823543e-01  1.8612243767790781e-01
  4.4297151426912795e-01  4.4180994538230384e-01  4.5749070832437366e-01  4.8963952095950031e-01  4.6347766698571762e-02
  5.3889280484054350e-02  1.0696897909961997e-01  5.1208247683408303e-01  2.3799214571211691e-01 -2.1852276694379749e-01
 -2.1308565406214044e-01 -4.7458886542642453e-01  4.5514754663884230e-02 -6.8884941724122670e-02  2.8118916794813098e-01
  4.7696709628859696e-01  2.0749834772211158e-02  1.2128382484321912e-01  1.8163579746576372e-01 -1.0167910637639736e-01
  1.2456191933130949e-01 -3.7515594767916532e-01 -4.1826052814250930e-01 -3.5726832236460621e-01 -6.9254864060611221e-01
 -5.8223897940809022e-01 -6.9052679489792090e-01  2.6676423438263958e-01  4.1111205544460760e-01 -3.0708809792499153e-01
  3.5576393012259838e-01 -3.0444295683046890e-01 -1.0702836817547452e+00 -4.7763067208728255e-01 -4.3451987603144254e-01
  5.4375506066236763e-02  2.1999117624714411e-02  2.9696879164089468e-01  7.7155623816197416e-01  3.5297423577958154e-01
  8.2905825403548050e-01  1.0545260317858656e+00  3.3295136717943367e-02 -1.7262315463825412e-01  5.1332135327689252e-02
 -4.7848636488145121e-02 -3.8172865287602298e-01  3.6114173874300465e-01 -3.4162231963041870e-02  9.9446117157006894e-02
  8.7244555102569177e-02 -2.5097536921315178e-01  1.1130754360148407e+00  2.4671677988902541e-01 -3.1823723559404694e-02
 -1.1135719688667056e-01 -2.6753714341094012e-02  1.2847866757110518e+00  2.7220053590778959e-01 -3.1403196390476174e-01
 -3.9048587436998167e-01 -5.1281026550835052e-02  3.0249297340337999e-01 -7.4912716628904152e-01 -6.1461352516353240e-01
  1.3555134179395822e-01  1.0625915011611334e-01 -2.5805061994411044e-01  1.7443531917424604e-01 -8.9380736823274382e-02
  4.2755989115868892e-01  1.2156478219282435e-01 -2.4959444904046188e-01  2.8640900671495533e-02  1.9995995043056197e-02
 -5.9956196133587790e-02 -1.2511868171854085e-01 -1.2818529253958957e-01 -1.2889692616421111e-01  7.1729484456746345e-02
 -1.5031256801927598e-01 -2.4230087406522424e-01  2.8405216921571708e-01 -7.6512674017069071e-02  1.5501023744588498e-02
  4.9923761874470535e-02 -1.5164850139893910e-01  8.5566386152909535e-01  2.0194535508962622e-01 -1.0446014272974173e-01
 -1.5647466853150525e-02 -1.1790454138178457e-02  9.9427909282845461e-01  2.6071433621355700e-01 -2.1170995451220781e-01
 -3.3389964735471511e-01  5.4373407445721209e-02  3.7291120607577499e-01 -3.1051666995742427e-01 -2.4636628354368573e-01
 -2.5410183217365945e-01  2.3255241141493968e-01 -2.6046707842470668e-01 -3.1749956434148147e-01  4.9088122349470603e-02
 -3.8203837941534191e-01 -3.9769779438133306e-02 -1.0065933792011282e-01 -3.4872192540089497e-01  2.0519495550362130e-02
 -4.8775612706657667e-01  4.3570951435136902e-02  1.2766720096201142e-01 -9.2298328871178337e-02 -9.6003195792185705e-02
 -1.7920702297824587e-01  5.6402785304572357e-03  2.3563185481472979e-01  8.8768744451536014e-02 -1.7706446181678237e-01
  2.3398022319229969e-01 -4.5016361615413565e-02  2.7861966659013021e-01  1.5488491240549876e-01 -1.7803552157606057e-02
  1.0651238592649344e-01  1.7327385125542705e-01  4.2280182876902411e-01  4.3379638716348939e-01  3.4253587135233304e-01
 -7.2981740818277652e-01  3.7735768208337039e-01  1.6670302780050952e-02 -2.2089745081779052e-01 -1.2151804719156250e-03
 -8.2481239194380684e-01  1.7959290191546079e-01 -4.7356940782612489e-02  4.0531138764184918e-02 -1.5788991546480193e-02
 -5.2888192637644915e-01  2.4023750887684873e-02 -3.7707477222136532e-01  6.5513925550857574e-03 -3.2503391780417994e-02
  4.8062456822451638e-01 -1.3668944798952787e-01 -4.2060218784628395e-01 -6.4799308149470505e-02  5.5264171876880187e-02
  9.4644745321097212e-01  6.1156805617844166e-02  2.1515539235565395e-01  5.0814624574986900e-01  3.2139312020122074e-01
 -3.6065992605871738e-01  1.9835157618305194e-01 -3.2251855792961570e-01  1.7804024567455465e-01  2.0481321554099866e-01
 -4.0268927570988700e-01 -5.8961979704063909e-02 -6.4354394302314166e-01  8.0232120955300315e-02  2.3938080556288474e-01
  4.8929976619406856e-01 -1.0151656419825944e-01 -6.4078802071192420e-01 -1.6253198463734395e-01 -4.7462706446389981e-02
  1.1973062858338914e+00 -1.2200412265139807e-01 -2.1253784019795580e-01 -1.5647169842494160e-01 -2.3065493111380009e-01
  4.6603465016813878e-01 -1.2112229280399395e-01 -5.4291364927873287e-01  2.2126717275146732e-01  2.5419000464149266e-01
  2.4741432495370333e-01  3.2195904372352181e-02 -4.1823354570332377e-01  7.5399251204544854e-02 -1.1195075732581262e-01
  1.8279153060172021e-01 -3.3522368866620487e-02 -6.1995150041530456e-01 -5.1107152904490105e-01 -2.9408236930292542e-01
  7.0462960247953110e-01  8.8516961830506349e-02 -3.7400149382808395e-01  4.0297477249024327e-01  1.2744520946480051e-01
 -7.3084647881445630e-01  3.6030350929598914e-01 -8.3400783328285832e-01  2.9037647364257602e-01  5.9247051265177786e-01
  4.9517670393613983e-01  9.1473503465581774e-01 -6.4254000499504194e-01  1.5411594408830733e+00  1.1561212044150875e+00
  8.8791388604071764e-01  9.5001312192117882e-01  9.1082159316933442e-01  3.4894049802363725e-01 -5.4805310432018217e-01
 -3.0018259420286791e-01 -4.9306504238732418e-01 -1.1854308276038577e+00 -3.2353424955389087e-01 -2.9645941208924942e-02
  2.3883761238216492e-01 -7.4559379565996398e-02 -1.6060682655306273e+00 -7.4925398924687414e-02  3.8846606420282903e-01
  1.9495740372925607e-01  6.9787796784036138e-01 -1.4635537246727637e-01  4.0521715179369266e-01 -1.0068169433084577e+00
  6.2874955891038253e-02 -2.0203624552437516e-01 -1.7840220836338894e+00  3.8076756734778527e-01 -4.7665952486138785e-01
 -4.0971725765690067e-02  9.1743300847691139e-02  1.7413133293411232e-01 -6.0110591187978457e-02 -1.0135566617963487e-01
 -1.5873229507217729e-01  6.0087189267963192e-02  7.4764598238598090e-01  2.6473281577828978e-01 -1.3292196794572675e-01
 -2.0019248362360928e-01 -1.7333075398760800e-01  2.4299749219817102e-01  9.6545511450440102e-02 -9.7253881400066078e-02
 -1.2452394884214513e-01 -3.4260861056638192e-01 -5.5543218954441720e-01 -2.3741200911585914e-01  3.5978263198070537e-01
 -7.0599498840676581e-02 -6.5711834534064387e-02 -2.8387282596343688e-01 -1.4919588418319396e-01  2.1088701793420483e-01
 -1.3591838147589799e-01  4.0397639317986944e-01  2.2864345471264258e-01  8.3751017805511196e-02 -1.1215249118267057e+00
 -2.1997331470755256e-02  9.2389992313343411e-02 -8.5996607840898331e-01  4.7321543397611521e-02 -5.4872176592888722e-01
  5.8428118695778064e-01 -2.9870205445008569e-01 -2.0692730854140677e+00 -1.9375552295552012e-01 -7.3824282899913385e-02
  7.7147380825352907e-01 -2.5234354701590578e-01 -1.7600243653244441e+00 -1.5949255352876612e-01  8.3516714934824687e-01
  1.4197232715870012e-01  1.0663156574235028e-03  7.3320069596370274e-01 -4.6855761904471827e-02  8.1401784855046666e-01
 -5.6509986425932857e-01 -4.8631386434629775e-02  1.4124067185066451e+00 -3.0360421388306147e-01 -2.5859862202631501e-01
 -5.2044610108725031e-01 -1.4305933663950210e-01  2.1688318726102906e-01 -3.6170923925075371e-01 -1.0184686362895143e+00
 -5.2045772635582799e-02  6.2234524766594657e-01  9.1269011454850535e-01 -3.8490159138533198e-01  7.4593388524584725e-01
  9.3174011942550361e-01  3.4709019239936759e-02 -7.4348919452298645e-01  3.8796309657168848e-02  1.2015507979688955e+00
  9.3253589845824963e-02  2.9510427504312692e-01  1.3298543754328822e+00  1.2073251290430242e-01  2.6324970359594679e-01
 -5.9209449533263925e-01 -4.8380267099286473e-02  5.7770335447630572e-01 -2.2677148643051304e-01 -7.0607051755512629e-01
 -2.2353863800374171e-01 -4.6025300856107976e-01 -1.0337111905850449e+00 -1.4461259464604481e-01 -1.1155571242792739e-01
  2.5252897270158009e-01  7.0208252856140108e-01  1.6207612659937958e+00 -1.4287998534096324e-01  2.8819244304957259e-01
 -2.1329294735733967e-01  2.8545052636930301e-01  3.7872723632695049e-01  2.1015141476697163e-01 -9.9722045499391676e-01
 -2.7728726488189348e-01 -1.4350793050201982e-01 -1.2715310180965655e+00  2.7540413302176603e-01 -6.7026218355856226e-01
  1.6385843230301050e-01 -5.7768976138507766e-01 -1.4960947795805062e+00  3.9513483193888810e-01  1.1448803345065315e+00
  7.1109725211934816e-01  2.0218607416983878e-01  5.1457578140677285e-01  5.0914141116930178e-01 -1.4098526318900551e+00
 -2.8528728923679569e-01 -4.3130282976302403e-01 -9.2176253136208430e-01  5.1361704821550447e-01 -1.5272510809144785e-01
 -4.1045219544865102e-01 -6.7268376192800150e-01  3.4544678828050124e-01 -8.5368335390015204e-02  1.5325961959162009e+00
  9.0421458921835607e-01 -5.4772022219399280e-02 -1.2229697262935124e+00  7.5798226642714139e-01  3.1679382364435771e-01
 -1.1187523007663174e+00 -4.0008084844212033e-01  1.3186043799968914e+00 -1.3407569467258043e+00  8.8233588611871649e-01
  6.7951060691653142e-01  4.1963025581964830e-01 -1.8773494808601718e+00  4.8143150501715759e-01  1.0592784890238400e+00
 -4.8593661704563598e-02 -1.8313095772540619e-01 -9.9429064739473816e-01 -1.0831177432916927e-01  3.9745843650432988e-02
 -1.5371565628583674e+00 -4.7418782785392100e-01 -5.1445809289342515e-01 -1.6830519848855392e+00 -1.0550185653085506e+00
 -1.0260286597690582e+00  4.0206308644945149e-03 -1.6693605633166775e-01 -8.3438280115378305e-01 -2.7698552137061938e-01
  2.9858671164594064e-01  7.1678931998623074e-01  6.0873305370790454e-01  1.2931083930584393e+00  4.1067017185755361e-01
  2.3008357364264498e-01 -7.8949558225994171e-02  1.1711242112422493e+00 -9.5689448691818058e-03 -1.0892960825999989e+00
  3.7288268573714234e-01 -3.5191769123995165e-01 -2.1841094540713762e-01 -3.2663494792460757e-01 -7.7723092284520234e-02
  6.6041134301473736e-02 -1.5927149956953363e-01 -2.8330184862893432e-01  1.3121208641802440e-02  2.9513490924879981e-02
 -6.0627272396003562e-01 -5.8731126804282698e-02 -2.4639014385299379e-01 -3.0674073158952098e-01 -2.9221542776221376e-01
 -6.5904190700184628e-01  6.4516979248141926e-02 -1.4032316266864864e-01 -5.3044163705991210e-01 -3.7779600282397752e-01
  2.3368430504013438e-01  2.5243837126408286e-01 -3.0004787471395164e-02  1.8615396514773508e-01  1.8459603700190375e-01
  4.9149152160687848e-01  1.0640788883431919e-01  1.9814417022830250e-01  7.6864994617841198e-01  2.3655476627527605e-01
 -3.9626443687855328e-01 -5.7931739940905203e-01  6.4611273074723385e-01 -1.5495970886562827e-01 -8.5260944813621009e-01
 -1.6964734731175761e+00 -4.2363822448824179e-01 -3.1224122116235531e-01 -1.6469856821037219e+00 -1.0188188603046182e+00
 -1.2100475833354620e+00  1.6869958002670030e-01  3.1336521946037948e-02 -6.4176646953402994e-01 -3.8359147157682116e-01
  1.0434646798752278e+00  9.1849447795694772e-01  3.7831317362701322e-01  1.5176841190735759e+00  8.1332642566214197e-01
  1.9792712148649738e+00  4.6932927663719004e-01  1.9120328096547651e-01  1.2580765270419239e+00  5.6370331611305247e-01
  4.7692317704702258e-01 -8.6367997289598397e-01 -2.6284632699749411e-01 -6.2884620087348608e-01 -2.0936617104859323e-01
 -1.2181016578843973e+00 -1.0752786280071900e+00 -1.3548316355977030e-01 -6.2047646493890163e-02 -4.8594926672044458e-02
  1.5026263116450167e-02  7.2298519150573004e-01  2.1745270806605946e-01  8.8611977905056705e-01  6.0783932987514078e-01
  1.5906636096184936e+00  8.6300854544225281e-01  2.3522444194657138e-01  1.9671482451932771e+00  1.0570550482457559e+00
  1.1649571473375788e+00  4.0016243546783584e-02  1.8729378940906721e-01  1.1007138386680282e-01 -1.1696878802660748e-01
 -2.2683866663864904e-01 -7.9845429213437780e-01  1.1329702411798628e-01 -1.7805760885375435e+00 -4.9263665214397889e-01
 -5.5049517797169933e-01 -2.8874967571653348e-01 -2.9836353019072760e-02  5.4828360331910098e-01  9.9373442482983521e-01
  1.1196826885483446e-01 -4.8237934226069284e-02 -2.2723667797951169e-01  3.1461948809847584e-01  1.0932817460173805e-01
 -1.5216648065903358e+00 -4.9033195484188707e-01 -9.6213304687665313e-02 -1.3423380392779674e+00 -7.3646019088023884e-01
 -6.2476131041526184e-01  2.3572240784292464e-01  5.3771629714544766e-01 -1.0054373200662745e+00 -2.2139871611467399e-01
  1.3321086134139564e+00  9.3685281588586844e-01  7.7042859626248317e-01  4.3062474030219189e-01  1.2364506500865415e+00
 -2.2868062512136276e+00 -1.6305169452692062e-01 -4.0136386579871319e-01 -2.7634355106712860e-01 -3.4037194828845063e-01
  1.8507423940514747e-01  6.7628767054972860e-01 -1.8101768242493599e-01  1.1100521371717136e+00 -1.7775054114632738e-01
  2.0783056935348583e+00  6.9224293845782692e-01  1.2211340941134294e+00 -1.2403679666272396e+00  3.8720803975438400e-01
  1.0036746644017294e+00 -2.2763659380566142e-01 -9.1778091610164003e-01  9.9613004090626589e-01 -1.2013134471988529e+00
  5.6094555647927491e-01 -6.9331004037970967e-01  8.2349240044999683e-01 -2.3510443108476355e+00 -2.6843850998964847e-01
 -1.9496487331260115e-01 -3.9267748173030231e-01 -7.9719335444480166e-01  1.1290308878910071e-01 -1.6077206137135969e-01
 -5.5689658200604297e-01  4.8906870502095641e-02 -5.5898917128150294e-01 -4.4929889498354481e-01 -6.0048717963807174e-01
  8.6090529063088339e-02  5.1722684308260058e-01 -3.9351635989329076e-01  9.3203153476425804e-01  9.5263730568750038e-01
  7.8999081057243803e-01  5.9501470466215889e-01  6.8250351757495908e-01  1.6015276228739879e+00  1.0602887632278897e+00
  6.8229725538241581e-02 -7.5630443640454226e-01  2.1057122461675631e-01  3.5276657781113840e-01  1.1243584838227960e-01
  5.1180742306187366e-01 -2.5361528276154816e-01 -3.3265916430088520e-02  4.0084124058392412e-01 -2.6999343590665248e-02
  1.6963828387577262e-02 -1.3732233583165435e-01  8.7917828280829557e-02 -3.1938792476991651e-01 -7.4721515882410339e-01
 -7.2114360327246541e-01 -4.1193451397794449e-02 -8.4409102570657923e-02 -6.3260410207550954e-01 -8.7207996086512463e-01
 -7.3383665950772325e-01  1.5621680935795865e-01 -3.2243701034174554e-01 -7.4619716404576764e-02 -1.5001613784360179e-01
  2.0833110277605285e-01  3.9472828081212291e-01 -1.4655453519275344e-01  7.8407086734042419e-01  6.4491476107830614e-01
  6.2367129343181293e-01  1.9315893296388101e-01  2.9900859313072004e-01  7.9224839158526716e-01  6.7094428212731749e-01
  1.0577659632383463e-01 -6.2128819257472467e-01  1.1056020207892669e-01 -2.8723652114449383e-02  2.6778382535884715e-01
 -4.6571762955376117e-01 -3.4713124088800268e-01 -8.0980193891230501e-01 -1.0075051902093071e+00 -1.9613561010679303e-01
 -2.7517677868531587e-01 -9.4877650627409604e-02 -7.2132686127399726e-01 -4.9068691149556720e-01  4.7801785757584270e-01
  2.3560085583309220e-01  2.8895980954315020e-01  6.6325835798470872e-02  4.1755918681316206e-01  4.6536945312804479e-01
  2.6816686124659200e-01  1.4965026269140291e-01  2.4901903568332592e-01  1.8008565545490107e-01 -1.4042682446908872e-01
  5.3175137653269422e-02 -2.9690605436490825e-01 -2.2040869547239644e-01 -6.1281968425381450e-01  1.6659352729311294e-02
  1.2561571795737869e-01 -1.1367756867313017e-01  1.7763024460248955e-01 -4.4558609312699105e-01  6.7637784081765595e-01
  7.6101384401321859e-01  7.4599307780599533e-02 -5.4525702206611659e-01  6.8904902241406774e-02  1.1015775281840625e+00
  1.0263297784816476e+00  1.9702203675354218e-01  1.6782329047119593e-01  1.8140290494573819e-01  3.2254381501440132e-01
 -8.2210893847646294e-02  4.9095328630382976e-02  3.1932090652778822e-01 -5.4414878390334387e-01 -6.0806081711687021e-01
 -6.0956496730151155e-01  5.5560640614980616e-02 -5.3002729480270044e-02 -7.8366685616560616e-01  1.9339899838438868e-02
  1.2471941625394622e-01  5.7376091884409164e-01  6.4492544158619980e-01 -8.9883106506748689e-02  9.2082923859159127e-01
  6.5083393580160376e-01  3.7370958291892145e-02  8.4721711511434455e-02 -3.8844561137504563e-01 -8.0446097915320536e-02
 -4.8051762650171070e-01  2.1535066012919937e-01  1.4972411348078449e-01 -2.3027946204131755e-01  2.0745127862869017e-01
 -5.1162451175270984e-01  6.7320994681551893e-01  3.6281145870764225e-01  5.2038162688533962e-01  7.0698175163014909e-01
  2.8058709851194652e-01  6.2560805764528293e-01  8.2072866328180227e-01  3.3979134242480491e-01  4.8944290400415058e-01
 -2.8438614144548385e-01  3.8511429506010836e-01  4.7820738800882390e-02  1.0975932272935758e+00  1.4321013802513236e+00
  3.2558293883365119e-01  1.7020981071369740e-01  3.1471913665803819e-02  1.3377861092140684e+00  8.7663605584950499e-01
  3.4917778454932435e-01 -2.6882980181608124e-01  2.8587853859081019e-01 -4.8800631146604267e-02 -8.6403671730504561e-02
  4.6000734435422630e-01 -1.1465021997551890e+00 -6.3680692059805621e-01  2.4257870814265914e-01 -2.2253727296568826e-02
 -1.9696867726671385e-01 -8.3065574487222815e-01 -1.1104645535927915e-01 -2.9863968372976846e-01  2.1919151863231967e-01
 -3.2720136932113592e-01  4.1769848684903960e-01 -2.4741121903863356e-01  1.0102757136573879e+00 -2.7270785001930697e-01
  7.5117438446219112e-02  1.5006800691583397e-01  5.3959878412328313e-02 -1.8394372272269630e-01  6.4379491664235156e-01
  2.1996930702471312e-01  2.5404230690890528e-01  1.1809716952903430e-01  1.6690873815233565e-01  6.2838942569431400e-01
  2.9840032113698723e-02  1.3134065422416927e-01 -1.7134434347754343e-01  2.2035203323833677e-01  1.6216184321821137e-01
 -4.6877277185218436e-01 -1.3856044666353209e-01 -5.0834089538632617e-02  1.5803357599888640e-01  3.0396821708814747e-02
 -4.9817802370545378e-04 -4.3756140447651352e-02  9.8642067928137261e-02  1.5991039419642572e-01 -2.1863549045598088e-01
  5.9655466703605747e-03 -9.9637754335165155e-02 -8.3793569187295330e-02 -4.7035813397017484e-02 -2.1898232448285929e-01
  1.6392383676882047e-02 -4.9423168516574502e-02 -1.0521505350181803e-01 -2.0247728147540495e-01  8.8343921235093437e-02
  4.0133135959283445e-02  1.0605815012038275e-01 -1.5618620025037855e-02 -2.0073030747104531e-01  3.8792728495837636e-01
  5.3961769019742784e-02  2.2581560878428314e-01 -3.3039092550440678e-02 -6.8816261075340848e-02  3.6931123537238586e-01
 -1.5557461136818201e-02  1.7942413383608208e-01 -1.2442957793477230e-01  8.0703130705817541e-02  1.1240444367763890e-01
 -2.0411071896878860e-01 -1.8034898604476567e-02  1.1732582928377214e-02  1.5431827643093907e-01  1.6530731462197465e-01
  3.2904390772805894e-02 -1.0799293854001059e-01  2.1455431726486537e-01  3.2281085554841171e-01  3.1972880465385595e-01
 -1.1194317282205622e-02 -7.3715315363028319e-02  1.6228654656097308e-01  2.8480416304596473e-01  1.2872279515880292e-01
 -1.3579823828937795e-01  2.7028235973097642e-02 -1.4468710954372666e-01 -1.3872715838873251e-01 -1.2613487193563769e-01
 -2.2554581927567252e-01  1.5049527983512373e-01 -2.1013748060492410e-01 -3.8127306099021491e-01 -1.5110299338030089e-01
 -1.1280996390420460e-01  1.9826111391409576e-01  5.3009422241327209e-02 -1.5418079378333638e-01 -1.8236400856813301e-02
  2.4261435851968102e-01  1.2261499602884905e-01  9.9633411043359488e-02  7.2111542665874065e-02  4.5671602217583901e-01
 -4.8846788767667904e-02 -6.3645419703442188e-02  7.7061199275447481e-02  4.2291924303016881e-01  4.2589203340442784e-02
 -1.2915263306390629e-01 -8.1768917293669821e-03 -1.6532235229708589e-01  1.1524832840060456e-01 -4.2450948675019290e-01
 -2.1863687221550854e-01  3.6192811817544746e-02 -5.3457769373538945e-02 -2.0073268779513859e-01 -4.4509699556165672e-01
 -1.3097284435447781e-01  8.1151623845310324e-03  2.8470404489080448e-01 -1.9503699016682763e-01 -1.5512772714339390e-01
  3.0767079646288947e-01 -2.7038008874499298e-02  7.8165382927503010e-02 -1.0375701675713157e-01 -1.6365434688444941e-01
  5.6295894334175832e-02 -2.3043764843144802e-02  5.6281859041086759e-03  3.6944668570593309e-01 -3.2678997701736612e-01
  1.7248762715425484e-01 -1.2096366363669231e-01  2.3439177010115303e-01  2.9695891084152798e-01 -3.0787055429552312e-01
  8.7500722806019976e-02 -2.9416239970827912e-01  2.6365777767422138e-01 -4.8471402237619213e-02 -1.7098530768813455e-01
 -9.8834918490296481e-03 -3.1051707691723140e-01  1.9075911423764424e-02 -1.4046672139634797e-01 -7.6642353164183954e-02
  5.7394452073615154e-01 -2.8598617398427190e-01  1.7491391783303159e-01  4.0501613611148168e-01  3.0598348057584015e-02
  4.9397850274397542e-01 -3.4480651018157182e-01 -1.0941718461455803e-01  4.2874836711332236e-02  1.4410011309953116e-02
 -1.5626223856223156e-01 -1.9498436049454695e-01  1.1134131709360867e-01  1.0843322689826311e-01  2.4919312833248752e-01
  6.7691939085114960e-01  3.6099138687230671e-02 -3.0250230269209710e-01  3.7586675948703005e-02  3.1031128949840475e-01
  1.4568129485337619e-01  4.5366588328404545e-01  2.8888289361174724e-01  2.1772932885749044e-01  4.8638743160547354e-01
  3.8291827432330683e-01  8.9856915427173267e-01  1.2864411247928750e-01 -4.9347548477664060e-01  6.1829115134854777e-02
  1.4047843991916151e-01  1.0728173249416545e-01  3.4985870707237177e-01  3.7268874737134877e-01  4.5617686698280299e-02
  3.5933645582505769e-01  3.4354869645531516e-01  5.6758274075798654e-01  2.6382061704208676e-02 -1.1137510403474975e-03
  6.6392918233428022e-02 -2.5665492491737912e-01  2.6381168534275323e-01 -8.4741566455663364e-01  8.5241964037813658e-02
  2.6681223035150137e-01 -6.1611736797411976e-01  3.2409732488498177e-01  1.3363757034955695e-01 -1.1431820502409752e-01
 -6.6333661819808869e-04  1.8964465334899150e-02 -3.8736282388228954e-01 -6.3752817119739902e-02  4.6872877874286234e-02
 -1.9042890587565539e-01 -2.2219141727246097e-01 -6.4931638658750246e-01 -1.0140399633240883e-01  9.1153761949250081e-02
 -1.0851168650343611e-01 -2.1105668415012266e-01 -2.1425987806180311e-01  1.0393783520376877e-01 -1.6618625811728568e-02
  1.0784228668953427e-01  3.9890833570170585e-02  3.6756281030365295e-01  2.9696653590681171e-01 -1.0513222722431481e-01
  9.2172844647118793e-02  1.7099463927089764e-01  4.4965356945783802e-01  9.6205389174009448e-02 -1.3101790101193399e-02
 -7.6535181669858468e-02  2.3312137773337967e-03  1.5532098363991642e-01 -5.0093462059508687e-01  1.7767206156556553e-01
  7.1950461715747455e-02 -1.2875335731487811e-01  9.1602955786282275e-03 -1.0272897186914651e-01  1.5921341115741150e-01
  4.0514931051091846e-01  2.5057620406662601e-01  3.3347947123538468e-01 -9.5832908816735993e-02  5.8835592929351144e-02
  4.5772321021673518e-01  2.8485531829385335e-01  4.1390034846119877e-01 -1.9002317785582857e-02 -1.9865995305992690e-01
 -9.8646685479253943e-03 -5.6336569960220267e-02  3.0460409326640570e-01  1.0261033836158318e-01 -2.9141401932541905e-01
 -3.0734570516737836e-01 -8.1666929241265881e-02  1.3951243929450813e-01  2.1294541940573330e-01 -6.3011095624158686e-02
 -2.0510668038534172e-01  4.3960716482656687e-01 -7.2395305784809849e-02  2.2514501510190701e-01  2.1226286068790326e-01
 -2.6886544673689711e-01  6.1871769182652736e-01  8.6880163406419264e-01 -1.2777038832049958e-01 -3.1898708304950881e-03
  3.6602514884783355e-01  3.2331060664678024e-01  5.8176731001971982e-01 -1.8889635352664391e-01 -7.9023780289011802e-02
 -1.6450031651357758e-01 -3.1198643219326652e-02 -1.1594081416471697e-02 -1.3680144399463456e-01 -1.3985590057375522e-01
 -2.7558534104402688e-01 -7.3710510913761060e-02 -2.3962074917001064e-01  2.0814576874221458e-01 -1.5255469654915696e-01
 -6.5090522275026916e-03  4.1530794347269978e-01 -2.1415232641598481e-01  7.2259068270455007e-01 -7.0490250494949822e-02
 -3.2026444911195584e-01  5.2908784335408976e-01  8.3363193347640960e-02 -3.4729285755530181e-01  2.1556360676723202e-01
 -1.7641072760996035e-01  5.0175448823016694e-02 -5.0145639393910690e-01 -3.3845859219404317e-01  2.0142594434136024e-01
  1.7935645402668340e-02 -3.0143030118733209e-02 -5.2320980911595016e-01  3.1403182733265173e-02 -1.9902122802907757e-01
  1.6511309101017410e-01 -2.5754214146086729e-01 -1.5158416987920306e-01  6.8433070256793660e-01 -3.1963366845823493e-01
  4.4610821943731151e-02 -2.1336479721157500e-01 -7.9517572347057897e-01 -3.9868367823006878e-01  2.3603777511285265e-01
  1.9279419096082207e-02 -4.3371467394928231e-01 -5.7832521858294583e-01 -1.9614023342514456e-01 -5.1774748535808067e-02
 -9.0896152546094178e-02 -9.6762094088128447e-01  2.4551472855471598e-02  2.8099443382457190e-01  3.2623576516692059e-02
  5.3515023207985291e-01 -3.1684864737454282e-01 -3.5742084906834393e-01 -2.9870622273173580e-01  3.2734906172947270e-01
 -2.0072870604552270e-01 -7.8760120873560246e-01  1.2384441601505225e-01 -1.8172254637959265e-01  6.6779555988832939e-01
  7.1366251577790762e-01  5.8803992056223975e-01  1.4303017132113865e-01 -5.6766392745769545e-01  2.8373827885934361e-01
  2.2728753167534865e-01  8.6682618702487657e-01 -3.4518121979960226e-01 -3.7537792394178915e-01  8.5406538439870949e-02
  1.7882949343301832e-01  1.2689023182641385e-01  9.1612677261271358e-01  1.1517969670933015e+00 -1.2844169987317322e-01
 -2.4010381509550574e-01  2.0972124901518438e-02  1.5908834002994663e+00  1.1037143692846332e+00 -5.4695586328775558e-01
 -4.1083353062326311e-01 -3.0681128117001455e-01 -1.2826221714782537e-02  2.7748610136043261e-01  4.8236965311851066e-02
  6.1227702017436506e-02 -8.8944794617217132e-02  5.7413229277082767e-01  5.3096818168600013e-01 -3.5218323860034606e-01
 -7.6073159515108096e-02  6.2164699348133234e-02 -1.8384984373323521e-01 -3.8446631287621669e-01 -4.5030776094609415e-01
 -8.3577571501923104e-02  7.3155116625733249e-02 -7.2637928241029748e-01 -7.8643714124475306e-01 -1.0894394595799817e-01
 -3.8348416482858923e-03 -4.5303136725690425e-02 -4.5835791736526876e-01 -3.3295380935720331e-01  1.8728836944043833e-01
 -5.6016450777745419e-02 -7.1089141343320963e-02  4.4304107246088886e-01  3.5661101014137220e-01 -9.7358179275219836e-02
 -2.4807336010688102e-01  8.7411307990983178e-02  9.1652273710215404e-01  5.0728725812445763e-01 -5.0585817671868250e-01
 -1.8961575339703235e-01  1.4015685577396111e-01  2.0632721292997713e-01  2.2047760281588946e-01  2.5709033023094796e-02
  3.0121779037950225e-01  1.7034003838824058e-01  1.1010041169913354e-01  6.9143022619103922e-01  3.9198875283460177e-01
  2.9500546602194022e-01  8.8964195035727694e-03  3.4026201357212393e-01  8.0317360304691832e-01  4.9927070364859860e-01
 -1.2196747450276658e-01 -3.0703176858040426e-01  7.6160764648949719e-02 -1.8824876503090016e-01  2.9933333177788535e-01
 -3.9621310014238154e-01 -3.1441784235530001e-01 -5.4788207131949207e-01 -9.1420285068292317e-01 -1.8250757320382949e-02
 -1.3844035878451891e-01  1.9734259664123949e-01 -5.4809177417488186e-01 -4.2489420975202474e-01 -3.1575981602522146e-01
  2.3317625020932536e-01  8.0531662110495028e-01  5.2014878522654184e-01  9.2466271330691407e-02  8.7654077228393579e-01
  2.4248860359438498e-01 -1.1040500429273185e-01  1.0685357817258367e+00  1.1794898100779818e+00  6.2306896798075506e-01
 -1.7395133088393341e-01 -2.0051484563353217e-01  4.7444694982003011e-01  6.7389568621925910e-02  1.1035717951103347e-01
 -2.8496462133825623e-01 -1.4379591260687002e-01 -1.0403594366922260e+00 -8.5928284810116118e-01  4.1466833115161084e-02
  1.7840956218905743e-01  1.1920325563648443e-01 -1.4256987295027557e+00 -4.1952939902376762e-01  5.1615441448217503e-02
  4.3758854286815058e-01  6.2659795236170823e-01  4.3010396047670918e-01 -3.2790187547759864e-02  1.0486953496506679e-01
 -6.2111453558914294e-02  1.5406798029063157e-01  3.0415560953266163e-01  3.4319001893876111e-01 -3.3823465322915658e-01
  1.7988965404612081e-01  1.5924966312886230e-01 -3.3168345937969734e-01  4.3901388560914523e-01 -3.6013166107450534e-02
  3.7322770040145753e-01 -2.9229423385726844e-01 -6.3608201067628833e-01  2.2962196936591095e-01  3.8171088225840077e-01
  3.3219091660471717e-01 -2.4760891474798083e-01  4.9886864431770261e-02 -9.7815595082869855e-02 -5.9060296688147884e-01
  3.4950679651273536e-01 -9.2134507780779196e-02  9.3598417713113413e-01  1.0290558014421016e+00 -2.6406558551244208e-01
  6.7685801753272296e-02 -7.3592463024513888e-01  1.1333197692246042e+00  9.4352424475784957e-02  4.3744184721867085e-01
  1.8043094453245043e-01 -5.2163707563306749e-01 -1.4892620560395819e-01 -3.3855386383913721e-02 -3.1647982538228492e-01
 -3.7197803520920308e-01 -5.7406812732501866e-01  1.5931325403745813e+00 -7.6648372863297265e-01  4.2850374222359333e-01
  9.0569472005503596e-02  2.5073962455619669e-01 -3.0269914281376753e-01  1.2280814697354980e-01  9.8621849387296834e-01
 -2.9735884124805750e-01  3.0919241779629753e-01 -1.1266765587101260e+00 -3.1358172047901589e-02 -2.1422421324815843e-01
  3.5223428568893822e-01 -1.5576290281688349e-01  2.7229347140584786e-01  3.7992471339481604e-01  7.2294382523457479e-01
  4.1447502644074774e-01 -1.2378844736008757e-01  1.5608733305144015e-01  6.0028504550703587e-01  8.5739795617612025e-01
 -1.0219490731282477e-03 -3.6367836323138758e-01  2.1587556216840159e-01 -6.2957015339201838e-01  6.6377111482881723e-02
  3.0419996873079747e-01 -3.7648623207521735e-02 -1.5222375040285088e-01  2.0727854768354659e-01  2.3345124576168352e-01
 -4.1582550918715011e-01 -5.9654457477589976e-02 -1.8824031943511757e-01 -9.1705820085873135e-02 -5.5227504798154303e-02
 -6.8860658265906594e-01 -7.7972664426651947e-02 -6.5247694945986492e-02 -3.8916822184192412e-01 -3.8824955352288626e-01
 -1.3855292738218239e-01 -2.2664907583630878e-02  9.7636825382706391e-02 -2.6714686878230109e-01 -4.3234519951180328e-01
  5.3636146921797012e-01  6.0820373279576893e-02  8.5164281283798077e-02  2.5799542373042605e-01 -1.0014678614975647e-01
  3.1329995013783929e-01 -3.4990697383235042e-02 -5.9542996910664121e-03  4.1245288708671346e-01  1.8225573454902833e-01
 -1.9941485877082821e-01 -3.2843687654959214e-01  1.6684569705608462e-01 -1.8351603824793461e-01  1.7569480297219542e-01
 -4.0177537148066100e-01 -2.4878597110917611e-01  1.0513708572825470e-01 -4.1711466546939047e-01  8.4107154808871210e-01
  6.6706794913969691e-02 -1.0638304433479376e-01  1.9773045726785868e-01 -2.6887682815571523e-01  8.7833784877220111e-01
  6.2622797945271391e-01  2.5962166931020880e-01  4.8571008511151953e-03  1.0032270521339370e-02 -3.0812181099610525e-01
  6.1120769324335633e-01  3.9065436718180863e-01 -2.0087328103665353e-01 -8.6278492383613070e-02 -1.4343593766779636e+00
  6.0747995401910559e-02  1.4102374352536431e-01 -1.3858709457948354e-01 -6.2997469543576656e-02 -9.5141887000542269e-01
 -3.9770960754148377e-01 -1.5179723148974078e-01  1.1739895392992084e-01  6.2885658720234439e-01  3.2597253994107622e-01
